{"learner":{"attributes":{"scikit_learn":"{\"_estimator_type\": \"regressor\"}"},"feature_names":[],"feature_types":[],"gradient_booster":{"model":{"gbtree_model_param":{"num_parallel_tree":"1","num_trees":"200"},"iteration_indptr":[0,1,2,3,4,5,6,7,8,9,10,11,12,13,14,15,16,17,18,19,20,21,22,23,24,25,26,27,28,29,30,31,32,33,34,35,36,37,38,39,40,41,42,43,44,45,46,47,48,49,50,51,52,53,54,55,56,57,58,59,60,61,62,63,64,65,66,67,68,69,70,71,72,73,74,75,76,77,78,79,80,81,82,83,84,85,86,87,88,89,90,91,92,93,94,95,96,97,98,99,100,101,102,103,104,105,106,107,108,109,110,111,112,113,114,115,116,117,118,119,120,121,122,123,124,125,126,127,128,129,130,131,132,133,134,135,136,137,138,139,140,141,142,143,144,145,146,147,148,149,150,151,152,153,154,155,156,157,158,159,160,161,162,163,164,165,166,167,168,169,170,171,172,173,174,175,176,177,178,179,180,181,182,183,184,185,186,187,188,189,190,191,192,193,194,195,196,197,198,199,200],"tree_info":[0,0,0,0,0,0,0,0,0,0,0,0,0,0,0,0,0,0,0,0,0,0,0,0,0,0,0,0,0,0,0,0,0,0,0,0,0,0,0,0,0,0,0,0,0,0,0,0,0,0,0,0,0,0,0,0,0,0,0,0,0,0,0,0,0,0,0,0,0,0,0,0,0,0,0,0,0,0,0,0,0,0,0,0,0,0,0,0,0,0,0,0,0,0,0,0,0,0,0,0,0,0,0,0,0,0,0,0,0,0,0,0,0,0,0,0,0,0,0,0,0,0,0,0,0,0,0,0,0,0,0,0,0,0,0,0,0,0,0,0,0,0,0,0,0,0,0,0,0,0,0,0,0,0,0,0,0,0,0,0,0,0,0,0,0,0,0,0,0,0,0,0,0,0,0,0,0,0,0,0,0,0,0,0,0,0,0,0,0,0,0,0,0,0,0,0,0,0,0,0],"trees":[{"base_weights":[-0E0,8.593473E-1,-6.4787084E-1,1.1604937E0,3.5983923E-1,-3.0507922E-1,-9.4241756E-1,6.889843E-2,9.3227386E-1,7.139456E-1,1.6609329E-1,1.2176262E-1,-4.074523E-1,-1.0221249E0,-6.664129E-1,6.2074285E-2,7.454002E-1,4.7007088E-2,5.9235585E-1,3.1957394E-1,2.3456695E-2,5.177155E-1,-0E0,-2.3265806E-1,-5.4117E-1,-7.871828E-1,-1.217059E0,-0E0,-6.7546594E-1,3.8209528E-2,1.7777224E-1,6.3801825E-1,1.7532125E-1,4.2864478E-1,2.5239896E-2,8.2818024E-2,-1.4386532E-1,5.655311E-1,-0E0,3.1048796E-1,-1.7839526E-1,-5.981207E-2,-2.9781565E-1,-5.536803E-1,9.963088E-3,-8.3615494E-1,-1.7433763E-1,-6.1290253E-2,-1.1370638E-2,-7.046994E-1,-2.9660717E-1,1.0054886E-2,-0E0,3.2326337E-2,-0E0,1.1808218E-2,-0E0,9.442374E-3,2.5431821E-2,3.5812196E-3,-0E0,1.1896985E-2,1.5672598E-3,-9.479071E-3,-0E0,2.9790942E-2,-0E0,1.8716164E-2,-0E0,-1.1271453E-2,-0E0,-0E0,-1.0658764E-2,-1.5392929E-2,-0E0,-2.8513525E-2,-4.203837E-3,-0E0,3.2719024E-3,-0E0,-4.253734E-2,-1.4095043E-2,5.723336E-3,-0E0,-3.5558503E-2,-0E0,-2.0597953E-2],"categories":[],"categories_nodes":[],"categories_segments":[],"categories_sizes":[],"default_left":[0,0,0,0,0,0,0,0,0,0,0,0,0,0,0,0,0,0,0,0,0,0,0,0,0,0,0,0,0,0,0,0,0,0,0,0,0,0,0,0,0,0,0,0,0,0,0,0,0,0,0,0,0,0,0,0,0,0,0,0,0,0,0,0,0,0,0,0,0,0,0,0,0,0,0,0,0,0,0,0,0,0,0,0,0,0,0],"id":0,"left_children":[1,3,5,7,9,11,13,-1,15,17,19,21,23,25,27,-1,29,-1,31,33,35,37,39,41,43,45,47,-1,49,-1,51,53,55,57,59,61,63,65,-1,67,69,71,73,75,77,79,81,-1,-1,83,85,-1,-1,-1,-1,-1,-1,-1,-1,-1,-1,-1,-1,-1,-1,-1,-1,-1,-1,-1,-1,-1,-1,-1,-1,-1,-1,-1,-1,-1,-1,-1,-1,-1,-1,-1,-1],"loss_changes":[8.28558E2,9.474545E1,8.451196E1,1.6840393E1,1.5932156E1,1.7497646E1,8.142181E0,0E0,9.168411E0,6.8972015E-1,3.2463589E0,3.6940262E0,6.8098183E0,1.3624542E1,6.78318E-1,0E0,5.678482E-1,0E0,4.5306778E-1,2.0610676E0,8.2502127E-1,3.8120556E-1,3.303771E0,1.3387804E0,1.6150017E0,4.0310593E0,3.251953E-1,0E0,2.5735474E-1,0E0,1.6853258E-2,8.594322E-2,1.1024949E-1,4.2297554E-1,6.335643E-2,3.4159765E-1,2.2206637E-1,1.9181633E-1,0E0,4.3621278E-1,4.558351E-1,3.7726456E-1,4.6020508E-1,8.6156845E-1,1.0026245E-2,1.7725525E0,5.9566176E-1,0E0,0E0,1.3850021E-1,4.3481797E-1,0E0,0E0,0E0,0E0,0E0,0E0,0E0,0E0,0E0,0E0,0E0,0E0,0E0,0E0,0E0,0E0,0E0,0E0,0E0,0E0,0E0,0E0,0E0,0E0,0E0,0E0,0E0,0E0,0E0,0E0,0E0,0E0,0E0,0E0,0E0,0E0],"parents":[2147483647,0,0,1,1,2,2,3,3,4,4,5,5,6,6,8,8,9,9,10,10,11,11,12,12,13,13,14,14,16,16,18,18,19,19,20,20,21,21,22,22,23,23,24,24,25,25,26,26,28,28,30,30,31,31,32,32,33,33,34,34,35,35,36,36,37,37,39,39,40,40,41,41,42,42,43,43,44,44,45,45,46,46,49,49,50,50],"right_children":[2,4,6,8,10,12,14,-1,16,18,20,22,24,26,28,-1,30,-1,32,34,36,38,40,42,44,46,48,-1,50,-1,52,54,56,58,60,62,64,66,-1,68,70,72,74,76,78,80,82,-1,-1,84,86,-1,-1,-1,-1,-1,-1,-1,-1,-1,-1,-1,-1,-1,-1,-1,-1,-1,-1,-1,-1,-1,-1,-1,-1,-1,-1,-1,-1,-1,-1,-1,-1,-1,-1,-1,-1],"split_conditions":[-1.5442955E-1,-2.1729863E-1,9.704673E-2,-4.4482023E-1,-7.932284E-2,-7.932284E-2,3.9663162E0,6.889843E-2,-2.5502008E-1,-8.983056E-1,-1.9215101E-1,-1.3269097E0,-7.898667E-2,4.994088E-1,1.22194365E-1,6.2074285E-2,1.8614299E0,4.7007088E-2,-1.6700338E-1,8.762435E-1,9.251667E-1,1E0,-1.16708115E-1,3.855845E-1,1E0,1E0,1E0,-0E0,1E0,3.8209528E-2,2.4192376E0,1E0,-1.9045396E-1,1.2885429E-1,1.2323362E0,1.3576128E-1,1E0,1E0,-0E0,4.1322526E-1,1.0085645E0,-1.041343E-1,1E0,3.7365818E0,-3.5437827E-3,-5.4507184E-1,1E0,-6.1290253E-2,-1.1370638E-2,-6.488827E-1,3.6109683E-1,1.0054886E-2,-0E0,3.2326337E-2,-0E0,1.1808218E-2,-0E0,9.442374E-3,2.5431821E-2,3.5812196E-3,-0E0,1.1896985E-2,1.5672598E-3,-9.479071E-3,-0E0,2.9790942E-2,-0E0,1.8716164E-2,-0E0,-1.1271453E-2,-0E0,-0E0,-1.0658764E-2,-1.5392929E-2,-0E0,-2.8513525E-2,-4.203837E-3,-0E0,3.2719024E-3,-0E0,-4.253734E-2,-1.4095043E-2,5.723336E-3,-0E0,-3.5558503E-2,-0E0,-2.0597953E-2],"split_indices":[60,60,60,76,76,76,61,0,60,76,60,76,60,60,60,0,76,0,60,76,76,57,60,76,23,154,40,0,36,0,76,47,76,63,76,76,96,103,0,70,77,60,143,72,60,76,133,0,0,76,60,0,0,0,0,0,0,0,0,0,0,0,0,0,0,0,0,0,0,0,0,0,0,0,0,0,0,0,0,0,0,0,0,0,0,0,0],"split_type":[0,0,0,0,0,0,0,0,0,0,0,0,0,0,0,0,0,0,0,0,0,0,0,0,0,0,0,0,0,0,0,0,0,0,0,0,0,0,0,0,0,0,0,0,0,0,0,0,0,0,0,0,0,0,0,0,0,0,0,0,0,0,0,0,0,0,0,0,0,0,0,0,0,0,0,0,0,0,0,0,0,0,0,0,0,0,0],"sum_hessian":[1.4862153E3,6.387025E2,8.4751276E2,3.9677048E2,2.4193207E2,3.9371823E2,4.5379453E2,1.9901778E2,1.977527E2,8.333112E1,1.5860094E2,7.4802795E1,3.1891544E2,3.480436E2,1.05750916E2,7.0955826E1,1.26796875E2,2.4767141E1,5.8563984E1,7.3434975E1,8.516597E1,1.6975224E1,5.7827568E1,1.416834E2,1.7723204E2,1.6173889E2,1.8630473E2,1.3556194E0,1.04395294E2,1.2120511E2,5.5917716E0,5.079398E1,7.770005E0,5.1511776E1,2.1923197E1,6.632444E1,1.884153E1,1.5256041E1,1.7191839E0,2.0675623E1,3.7151947E1,4.2254486E1,9.942891E1,1.7453569E2,2.6963408E0,1.4837566E2,1.3363222E1,1.8373502E2,2.5697114E0,9.440325E1,9.992039E0,4.568031E0,1.023741E0,4.964532E1,1.1486604E0,5.8099937E0,1.9600115E0,1.5914715E1,3.559706E1,1.4196668E1,7.7265286E0,1.2233818E1,5.409062E1,1.660466E1,2.2368705E0,1.418566E1,1.0703797E0,1.7026268E1,3.6493556E0,3.186251E1,5.289435E0,3.1547544E1,1.07069435E1,9.783909E1,1.5898242E0,1.669333E2,7.6023955E0,1.2692455E0,1.4270953E0,2.6311135E0,1.4574455E2,1.1520266E1,1.8429561E0,1.4543288E0,9.294893E1,2.7317748E0,7.260264E0],"tree_param":{"num_deleted":"0","num_feature":"160","num_nodes":"87","size_leaf_vector":"1"}},{"base_weights":[-0E0,8.2762796E-1,-6.206584E-1,1.1231916E0,3.4436062E-1,-2.9051965E-1,-9.0696293E-1,6.7067645E-2,8.9701E-1,6.849491E-1,1.5886544E-1,1.169348E-1,-3.8842636E-1,-7.2509044E-1,-1.0255445E0,6.0183536E-2,7.1385694E-1,9.052734E-1,5.6690836E-1,3.0526638E-1,2.2616269E-2,4.9622536E-1,-0E0,-2.2150423E-1,-5.163143E-1,-7.641124E-1,-1.6395713E-1,-1.1787314E0,-6.7142344E-1,7.3168105E-1,1.7092496E-1,4.649849E-2,-0E0,6.102242E-1,1.676314E-1,4.09579E-1,2.3023723E-2,7.9412274E-2,-1.3599914E-1,5.4196805E-1,-0E0,2.9626742E-1,-1.6908427E-1,-1.1839315E-1,-3.2760215E-1,-5.2846074E-1,8.70189E-3,-8.2121605E-1,-3.8539264E-1,-2.6925412E-1,5.540751E-3,-5.9361573E-2,-1.0974797E-2,-0E0,-3.3828616E-2,4.051779E-2,2.86412E-2,9.729213E-3,-0E0,3.1695288E-2,3.6886574E-3,1.1315956E-2,-0E0,1.6201084E-2,3.5628073E-2,3.880505E-3,-0E0,1.1356972E-2,1.4903423E-3,-9.03698E-3,-0E0,2.8536472E-2,-0E0,2.785359E-3,2.2522112E-2,-1.0732519E-2,-0E0,-1.4648172E-3,-1.0307099E-2,-2.0849053E-2,-6.615503E-3,-2.7207876E-2,-4.0187878E-3,-0E0,3.1766568E-3,-0E0,-4.1689053E-2,-2.412874E-3,-2.5994003E-2,-1.6075281E-2,-0E0],"categories":[],"categories_nodes":[],"categories_segments":[],"categories_sizes":[],"default_left":[0,0,0,0,0,0,0,0,0,0,0,0,0,0,0,0,0,0,0,0,0,0,0,0,0,0,0,0,0,0,0,0,0,0,0,0,0,0,0,0,0,0,0,0,0,0,0,0,0,0,0,0,0,0,0,0,0,0,0,0,0,0,0,0,0,0,0,0,0,0,0,0,0,0,0,0,0,0,0,0,0,0,0,0,0,0,0,0,0,0,0],"id":1,"left_children":[1,3,5,7,9,11,13,-1,15,17,19,21,23,25,27,-1,29,31,33,35,37,39,41,43,45,47,49,51,53,55,57,-1,-1,59,61,63,65,67,69,71,-1,73,75,77,79,81,83,85,87,89,-1,-1,-1,-1,-1,-1,-1,-1,-1,-1,-1,-1,-1,-1,-1,-1,-1,-1,-1,-1,-1,-1,-1,-1,-1,-1,-1,-1,-1,-1,-1,-1,-1,-1,-1,-1,-1,-1,-1,-1,-1],"loss_changes":[7.5742737E2,8.887372E1,7.8509186E1,1.651773E1,1.4603588E1,1.5944843E1,7.7245483E0,0E0,8.8355255E0,6.3500977E-1,2.9441051E0,3.3739567E0,6.181465E0,3.2351685E0,1.2415405E1,0E0,4.7131348E-1,1.2424469E-2,3.786888E-1,1.8753815E0,7.472403E-1,3.4529066E-1,2.989677E0,1.2085848E0,1.5007324E0,2.5108109E0,5.558461E-1,2.541809E-1,6.4655304E-2,8.394623E-2,1.8175438E-2,0E0,0E0,1.1249733E-1,1.02215335E-1,4.0139294E-1,5.8941066E-2,3.0663624E-1,2.0797071E-1,1.6930819E-1,0E0,4.2325068E-1,4.2299783E-1,4.3278122E-1,7.184572E-1,7.489853E-1,9.514198E-3,1.2639236E0,7.44153E-1,2.6871032E-1,0E0,0E0,0E0,0E0,0E0,0E0,0E0,0E0,0E0,0E0,0E0,0E0,0E0,0E0,0E0,0E0,0E0,0E0,0E0,0E0,0E0,0E0,0E0,0E0,0E0,0E0,0E0,0E0,0E0,0E0,0E0,0E0,0E0,0E0,0E0,0E0,0E0,0E0,0E0,0E0,0E0],"parents":[2147483647,0,0,1,1,2,2,3,3,4,4,5,5,6,6,8,8,9,9,10,10,11,11,12,12,13,13,14,14,16,16,17,17,18,18,19,19,20,20,21,21,22,22,23,23,24,24,25,25,26,26,27,27,28,28,29,29,30,30,33,33,34,34,35,35,36,36,37,37,38,38,39,39,41,41,42,42,43,43,44,44,45,45,46,46,47,47,48,48,49,49],"right_children":[2,4,6,8,10,12,14,-1,16,18,20,22,24,26,28,-1,30,32,34,36,38,40,42,44,46,48,50,52,54,56,58,-1,-1,60,62,64,66,68,70,72,-1,74,76,78,80,82,84,86,88,90,-1,-1,-1,-1,-1,-1,-1,-1,-1,-1,-1,-1,-1,-1,-1,-1,-1,-1,-1,-1,-1,-1,-1,-1,-1,-1,-1,-1,-1,-1,-1,-1,-1,-1,-1,-1,-1,-1,-1,-1,-1],"split_conditions":[-1.5442955E-1,-2.1729863E-1,9.704673E-2,-4.4482023E-1,-7.932284E-2,-7.932284E-2,4.994088E-1,6.7067645E-2,-2.5502008E-1,-8.983056E-1,-1.9215101E-1,-1.3269097E0,-7.898667E-2,1E0,3.9663162E0,6.0183536E-2,1.8614299E0,1.0566972E0,-1.6700338E-1,8.762435E-1,9.251667E-1,1E0,-1.16708115E-1,7.116691E-1,1E0,1E0,1E0,1E0,1.4189417E0,-2.2987245E-1,-2.0508969E-1,4.649849E-2,-0E0,1E0,-1.9045396E-1,8.4951484E-1,1.136465E0,1.3576128E-1,1E0,1E0,-0E0,4.8165914E-1,1.0085645E0,-1.16708115E-1,6.96193E-1,3.7365818E0,-3.5437827E-3,-7.699677E-1,-5.232197E-1,1E0,5.540751E-3,-5.9361573E-2,-1.0974797E-2,-0E0,-3.3828616E-2,4.051779E-2,2.86412E-2,9.729213E-3,-0E0,3.1695288E-2,3.6886574E-3,1.1315956E-2,-0E0,1.6201084E-2,3.5628073E-2,3.880505E-3,-0E0,1.1356972E-2,1.4903423E-3,-9.03698E-3,-0E0,2.8536472E-2,-0E0,2.785359E-3,2.2522112E-2,-1.0732519E-2,-0E0,-1.4648172E-3,-1.0307099E-2,-2.0849053E-2,-6.615503E-3,-2.7207876E-2,-4.0187878E-3,-0E0,3.1766568E-3,-0E0,-4.1689053E-2,-2.412874E-3,-2.5994003E-2,-1.6075281E-2,-0E0],"split_indices":[60,60,60,76,76,76,60,0,60,76,60,76,60,154,61,0,76,73,60,76,76,57,60,76,23,36,133,40,77,60,81,0,0,3,76,73,76,76,96,103,0,77,77,60,63,72,60,76,70,48,0,0,0,0,0,0,0,0,0,0,0,0,0,0,0,0,0,0,0,0,0,0,0,0,0,0,0,0,0,0,0,0,0,0,0,0,0,0,0,0,0],"split_type":[0,0,0,0,0,0,0,0,0,0,0,0,0,0,0,0,0,0,0,0,0,0,0,0,0,0,0,0,0,0,0,0,0,0,0,0,0,0,0,0,0,0,0,0,0,0,0,0,0,0,0,0,0,0,0,0,0,0,0,0,0,0,0,0,0,0,0,0,0,0,0,0,0,0,0,0,0,0,0,0,0,0,0,0,0,0,0,0,0,0,0],"sum_hessian":[1.4723706E3,6.311071E2,8.4126355E2,3.8988373E2,2.4122339E2,3.927926E2,4.4847095E2,1.9437546E2,1.9550827E2,8.277451E1,1.5844887E2,7.4675316E1,3.1811728E2,1.8213792E2,2.6633304E2,6.959261E1,1.25915665E2,2.4481047E1,5.829347E1,7.330445E1,8.514442E1,1.6904196E1,5.7771122E1,1.4155814E2,1.7655914E2,1.6879077E2,1.3347144E1,1.829057E2,8.342734E1,1.2032841E2,5.587255E0,2.3160028E1,1.3210185E0,5.0530174E1,7.763292E0,5.138283E1,2.1921618E1,6.631227E1,1.883215E1,1.5185011E1,1.7191839E0,2.0641521E1,3.7129604E1,7.620855E1,6.534959E1,1.738635E2,2.6956403E0,1.4405356E2,2.4737226E1,1.1505648E1,1.8414965E0,1.8034024E2,2.5654554E0,1.1388854E0,8.228845E1,7.478375E1,4.5544655E1,4.5627966E0,1.0244583E0,4.6970154E1,3.5600228E0,5.8032804E0,1.9600115E0,4.348358E1,7.8992505E0,1.0802717E1,1.1118901E1,1.2222587E1,5.4089684E1,1.659528E1,2.2368705E0,1.4114632E1,1.0703797E0,1.0367167E1,1.0274353E1,3.1840168E1,5.289435E0,4.2433933E1,3.3774616E1,4.1593872E1,2.3755716E1,1.6626259E2,7.6009164E0,1.2692455E0,1.4263947E0,2.520863E0,1.4153268E2,8.925761E0,1.5811464E1,1.0370698E1,1.1349497E0],"tree_param":{"num_deleted":"0","num_feature":"160","num_nodes":"91","size_leaf_vector":"1"}},{"base_weights":[6.153116E-5,7.967097E-1,-5.943982E-1,1.086116E0,3.2985118E-1,-2.767573E-1,-8.7223715E-1,6.5202765E-2,8.627601E-1,6.5751255E-1,1.5212984E-1,1.1288058E-1,-3.7055278E-1,-9.495481E-1,-6.0834646E-1,5.828237E-2,6.8383616E-1,4.361291E-2,5.4280543E-1,2.9193756E-1,2.1815289E-2,4.7551006E-1,-0E0,-2.1162814E-1,-4.9243125E-1,-7.240597E-1,-1.1402868E0,-0E0,-6.1713177E-1,6.890954E-1,-0E0,5.565051E-1,-0E0,3.9169475E-1,2.1196414E-2,7.616603E-2,-1.2849477E-1,5.1922816E-1,-0E0,2.846889E-1,-1.6021045E-1,-5.2083965E-2,-2.7137417E-1,-5.0422275E-1,7.477419E-3,-7.700407E-1,-1.5325618E-1,-5.7425726E-2,-1.0592237E-2,-6.441065E-1,-2.6441944E-1,3.4777187E-2,-0E0,3.1650748E-2,1.5558749E-2,8.248463E-3,2.334869E-2,3.2767088E-3,-0E0,1.0840749E-2,1.4172014E-3,-8.615131E-3,-0E0,2.7324835E-2,-0E0,-0E0,1.672562E-2,-1.0218732E-2,-0E0,-0E0,-9.714159E-3,-1.405478E-2,-0E0,-1.5425098E-2,-2.746926E-2,-0E0,3.084163E-3,-0E0,-3.9194394E-2,-1.68766E-2,-0E0,-0E0,-3.2592826E-2,-0E0,-1.8560743E-2],"categories":[],"categories_nodes":[],"categories_segments":[],"categories_sizes":[],"default_left":[0,0,0,0,0,0,0,0,0,0,0,0,0,0,0,0,0,0,0,0,0,0,0,0,0,0,0,0,0,0,0,0,0,0,0,0,0,0,0,0,0,0,0,0,0,0,0,0,0,0,0,0,0,0,0,0,0,0,0,0,0,0,0,0,0,0,0,0,0,0,0,0,0,0,0,0,0,0,0,0,0,0,0,0,0],"id":2,"left_children":[1,3,5,7,9,11,13,-1,15,17,19,21,23,25,27,-1,29,-1,31,33,35,37,39,41,43,45,47,-1,49,51,-1,53,-1,55,57,59,61,63,-1,65,67,69,71,73,75,77,79,-1,-1,81,83,-1,-1,-1,-1,-1,-1,-1,-1,-1,-1,-1,-1,-1,-1,-1,-1,-1,-1,-1,-1,-1,-1,-1,-1,-1,-1,-1,-1,-1,-1,-1,-1,-1,-1],"loss_changes":[6.923227E2,8.310748E1,7.277957E1,1.6075745E1,1.3400421E1,1.4582792E1,7.4018555E0,0E0,8.445755E0,5.8701324E-1,2.6764026E0,3.070844E0,5.569916E0,1.2492798E1,6.2054825E-1,0E0,4.2448425E-1,0E0,3.3800316E-1,1.7061996E0,6.767489E-1,3.123002E-1,2.7295034E0,1.1171751E0,1.3945465E0,3.4411316E0,1.8537903E-1,0E0,1.8523407E-1,1.5221405E-1,0E0,2.1697617E-1,0E0,3.725872E-1,5.4954413E-2,2.749181E-1,1.9481191E-1,1.4877748E-1,0E0,3.784591E-1,3.9268595E-1,3.2398924E-1,4.126048E-1,7.7025986E-1,9.0228375E-3,1.5443268E0,5.272212E-1,0E0,0E0,9.538269E-2,3.665812E-1,0E0,0E0,0E0,0E0,0E0,0E0,0E0,0E0,0E0,0E0,0E0,0E0,0E0,0E0,0E0,0E0,0E0,0E0,0E0,0E0,0E0,0E0,0E0,0E0,0E0,0E0,0E0,0E0,0E0,0E0,0E0,0E0,0E0,0E0],"parents":[2147483647,0,0,1,1,2,2,3,3,4,4,5,5,6,6,8,8,9,9,10,10,11,11,12,12,13,13,14,14,16,16,18,18,19,19,20,20,21,21,22,22,23,23,24,24,25,25,26,26,28,28,29,29,31,31,33,33,34,34,35,35,36,36,37,37,39,39,40,40,41,41,42,42,43,43,44,44,45,45,46,46,49,49,50,50],"right_children":[2,4,6,8,10,12,14,-1,16,18,20,22,24,26,28,-1,30,-1,32,34,36,38,40,42,44,46,48,-1,50,52,-1,54,-1,56,58,60,62,64,-1,66,68,70,72,74,76,78,80,-1,-1,82,84,-1,-1,-1,-1,-1,-1,-1,-1,-1,-1,-1,-1,-1,-1,-1,-1,-1,-1,-1,-1,-1,-1,-1,-1,-1,-1,-1,-1,-1,-1,-1,-1,-1,-1],"split_conditions":[-1.5442955E-1,-2.1729863E-1,9.704673E-2,-4.4482023E-1,-7.932284E-2,-7.932284E-2,3.9663162E0,6.5202765E-2,-2.5502008E-1,-8.983056E-1,-1.9215101E-1,-1.3269097E0,-7.898667E-2,4.994088E-1,1.22194365E-1,5.828237E-2,2.4192376E0,4.361291E-2,9.676618E-1,8.762435E-1,9.251667E-1,1E0,-1.16708115E-1,3.855845E-1,1E0,1E0,1E0,-0E0,1E0,1E0,-0E0,1E0,-0E0,1.2885429E-1,1.2323362E0,1.3576128E-1,1E0,1E0,-0E0,-1.7610211E0,1.0085645E0,-1.041343E-1,1E0,3.0211064E-1,-3.5437827E-3,-5.4507184E-1,1.4794761E-1,-5.7425726E-2,-1.0592237E-2,-4.4482023E-1,3.6109683E-1,3.4777187E-2,-0E0,3.1650748E-2,1.5558749E-2,8.248463E-3,2.334869E-2,3.2767088E-3,-0E0,1.0840749E-2,1.4172014E-3,-8.615131E-3,-0E0,2.7324835E-2,-0E0,-0E0,1.672562E-2,-1.0218732E-2,-0E0,-0E0,-9.714159E-3,-1.405478E-2,-0E0,-1.5425098E-2,-2.746926E-2,-0E0,3.084163E-3,-0E0,-3.9194394E-2,-1.68766E-2,-0E0,-0E0,-3.2592826E-2,-0E0,-1.8560743E-2],"split_indices":[60,60,60,76,76,76,61,0,60,76,60,76,60,60,60,0,76,0,73,76,76,57,60,76,23,154,40,0,36,131,0,53,0,63,76,76,96,103,0,77,77,60,143,76,60,76,69,0,0,76,60,0,0,0,0,0,0,0,0,0,0,0,0,0,0,0,0,0,0,0,0,0,0,0,0,0,0,0,0,0,0,0,0,0,0],"split_type":[0,0,0,0,0,0,0,0,0,0,0,0,0,0,0,0,0,0,0,0,0,0,0,0,0,0,0,0,0,0,0,0,0,0,0,0,0,0,0,0,0,0,0,0,0,0,0,0,0,0,0,0,0,0,0,0,0,0,0,0,0,0,0,0,0,0,0,0,0,0,0,0,0,0,0,0,0,0,0,0,0,0,0,0,0],"sum_hessian":[1.4596073E3,6.240893E2,8.3551807E2,3.8351935E2,2.4056992E2,3.9194284E2,4.4357523E2,1.9007814E2,1.9344121E2,8.2263626E1,1.5830629E2,7.455708E1,3.1738577E2,3.3900687E2,1.0456835E2,6.8334946E1,1.2510627E2,2.421796E1,5.8045662E1,7.318165E1,8.512465E1,1.6839094E1,5.7717987E1,1.414372E2,1.7594858E2,1.5923164E2,1.7977522E2,1.3549085E0,1.0321345E2,1.2408264E2,1.0236263E0,5.626576E1,1.7799033E0,5.1261578E1,2.192007E1,6.6301094E1,1.8823553E1,1.511991E1,1.7191839E0,2.0608717E1,3.710927E1,4.2236916E1,9.920027E1,1.7325362E2,2.6949637E0,1.4590308E2,1.3328575E1,1.772138E2,2.5614262E0,9.32696E1,9.943846E0,1.2208877E2,1.9938735E0,3.951032E1,1.6755442E1,1.5891056E1,3.537052E1,1.4193542E1,7.7265286E0,1.2212269E1,5.408883E1,1.6586681E1,2.2368705E0,1.404953E1,1.0703797E0,2.575428E0,1.8033289E1,3.1819834E1,5.289435E0,3.1546135E1,1.0690782E1,9.761134E1,1.588933E0,3.685695E1,1.3639667E2,1.2692455E0,1.4257182E0,2.6309524E0,1.4327213E2,6.581666E0,6.746909E0,2.0037613E0,9.126584E1,2.73089E0,7.212956E0],"tree_param":{"num_deleted":"0","num_feature":"160","num_nodes":"85","size_leaf_vector":"1"}},{"base_weights":[2.5046023E-4,8.1176746E-1,-5.3702676E-1,1.0489424E0,3.5611245E-1,-2.2067493E-1,-8.315524E-1,6.3310206E-2,8.2874155E-1,5.722928E-1,9.803493E-2,1.6471836E-1,-3.166641E-1,-6.583554E-1,-9.523975E-1,5.63772E-2,6.5406543E-1,4.345234E-2,4.8792467E-1,1.7468588E-1,-0E0,5.3247374E-1,3.5869155E-2,-1.3108549E-1,-4.369266E-1,-7.553009E-2,-6.871599E-1,-1.1018554E0,-6.1432564E-1,6.7071944E-1,1.4417443E-1,3.7145984E-1,6.626941E-1,2.3221937E-1,-0E0,2.4453731E-2,-7.092082E-2,2.7759496E-2,-0E0,2.4486266E-1,-1.8351348E-1,-4.760404E-2,-3.0223522E-1,-4.4637728E-1,6.288748E-3,-1.7588161E-1,5.363179E-3,-7.103616E-1,-1.15131035E-1,-9.8629224E-1,-6.300514E-2,-0E0,-6.191717E-1,3.7392024E-2,2.5809443E-2,8.365326E-3,-0E0,2.1321652E-2,4.8193996E-4,3.5059508E-2,-0E0,1.2193299E-2,-0E0,-0E0,-8.695477E-5,5.129033E-3,-0E0,-0E0,-4.448417E-3,1.5880885E-2,7.2805927E-4,-1.0507549E-2,-0E0,2.922297E-4,-5.308758E-3,-2.1426687E-2,-4.2688097E-3,-2.333934E-2,-2.9202693E-3,-0E0,2.9943527E-3,-1.1901882E-2,-0E0,-3.7456185E-2,-2.1166638E-2,-1.7110562E-2,2.0730945E-3,-4.9896147E-2,-2.9782297E-3,-0E0,-3.1238858E-2],"categories":[],"categories_nodes":[],"categories_segments":[],"categories_sizes":[],"default_left":[0,0,0,0,0,0,0,0,0,0,0,0,0,0,0,0,0,0,0,0,0,0,0,0,0,0,0,0,0,0,0,0,0,0,0,0,0,0,0,0,0,0,0,0,0,0,0,0,0,0,0,0,0,0,0,0,0,0,0,0,0,0,0,0,0,0,0,0,0,0,0,0,0,0,0,0,0,0,0,0,0,0,0,0,0,0,0,0,0,0,0],"id":3,"left_children":[1,3,5,7,9,11,13,-1,15,17,19,21,23,25,27,-1,29,-1,31,33,35,37,39,41,43,45,47,49,51,53,55,57,59,61,63,65,67,-1,-1,69,71,73,75,77,79,81,-1,83,85,87,-1,-1,89,-1,-1,-1,-1,-1,-1,-1,-1,-1,-1,-1,-1,-1,-1,-1,-1,-1,-1,-1,-1,-1,-1,-1,-1,-1,-1,-1,-1,-1,-1,-1,-1,-1,-1,-1,-1,-1,-1],"loss_changes":[6.323611E2,6.1114807E1,8.0311356E1,1.5599548E1,1.0655991E1,1.5801111E1,7.6635437E0,0E0,8.065292E0,1.314434E0,6.775224E-1,3.540678E0,7.1405487E0,2.613205E0,1.1280594E1,0E0,3.9752197E-1,0E0,8.1550026E-1,6.135514E-1,6.893961E-2,1.7095327E-1,3.0374737E0,1.7058699E0,1.1644592E0,2.731169E-1,1.7334747E0,4.3798828E-1,6.370163E-2,1.5694046E-1,1.8661633E-2,8.3080006E-1,8.332052E-1,1.0337019E-1,2.2083725E-5,1.3772689E-1,9.334628E-3,0E0,0E0,3.4943938E-1,2.623918E-1,3.7258363E-1,7.58306E-1,1.1974144E0,8.551292E-3,1.4602306E-1,0E0,7.748184E-1,5.588922E-1,3.856659E-1,0E0,0E0,2.969551E-2,0E0,0E0,0E0,0E0,0E0,0E0,0E0,0E0,0E0,0E0,0E0,0E0,0E0,0E0,0E0,0E0,0E0,0E0,0E0,0E0,0E0,0E0,0E0,0E0,0E0,0E0,0E0,0E0,0E0,0E0,0E0,0E0,0E0,0E0,0E0,0E0,0E0,0E0],"parents":[2147483647,0,0,1,1,2,2,3,3,4,4,5,5,6,6,8,8,9,9,10,10,11,11,12,12,13,13,14,14,16,16,18,18,19,19,20,20,21,21,22,22,23,23,24,24,25,25,26,26,27,27,28,28,29,29,30,30,31,31,32,32,33,33,34,34,35,35,36,36,39,39,40,40,41,41,42,42,43,43,44,44,45,45,47,47,48,48,49,49,52,52],"right_children":[2,4,6,8,10,12,14,-1,16,18,20,22,24,26,28,-1,30,-1,32,34,36,38,40,42,44,46,48,50,52,54,56,58,60,62,64,66,68,-1,-1,70,72,74,76,78,80,82,-1,84,86,88,-1,-1,90,-1,-1,-1,-1,-1,-1,-1,-1,-1,-1,-1,-1,-1,-1,-1,-1,-1,-1,-1,-1,-1,-1,-1,-1,-1,-1,-1,-1,-1,-1,-1,-1,-1,-1,-1,-1,-1,-1],"split_conditions":[-1.6700338E-1,-2.1729863E-1,8.447292E-2,-4.4482023E-1,2.924148E-1,-1.0216283E-1,4.994088E-1,6.3310206E-2,-2.5502008E-1,-8.983056E-1,-1.9215101E-1,-1.3269097E0,-1.041343E-1,-2.653488E-1,3.9663162E0,5.63772E-2,1.8614299E0,4.345234E-2,6.8263865E-1,1.136465E0,5.895694E-1,4.6473923E0,-1.041343E-1,9.3137383E-1,1E0,1E0,1E0,1.5933306E0,1.4189417E0,-2.2987245E-1,-2.0508969E-1,-1.7957719E-1,9.676618E-1,1E0,-8.568671E-1,-3.8368907E-2,4.7891843E-1,2.7759496E-2,-0E0,-1.2928192E-1,1E0,3.855845E-1,6.96193E-1,3.7487047E0,-3.5437827E-3,1E0,5.363179E-3,3.959725E-1,1.3732047E0,1E0,-6.300514E-2,-0E0,-1.9045396E-1,3.7392024E-2,2.5809443E-2,8.365326E-3,-0E0,2.1321652E-2,4.8193996E-4,3.5059508E-2,-0E0,1.2193299E-2,-0E0,-0E0,-8.695477E-5,5.129033E-3,-0E0,-0E0,-4.448417E-3,1.5880885E-2,7.2805927E-4,-1.0507549E-2,-0E0,2.922297E-4,-5.308758E-3,-2.1426687E-2,-4.2688097E-3,-2.333934E-2,-2.9202693E-3,-0E0,2.9943527E-3,-1.1901882E-2,-0E0,-3.7456185E-2,-2.1166638E-2,-1.7110562E-2,2.0730945E-3,-4.9896147E-2,-2.9782297E-3,-0E0,-3.1238858E-2],"split_indices":[60,60,60,76,76,76,60,0,60,76,60,76,60,76,61,0,76,0,77,76,77,61,60,76,23,133,140,60,77,60,81,60,73,32,70,81,76,0,0,60,42,76,63,61,60,36,0,59,69,40,0,0,76,0,0,0,0,0,0,0,0,0,0,0,0,0,0,0,0,0,0,0,0,0,0,0,0,0,0,0,0,0,0,0,0,0,0,0,0,0,0],"split_type":[0,0,0,0,0,0,0,0,0,0,0,0,0,0,0,0,0,0,0,0,0,0,0,0,0,0,0,0,0,0,0,0,0,0,0,0,0,0,0,0,0,0,0,0,0,0,0,0,0,0,0,0,0,0,0,0,0,0,0,0,0,0,0,0,0,0,0,0,0,0,0,0,0,0,0,0,0,0,0,0,0,0,0,0,0,0,0,0,0,0,0],"sum_hessian":[1.4478965E3,5.77069E2,8.7082745E2,3.7765555E2,1.9941342E2,4.2184595E2,4.489815E2,1.8610529E2,1.9155026E2,1.06376526E2,9.3036896E1,8.252048E1,3.3932547E2,1.895526E2,2.5942892E2,6.7176E1,1.2437426E2,1.9652786E1,8.672374E1,5.0820038E1,4.2216858E1,1.9188452E1,6.333202E1,1.365398E2,2.0278569E2,1.0241976E1,1.7931062E2,1.7689552E2,8.2533394E1,1.1880558E2,5.5686784E0,5.6321976E1,3.0401764E1,3.9701233E1,1.1118806E1,3.3627342E1,8.589516E0,1.812481E1,1.0636432E0,3.4008583E1,2.9323439E1,9.5383064E1,4.115673E1,2.0009138E2,2.6943102E0,9.1086855E0,1.1332909E0,1.7091278E2,8.397833E0,1.0897237E2,6.792316E1,1.1363001E0,8.1397095E1,7.367005E1,4.5135525E1,4.544543E0,1.0241356E0,4.7058865E1,9.263109E0,2.8743086E1,1.6586779E0,3.76446E1,2.0566332E0,4.8170805E0,6.301726E0,1.4056226E1,1.9571115E1,2.3166223E0,6.272893E0,2.3246197E1,1.0762387E1,2.806477E1,1.2586682E0,4.4094185E1,5.128888E1,2.3352346E1,1.7804382E1,1.881844E2,1.190697E1,1.2692455E0,1.4250648E0,7.0958896E0,2.0127957E0,1.4701086E2,2.3901917E1,4.7681813E0,3.6296515E0,1.0679982E2,2.1725461E0,1.3958068E0,8.000129E1],"tree_param":{"num_deleted":"0","num_feature":"160","num_nodes":"91","size_leaf_vector":"1"}},{"base_weights":[3.3116672E-4,7.8045887E-1,-5.1368535E-1,1.0122514E0,3.4022647E-1,-2.0998581E-1,-7.985269E-1,6.1396595E-2,7.959313E-1,5.48167E-1,9.272572E-2,1.5796635E-1,-3.017443E-1,-7.435198E-1,-1.1927754E0,5.4474294E-2,6.259551E-1,6.43025E-1,3.371866E-1,1.4113693E-1,-2.8746713E-2,5.095434E-1,3.4622446E-2,-1.2507644E-1,-4.1629186E-1,-8.109029E-1,-5.118606E-1,-6.0847443E-2,-5.780618E-3,6.308639E-1,-0E0,7.4759596E-3,6.712096E-1,1.9147083E-1,5.9679896E-1,1.8968777E-1,-2.5211427E-2,-7.852815E-2,5.698131E-3,5.310707E-1,-0E0,2.3432058E-1,-1.7389196E-1,-4.49168E-2,-2.889946E-1,-4.2546672E-1,5.1348475E-3,-6.421717E-1,-9.7648185E-1,-3.4501287E-1,-6.1906576E-1,3.5207447E-2,2.406645E-2,3.3995606E-2,-0E0,1.4099878E-2,-0E0,3.4094006E-2,-0E0,1.0387632E-2,-0E0,-2.3055116E-3,-0E0,-0E0,-5.4564537E-3,2.8808404E-2,9.825829E-4,1.5140501E-2,6.94757E-4,-1.0006431E-2,-0E0,2.1910893E-3,-4.1640475E-3,-2.0449607E-2,-4.0672547E-3,-2.1939326E-2,-0E0,-0E0,2.907151E-3,-3.4288615E-2,-4.9174395E-3,-4.930831E-2,-0E0,-2.0075012E-2,-0E0,-0E0,-3.167738E-2],"categories":[],"categories_nodes":[],"categories_segments":[],"categories_sizes":[],"default_left":[0,0,0,0,0,0,0,0,0,0,0,0,0,0,0,0,0,0,0,0,0,0,0,0,0,0,0,0,0,0,0,0,0,0,0,0,0,0,0,0,0,0,0,0,0,0,0,0,0,0,0,0,0,0,0,0,0,0,0,0,0,0,0,0,0,0,0,0,0,0,0,0,0,0,0,0,0,0,0,0,0,0,0,0,0,0,0],"id":4,"left_children":[1,3,5,7,9,11,13,-1,15,17,19,21,23,25,27,-1,29,31,33,35,37,39,41,43,45,47,49,-1,-1,51,-1,-1,53,55,57,59,61,63,-1,65,-1,67,69,71,73,75,77,79,81,83,85,-1,-1,-1,-1,-1,-1,-1,-1,-1,-1,-1,-1,-1,-1,-1,-1,-1,-1,-1,-1,-1,-1,-1,-1,-1,-1,-1,-1,-1,-1,-1,-1,-1,-1,-1,-1],"loss_changes":[5.7726514E2,5.709082E1,7.4124725E1,1.5020142E1,9.787767E0,1.4400974E1,7.4262085E0,0E0,7.6381226E0,1.2361145E0,6.355233E-1,3.2177877E0,6.444416E0,4.8320007E0,2.6424408E-1,0E0,3.6196518E-1,3.0353355E-1,7.541423E-1,6.9741166E-1,1.5108064E-1,1.505475E-1,2.7597346E0,1.5595968E0,1.0823975E0,6.6854553E0,7.9579544E-1,0E0,0E0,1.8658066E-1,0E0,0E0,2.3487663E-1,3.7533504E-1,6.2397814E-1,1.5622568E-1,1.6784117E-2,5.661218E-2,0E0,1.0919571E-2,0E0,3.0212188E-1,2.4698198E-1,3.593676E-1,6.724186E-1,1.0667839E0,8.098675E-3,3.0526428E0,8.720856E-1,6.895428E-1,2.6054382E-1,0E0,0E0,0E0,0E0,0E0,0E0,0E0,0E0,0E0,0E0,0E0,0E0,0E0,0E0,0E0,0E0,0E0,0E0,0E0,0E0,0E0,0E0,0E0,0E0,0E0,0E0,0E0,0E0,0E0,0E0,0E0,0E0,0E0,0E0,0E0,0E0],"parents":[2147483647,0,0,1,1,2,2,3,3,4,4,5,5,6,6,8,8,9,9,10,10,11,11,12,12,13,13,14,14,16,16,17,17,18,18,19,19,20,20,21,21,22,22,23,23,24,24,25,25,26,26,29,29,32,32,33,33,34,34,35,35,36,36,37,37,39,39,41,41,42,42,43,43,44,44,45,45,46,46,47,47,48,48,49,49,50,50],"right_children":[2,4,6,8,10,12,14,-1,16,18,20,22,24,26,28,-1,30,32,34,36,38,40,42,44,46,48,50,-1,-1,52,-1,-1,54,56,58,60,62,64,-1,66,-1,68,70,72,74,76,78,80,82,84,86,-1,-1,-1,-1,-1,-1,-1,-1,-1,-1,-1,-1,-1,-1,-1,-1,-1,-1,-1,-1,-1,-1,-1,-1,-1,-1,-1,-1,-1,-1,-1,-1,-1,-1,-1,-1],"split_conditions":[-1.6700338E-1,-2.1729863E-1,8.447292E-2,-4.4482023E-1,2.924148E-1,-1.0216283E-1,2.4299924E0,6.1396595E-2,-2.5502008E-1,-7.932284E-2,1.0760385E0,-1.3269097E0,-1.041343E-1,3.959725E-1,1E0,5.4474294E-2,2.4192376E0,-1.4347342E0,7.975327E-1,-1.7957719E-1,1E0,4.6473923E0,-1.041343E-1,9.3137383E-1,1E0,4.86835E-1,-8.191892E-1,-6.0847443E-2,-5.780618E-3,-2.2987245E-1,-0E0,7.4759596E-3,1E0,-1.9215101E-1,9.676618E-1,8.017132E-1,1E0,-2.0472482E-1,5.698131E-3,-4.1265227E-2,-0E0,-1.2928192E-1,1E0,-1.5442955E-1,6.96193E-1,3.7365818E0,-3.5437827E-3,1E0,1E0,1E0,-1.6508636E-1,3.5207447E-2,2.406645E-2,3.3995606E-2,-0E0,1.4099878E-2,-0E0,3.4094006E-2,-0E0,1.0387632E-2,-0E0,-2.3055116E-3,-0E0,-0E0,-5.4564537E-3,2.8808404E-2,9.825829E-4,1.5140501E-2,6.94757E-4,-1.0006431E-2,-0E0,2.1910893E-3,-4.1640475E-3,-2.0449607E-2,-4.0672547E-3,-2.1939326E-2,-0E0,-0E0,2.907151E-3,-3.4288615E-2,-4.9174395E-3,-4.930831E-2,-0E0,-2.0075012E-2,-0E0,-0E0,-3.167738E-2],"split_indices":[60,60,60,76,76,76,73,0,60,76,76,76,60,59,48,0,76,77,77,60,36,61,60,76,23,60,81,0,0,60,0,0,47,60,73,81,117,60,0,60,0,60,42,60,63,72,60,154,40,36,76,0,0,0,0,0,0,0,0,0,0,0,0,0,0,0,0,0,0,0,0,0,0,0,0,0,0,0,0,0,0,0,0,0,0,0,0],"split_type":[0,0,0,0,0,0,0,0,0,0,0,0,0,0,0,0,0,0,0,0,0,0,0,0,0,0,0,0,0,0,0,0,0,0,0,0,0,0,0,0,0,0,0,0,0,0,0,0,0,0,0,0,0,0,0,0,0,0,0,0,0,0,0,0,0,0,0,0,0,0,0,0,0,0,0,0,0,0,0,0,0,0,0,0,0,0,0],"sum_hessian":[1.4371038E3,5.711331E2,8.6597064E2,3.7224707E2,1.9888605E2,4.2114172E2,4.448289E2,1.8243707E2,1.8981E2,1.0588365E2,9.30024E1,8.2393394E1,3.3874832E2,3.944545E2,5.0374382E1,6.610923E1,1.2370076E2,6.934162E1,3.654203E1,7.050452E1,2.249789E1,1.911165E1,6.3281746E1,1.3647087E2,2.0227747E2,3.0129437E2,9.3160126E1,4.8506184E1,1.8681973E0,1.22677216E2,1.023547E0,5.428644E0,6.3912975E1,2.6245022E1,1.02970085E1,5.7724598E1,1.2779918E1,2.064951E1,1.84838E0,1.8048008E1,1.0636432E0,3.3975803E1,2.9305943E1,9.537488E1,4.1096E1,1.9958379E2,2.693679E0,1.5373672E2,1.4755766E2,4.0647125E1,5.2513E1,7.669829E1,4.5978928E1,6.2769997E1,1.1429793E0,1.6280203E1,9.96482E0,8.995737E0,1.3012711E0,5.157556E1,6.149037E0,1.1013645E1,1.7662725E0,5.685524E0,1.4963986E1,1.5211315E1,2.8366926E0,2.3213575E1,1.076223E1,2.8047274E1,1.2586682E0,2.3237251E1,7.213763E1,2.3294035E1,1.7801964E1,1.9313156E2,6.452219E0,1.2692455E0,1.4244337E0,1.4089256E2,1.2844167E1,1.4555095E2,2.0067086E0,3.4030243E1,6.6168795E0,1.7693572E0,5.0743645E1],"tree_param":{"num_deleted":"0","num_feature":"160","num_nodes":"87","size_leaf_vector":"1"}},{"base_weights":[4.2548982E-4,7.498466E-1,-4.9112654E-1,9.757833E-1,3.2529575E-1,-2.0601179E-1,-7.728848E-1,1.169437E0,7.421737E-1,5.250884E-1,8.808738E-2,1.4425324E-1,-2.9318738E-1,-7.185139E-1,-1.1560487E0,6.666385E-2,1.0589545E0,5.1215556E-2,5.8649117E-1,8.1123674E-1,4.443208E-1,1.5940441E-1,-0E0,4.774597E-1,2.8418073E-2,-1.499185E-1,-4.2769364E-1,-7.864689E-1,-4.893228E-1,-5.8972366E-2,-5.5953227E-3,6.0186427E-2,4.504952E-2,5.914931E-1,-0E0,4.203766E-2,-0E0,3.3445024E-1,6.09401E-1,2.273108E-1,-0E0,2.0090478E-2,-6.984029E-2,2.6736433E-2,-0E0,2.242561E-1,-1.6587731E-1,-7.4268945E-2,-3.0112576E-1,-4.384606E-1,4.0147044E-3,-6.240424E-1,-9.418752E-1,-1.134412E-1,-5.249722E-1,2.9886438E-2,-0E0,1.9271849E-2,-0E0,3.2287832E-2,-0E0,1.2145212E-2,-0E0,7.2283386E-3,-0E0,-0E0,-4.135377E-3,4.0887184E-3,-0E0,1.333823E-2,-0E0,-1.0136448E-2,-0E0,-5.4243475E-4,-8.429675E-3,-2.0152705E-2,-5.264855E-3,-1.2502245E-2,-2.415424E-2,-0E0,2.8224818E-3,-3.3460837E-2,-3.4668006E-3,-4.756688E-2,-0E0,-9.21399E-3,-0E0,-1.826003E-2,-3.0439658E-2],"categories":[],"categories_nodes":[],"categories_segments":[],"categories_sizes":[],"default_left":[0,0,0,0,0,0,0,0,0,0,0,0,0,0,0,0,0,0,0,0,0,0,0,0,0,0,0,0,0,0,0,0,0,0,0,0,0,0,0,0,0,0,0,0,0,0,0,0,0,0,0,0,0,0,0,0,0,0,0,0,0,0,0,0,0,0,0,0,0,0,0,0,0,0,0,0,0,0,0,0,0,0,0,0,0,0,0,0,0],"id":5,"left_children":[1,3,5,7,9,11,13,15,17,19,21,23,25,27,29,-1,31,-1,33,35,37,39,41,43,45,47,49,51,53,-1,-1,-1,-1,55,-1,-1,-1,57,59,61,-1,63,65,-1,67,69,71,73,75,77,79,81,83,85,87,-1,-1,-1,-1,-1,-1,-1,-1,-1,-1,-1,-1,-1,-1,-1,-1,-1,-1,-1,-1,-1,-1,-1,-1,-1,-1,-1,-1,-1,-1,-1,-1,-1,-1],"loss_changes":[5.266676E2,5.312784E1,6.844516E1,1.4454285E1,8.974617E0,1.3316326E1,6.861511E0,4.9728394E-1,5.795456E0,1.2204952E0,5.861929E-1,2.9139643E0,6.2239094E0,4.683319E0,1.9706726E-1,0E0,3.1578064E-1,0E0,3.1550217E-1,1.9217491E-2,7.15683E-1,5.276245E-1,6.0735594E-2,1.9142962E-1,2.5784638E0,1.6848876E0,1.1242332E0,5.666977E0,7.335148E-1,0E0,0E0,0E0,0E0,1.3077927E-1,0E0,0E0,0E0,7.197604E-1,7.253828E-1,9.58277E-2,0E0,1.2891954E-1,5.2083954E-3,0E0,1.6641298E-2,2.8904867E-1,3.1213212E-1,5.856607E-1,6.7994404E-1,8.236656E-1,7.66414E-3,3.1341743E0,7.752838E-1,1.1038865E-1,2.0129013E-1,0E0,0E0,0E0,0E0,0E0,0E0,0E0,0E0,0E0,0E0,0E0,0E0,0E0,0E0,0E0,0E0,0E0,0E0,0E0,0E0,0E0,0E0,0E0,0E0,0E0,0E0,0E0,0E0,0E0,0E0,0E0,0E0,0E0,0E0],"parents":[2147483647,0,0,1,1,2,2,3,3,4,4,5,5,6,6,7,7,8,8,9,9,10,10,11,11,12,12,13,13,14,14,16,16,18,18,19,19,20,20,21,21,22,22,23,23,24,24,25,25,26,26,27,27,28,28,33,33,37,37,38,38,39,39,41,41,42,42,44,44,45,45,46,46,47,47,48,48,49,49,50,50,51,51,52,52,53,53,54,54],"right_children":[2,4,6,8,10,12,14,16,18,20,22,24,26,28,30,-1,32,-1,34,36,38,40,42,44,46,48,50,52,54,-1,-1,-1,-1,56,-1,-1,-1,58,60,62,-1,64,66,-1,68,70,72,74,76,78,80,82,84,86,88,-1,-1,-1,-1,-1,-1,-1,-1,-1,-1,-1,-1,-1,-1,-1,-1,-1,-1,-1,-1,-1,-1,-1,-1,-1,-1,-1,-1,-1,-1,-1,-1,-1,-1],"split_conditions":[-1.6700338E-1,-2.1729863E-1,9.704673E-2,-3.0635396E-1,2.924148E-1,-1.0216283E-1,2.4299924E0,-1.434108E0,-2.5502008E-1,-8.983056E-1,-1.9215101E-1,-1.3269097E0,-7.898667E-2,3.959725E-1,1E0,6.666385E-2,-2.5502008E-1,5.1215556E-2,2.4192376E0,2.3204398E0,6.8263865E-1,1.0029557E0,5.895694E-1,-4.1265227E-2,-1.041343E-1,9.3137383E-1,1E0,4.994088E-1,1.9763725E-1,-5.8972366E-2,-5.5953227E-3,6.0186427E-2,4.504952E-2,1E0,-0E0,4.203766E-2,-0E0,-1.7957719E-1,9.676618E-1,1E0,-0E0,-1.6498631E-1,4.4826594E-1,2.6736433E-2,-1.7525444E0,4.1322526E-1,9.127813E-1,-1.16708115E-1,6.96193E-1,3.0211064E-1,-3.5437827E-3,1E0,1E0,1.5414014E0,-8.191892E-1,2.9886438E-2,-0E0,1.9271849E-2,-0E0,3.2287832E-2,-0E0,1.2145212E-2,-0E0,7.2283386E-3,-0E0,-0E0,-4.135377E-3,4.0887184E-3,-0E0,1.333823E-2,-0E0,-1.0136448E-2,-0E0,-5.4243475E-4,-8.429675E-3,-2.0152705E-2,-5.264855E-3,-1.2502245E-2,-2.415424E-2,-0E0,2.8224818E-3,-3.3460837E-2,-3.4668006E-3,-4.756688E-2,-0E0,-9.21399E-3,-0E0,-1.826003E-2,-3.0439658E-2],"split_indices":[60,60,60,76,76,76,73,76,60,76,60,76,60,59,48,0,60,0,76,69,77,76,77,60,60,76,23,60,60,0,0,0,0,131,0,0,0,60,73,36,0,81,76,0,76,70,63,60,63,76,60,154,40,62,81,0,0,0,0,0,0,0,0,0,0,0,0,0,0,0,0,0,0,0,0,0,0,0,0,0,0,0,0,0,0,0,0,0,0],"split_type":[0,0,0,0,0,0,0,0,0,0,0,0,0,0,0,0,0,0,0,0,0,0,0,0,0,0,0,0,0,0,0,0,0,0,0,0,0,0,0,0,0,0,0,0,0,0,0,0,0,0,0,0,0,0,0,0,0,0,0,0,0,0,0,0,0,0,0,0,0,0,0,0,0,0,0,0,0,0,0,0,0,0,0,0,0,0,0,0,0],"sum_hessian":[1.4271964E3,5.656714E2,8.61525E2,3.6727072E2,1.9840067E2,4.303072E2,4.312178E2,1.9697955E2,1.7029117E2,1.0543319E2,9.2967476E1,8.402332E1,3.4628387E2,3.8174973E2,4.9468094E1,7.232374E1,1.24655815E2,5.6970303E1,1.1332087E2,1.9309929E1,8.612326E1,5.0764473E1,4.2203003E1,1.931053E1,6.471279E1,1.7122397E2,1.7505989E2,2.902153E2,9.153442E1,4.760138E1,1.8667142E0,5.9276882E1,6.537894E1,1.1229732E2,1.023547E0,1.7936102E1,1.3738265E0,5.6071045E1,3.0052216E1,3.46675E1,1.609697E1,3.3615677E1,8.587324E0,1.5862506E1,3.4480243E0,3.394592E1,3.0766876E1,1.1820577E2,5.3018204E1,1.7236682E2,2.6930695E0,1.4655733E2,1.4365799E2,9.992531E0,8.1541885E1,1.1031182E2,1.9854996E0,4.681554E1,9.255505E0,2.8393724E1,1.6584911E0,3.185922E1,2.80828E0,5.837055E0,2.7778624E1,1.9896512E0,6.597673E0,1.4885867E0,1.9594376E0,2.7757875E1,6.1880426E0,2.7862158E1,2.904718E0,7.57862E1,4.241957E1,3.1822117E1,2.1196085E1,3.7274315E1,1.3509251E2,1.2692455E0,1.4238241E0,1.3416296E2,1.2394362E1,1.4165128E2,2.0067086E0,6.4163017E0,3.576229E0,3.277579E1,4.8766094E1],"tree_param":{"num_deleted":"0","num_feature":"160","num_nodes":"89","size_leaf_vector":"1"}},{"base_weights":[5.098704E-4,6.791227E-1,-4.9815643E-1,9.4017786E-1,2.7681103E-1,-2.398581E-1,-7.549011E-1,5.7602275E-2,7.317694E-1,5.584249E-1,1.2587371E-1,9.619197E-2,-3.195391E-1,-8.30977E-1,-5.125503E-1,5.071047E-2,5.710258E-1,7.55066E-1,4.543872E-1,2.4239263E-1,1.6331566E-2,3.8678256E-1,-0E0,-1.9518654E-1,-4.4447315E-1,-6.19516E-1,-9.9217963E-1,-5.3691983E-1,-1.9317482E-1,5.864419E-1,9.8710306E-2,7.8612787E-1,-0E0,5.3280884E-1,2.2258474E-1,3.2763594E-1,8.245801E-3,6.27804E-2,-1.069124E-1,4.245164E-1,-0E0,2.4154928E-1,-1.1517314E-1,-1.2709409E-1,-3.1021452E-1,-4.617982E-1,-2.5383683E-3,-6.639156E-1,-1.2513827E-1,-8.7383825E-1,-1.1582568E0,-0E0,-5.435308E-1,-0E0,-1.4501466E-2,3.293565E-2,2.211474E-2,6.123288E-3,-0E0,4.0625215E-2,-0E0,9.963478E-3,3.0667234E-2,1.3525116E-2,-0E0,1.2524927E-2,3.014535E-2,2.248548E-3,-0E0,4.736754E-3,-0E0,-7.4406317E-3,-0E0,2.3489935E-2,-0E0,8.727989E-4,1.925534E-2,-8.126217E-3,-0E0,-7.2548375E-3,1.4018688E-3,-1.9870209E-2,-3.3627567E-3,-2.3590755E-2,-0E0,2.2877136E-3,-1.22913895E-2,-3.5496633E-2,-1.4914027E-2,-1.6109781E-2,-0E0,-4.419364E-2,-2.2106022E-3,-5.9260707E-2,-1.1812783E-2,-2.7337829E-2,-0E0],"categories":[],"categories_nodes":[],"categories_segments":[],"categories_sizes":[],"default_left":[0,0,0,0,0,0,0,0,0,0,0,0,0,0,0,0,0,0,0,0,0,0,0,0,0,0,0,0,0,0,0,0,0,0,0,0,0,0,0,0,0,0,0,0,0,0,0,0,0,0,0,0,0,0,0,0,0,0,0,0,0,0,0,0,0,0,0,0,0,0,0,0,0,0,0,0,0,0,0,0,0,0,0,0,0,0,0,0,0,0,0,0,0,0,0,0,0],"id":6,"left_children":[1,3,5,7,9,11,13,-1,15,17,19,21,23,25,27,-1,29,31,33,35,37,39,41,43,45,47,49,51,53,55,57,59,-1,61,63,65,67,69,71,73,-1,75,77,79,81,83,85,87,89,91,93,-1,95,-1,-1,-1,-1,-1,-1,-1,-1,-1,-1,-1,-1,-1,-1,-1,-1,-1,-1,-1,-1,-1,-1,-1,-1,-1,-1,-1,-1,-1,-1,-1,-1,-1,-1,-1,-1,-1,-1,-1,-1,-1,-1,-1,-1],"loss_changes":[4.806872E2,6.2124725E1,5.3368454E1,1.3897003E1,9.6275425E0,1.1181147E1,6.1632843E0,0E0,6.835022E0,4.80402E-1,1.8416257E0,1.961251E0,4.6513977E0,8.722885E0,1.8203735E-1,0E0,3.6187744E-1,6.7625046E-2,4.1112423E-1,1.2346611E0,4.681962E-1,3.1738615E-1,1.7904474E0,1.0007277E0,9.212036E-1,2.379387E0,9.197693E-1,7.128906E-2,2.7844918E-1,1.6699982E-1,1.9012935E-2,9.133148E-2,0E0,3.977909E-1,2.1785825E-1,3.5290337E-1,2.9146159E-2,2.004348E-1,1.6254039E-1,2.945075E-1,0E0,4.0361583E-1,2.8504294E-1,4.0294826E-1,9.062443E-1,9.507408E-1,2.5323102E-1,1.1772308E0,5.2133995E-1,1.9529724E-1,3.5243988E-1,0E0,1.1329651E-3,0E0,0E0,0E0,0E0,0E0,0E0,0E0,0E0,0E0,0E0,0E0,0E0,0E0,0E0,0E0,0E0,0E0,0E0,0E0,0E0,0E0,0E0,0E0,0E0,0E0,0E0,0E0,0E0,0E0,0E0,0E0,0E0,0E0,0E0,0E0,0E0,0E0,0E0,0E0,0E0,0E0,0E0,0E0,0E0],"parents":[2147483647,0,0,1,1,2,2,3,3,4,4,5,5,6,6,8,8,9,9,10,10,11,11,12,12,13,13,14,14,16,16,17,17,18,18,19,19,20,20,21,21,22,22,23,23,24,24,25,25,26,26,27,27,28,28,29,29,30,30,31,31,33,33,34,34,35,35,36,36,37,37,38,38,39,39,41,41,42,42,43,43,44,44,45,45,46,46,47,47,48,48,49,49,50,50,52,52],"right_children":[2,4,6,8,10,12,14,-1,16,18,20,22,24,26,28,-1,30,32,34,36,38,40,42,44,46,48,50,52,54,56,58,60,-1,62,64,66,68,70,72,74,-1,76,78,80,82,84,86,88,90,92,94,-1,96,-1,-1,-1,-1,-1,-1,-1,-1,-1,-1,-1,-1,-1,-1,-1,-1,-1,-1,-1,-1,-1,-1,-1,-1,-1,-1,-1,-1,-1,-1,-1,-1,-1,-1,-1,-1,-1,-1,-1,-1,-1,-1,-1,-1],"split_conditions":[-1.5442955E-1,-2.1729863E-1,1.22194365E-1,-4.4482023E-1,-7.932284E-2,-7.932284E-2,3.9663162E0,5.7602275E-2,-2.5502008E-1,-8.983056E-1,-1.9215101E-1,-1.3269097E0,-5.3839043E-2,4.994088E-1,1E0,5.071047E-2,1.8614299E0,2.3204398E0,1E0,8.762435E-1,9.251667E-1,3.417766E-2,-1.16708115E-1,9.096643E-1,3.7365818E0,1E0,1.5933306E0,-4.4482023E-1,3.6109683E-1,-2.2987245E-1,-2.0508969E-1,1.0566972E0,-0E0,-4.3242908E-1,-1.6700338E-1,8.4951484E-1,1.2323362E0,6.9221157E-1,1E0,1E0,-0E0,4.8165914E-1,9.3436974E-1,1E0,7.2790116E-1,1E0,4.026891E0,1E0,1.4794761E-1,1E0,1E0,-0E0,3.0309406E-1,-0E0,-1.4501466E-2,3.293565E-2,2.211474E-2,6.123288E-3,-0E0,4.0625215E-2,-0E0,9.963478E-3,3.0667234E-2,1.3525116E-2,-0E0,1.2524927E-2,3.014535E-2,2.248548E-3,-0E0,4.736754E-3,-0E0,-7.4406317E-3,-0E0,2.3489935E-2,-0E0,8.727989E-4,1.925534E-2,-8.126217E-3,-0E0,-7.2548375E-3,1.4018688E-3,-1.9870209E-2,-3.3627567E-3,-2.3590755E-2,-0E0,2.2877136E-3,-1.22913895E-2,-3.5496633E-2,-1.4914027E-2,-1.6109781E-2,-0E0,-4.419364E-2,-2.2106022E-3,-5.9260707E-2,-1.1812783E-2,-2.7337829E-2,-0E0],"split_indices":[60,60,60,76,76,76,61,0,60,76,60,76,60,60,36,0,76,69,53,76,76,60,60,76,72,154,60,76,60,60,81,73,0,58,60,73,76,70,96,57,0,77,77,154,63,23,72,36,69,40,82,0,70,0,0,0,0,0,0,0,0,0,0,0,0,0,0,0,0,0,0,0,0,0,0,0,0,0,0,0,0,0,0,0,0,0,0,0,0,0,0,0,0,0,0,0,0],"split_type":[0,0,0,0,0,0,0,0,0,0,0,0,0,0,0,0,0,0,0,0,0,0,0,0,0,0,0,0,0,0,0,0,0,0,0,0,0,0,0,0,0,0,0,0,0,0,0,0,0,0,0,0,0,0,0,0,0,0,0,0,0,0,0,0,0,0,0,0,0,0,0,0,0,0,0,0,0,0,0,0,0,0,0,0,0,0,0,0,0,0,0,0,0,0,0,0,0],"sum_hessian":[1.4180907E3,6.011095E2,8.1698126E2,3.6268845E2,2.3842104E2,4.095817E2,4.0739957E2,1.7594077E2,1.8674767E2,8.063588E1,1.5778516E2,7.6778885E1,3.3280283E2,3.0602014E2,1.0137944E2,6.422851E1,1.2251916E2,2.3407518E1,5.7228363E1,7.277359E1,8.5011566E1,1.692057E1,5.985831E1,1.7088171E2,1.619211E2,1.3634804E2,1.6967209E2,9.152296E1,9.856478E0,1.16977394E2,5.54176E0,2.1626247E1,1.7812706E0,3.9534866E1,1.7693497E1,5.086637E1,2.1907223E1,6.622335E1,1.8788216E1,1.563752E1,1.2830515E0,2.0514645E1,3.9343666E1,1.1248499E2,5.839673E1,1.5424538E2,7.675728E0,1.2349797E2,1.2850077E1,1.0519206E2,6.448003E1,1.9957334E0,8.952723E1,2.7299993E0,7.1264787E0,7.2301605E1,4.467579E1,4.5177226E0,1.0240376E0,2.0319403E1,1.3068454E0,1.0055611E1,2.9479254E1,1.4634613E1,3.0588844E0,4.3210682E1,7.6556897E0,1.4181906E1,7.7253165E0,5.085529E1,1.536806E1,1.655346E1,2.2347565E0,1.391918E1,1.7183394E0,1.0352336E1,1.0162308E1,3.005137E1,9.2922945E0,1.04889755E2,7.5952353E0,4.0386574E1,1.8010153E1,1.5199435E2,2.2510195E0,4.681216E0,2.9945118E0,1.0715574E2,1.6342226E1,6.111321E0,6.7387557E0,1.0303667E2,2.1553953E0,6.1633297E1,2.8467307E0,8.8465996E1,1.0612335E0],"tree_param":{"num_deleted":"0","num_feature":"160","num_nodes":"97","size_leaf_vector":"1"}},{"base_weights":[6.223558E-4,6.9145775E-1,-4.488182E-1,9.6999943E-1,3.8547996E-1,-1.9855052E-1,-7.241176E-1,1.1037191E0,7.4189687E-1,9.0759003E-1,2.8412056E-1,1.3287857E-1,-2.7922037E-1,-6.704187E-1,-1.0870899E0,6.1828047E-2,4.840061E-2,4.7497272E-2,5.658635E-1,1.0028536E0,2.3484992E-2,4.236428E-1,1.4507094E-1,3.2582414E-1,-0E0,-1.3615906E-1,-4.0154463E-1,-5.230014E-1,-7.709453E-1,-1.1101302E0,-4.0475545E-3,5.744895E-1,-0E0,5.1858526E-2,4.3337685E-3,4.3079415E-1,-0E0,2.836941E-1,3.2724746E-2,4.1625208E-1,6.2094837E-2,2.8401217E-1,-1.05858244E-1,-6.790661E-2,-2.784355E-1,-4.1095886E-1,3.3291848E-3,-5.605387E-1,-1.5402624E-1,-5.742164E-1,-9.1308725E-1,-5.696788E-2,-9.550537E-3,2.930219E-2,-0E0,1.739454E-2,2.8614212E-2,1.6714241E-2,-0E0,3.3858493E-3,-1.7176043E-3,2.4691243E-2,-0E0,6.3971276E-3,-0E0,1.6287899E-2,-0E0,-7.6867687E-3,-0E0,-4.879798E-4,-7.573824E-3,-1.882491E-2,-4.3304875E-3,-2.1049114E-2,-0E0,-0E0,2.740266E-3,-2.8536925E-2,-0E0,-0E0,-1.4151138E-2,-0E0,-3.0731846E-2,-4.5995127E-2,-0E0],"categories":[],"categories_nodes":[],"categories_segments":[],"categories_sizes":[],"default_left":[0,0,0,0,0,0,0,0,0,0,0,0,0,0,0,0,0,0,0,0,0,0,0,0,0,0,0,0,0,0,0,0,0,0,0,0,0,0,0,0,0,0,0,0,0,0,0,0,0,0,0,0,0,0,0,0,0,0,0,0,0,0,0,0,0,0,0,0,0,0,0,0,0,0,0,0,0,0,0,0,0,0,0,0,0],"id":7,"left_children":[1,3,5,7,9,11,13,15,17,19,21,23,25,27,29,-1,-1,-1,31,33,-1,35,37,39,41,43,45,47,49,51,-1,53,-1,-1,-1,55,-1,57,59,61,63,65,67,69,71,73,75,77,79,81,83,-1,-1,-1,-1,-1,-1,-1,-1,-1,-1,-1,-1,-1,-1,-1,-1,-1,-1,-1,-1,-1,-1,-1,-1,-1,-1,-1,-1,-1,-1,-1,-1,-1,-1],"loss_changes":[4.3848477E2,4.6151733E1,5.8095093E1,6.726593E0,1.310659E1,1.2181366E1,5.9400635E0,4.8077393E-1,2.5055008E0,2.518692E-1,3.9494095E0,2.367703E0,5.9432087E0,3.986374E0,2.1089554E-1,0E0,0E0,0E0,3.0156136E-1,1.4001465E-1,0E0,3.6681366E-1,1.6046944E0,5.168569E-1,1.5008724E0,1.4093165E0,1.0231228E0,1.5021973E0,4.2375336E0,1.15997314E-1,0E0,1.4501953E-1,0E0,0E0,0E0,4.3236732E-1,0E0,7.0793104E-1,1.8767789E-1,6.484823E-1,1.1588946E-1,1.9891381E-1,2.738366E-1,4.732241E-1,6.2379503E-1,8.238945E-1,7.2375573E-3,1.0145378E0,4.250343E-1,2.178749E0,3.8310242E-1,0E0,0E0,0E0,0E0,0E0,0E0,0E0,0E0,0E0,0E0,0E0,0E0,0E0,0E0,0E0,0E0,0E0,0E0,0E0,0E0,0E0,0E0,0E0,0E0,0E0,0E0,0E0,0E0,0E0,0E0,0E0,0E0,0E0,0E0],"parents":[2147483647,0,0,1,1,2,2,3,3,4,4,5,5,6,6,7,7,8,8,9,9,10,10,11,11,12,12,13,13,14,14,18,18,19,19,21,21,22,22,23,23,24,24,25,25,26,26,27,27,28,28,29,29,31,31,35,35,37,37,38,38,39,39,40,40,41,41,42,42,43,43,44,44,45,45,46,46,47,47,48,48,49,49,50,50],"right_children":[2,4,6,8,10,12,14,16,18,20,22,24,26,28,30,-1,-1,-1,32,34,-1,36,38,40,42,44,46,48,50,52,-1,54,-1,-1,-1,56,-1,58,60,62,64,66,68,70,72,74,76,78,80,82,84,-1,-1,-1,-1,-1,-1,-1,-1,-1,-1,-1,-1,-1,-1,-1,-1,-1,-1,-1,-1,-1,-1,-1,-1,-1,-1,-1,-1,-1,-1,-1,-1,-1,-1],"split_conditions":[-1.6700338E-1,-2.2987245E-1,1.22194365E-1,-1.6508636E-1,-8.343581E-1,-1.0216283E-1,2.4299924E0,-1.1119622E0,-2.5502008E-1,-2.0472482E-1,3.0211064E-1,-1.16708115E-1,-7.898667E-2,-7.590974E-2,1E0,6.1828047E-2,4.840061E-2,4.7497272E-2,2.4192376E0,1E0,2.3484992E-2,9.676618E-1,-2.0472482E-1,4.6167135E-1,-1.3269097E0,9.527674E-1,1E0,1E0,4.994088E-1,1E0,-4.0475545E-3,1E0,-0E0,5.1858526E-2,4.3337685E-3,6.894967E-1,-0E0,1.2980716E0,1.0607793E0,-1.2928192E-1,-1.9045396E-1,3.417766E-2,9.3436974E-1,-1.16708115E-1,6.96193E-1,1E0,-3.5437827E-3,1E0,3.6109683E-1,-2.653488E-1,1E0,-5.696788E-2,-9.550537E-3,2.930219E-2,-0E0,1.739454E-2,2.8614212E-2,1.6714241E-2,-0E0,3.3858493E-3,-1.7176043E-3,2.4691243E-2,-0E0,6.3971276E-3,-0E0,1.6287899E-2,-0E0,-7.6867687E-3,-0E0,-4.879798E-4,-7.573824E-3,-1.882491E-2,-4.3304875E-3,-2.1049114E-2,-0E0,-0E0,2.740266E-3,-2.8536925E-2,-0E0,-0E0,-1.4151138E-2,-0E0,-3.0731846E-2,-4.5995127E-2,-0E0],"split_indices":[60,60,60,76,76,76,73,76,60,60,76,60,60,81,48,0,0,0,76,22,0,73,60,58,76,76,23,36,60,44,0,25,0,0,0,77,0,76,76,60,76,60,77,60,63,84,60,135,60,76,47,0,0,0,0,0,0,0,0,0,0,0,0,0,0,0,0,0,0,0,0,0,0,0,0,0,0,0,0,0,0,0,0,0,0],"split_type":[0,0,0,0,0,0,0,0,0,0,0,0,0,0,0,0,0,0,0,0,0,0,0,0,0,0,0,0,0,0,0,0,0,0,0,0,0,0,0,0,0,0,0,0,0,0,0,0,0,0,0,0,0,0,0,0,0,0,0,0,0,0,0,0,0,0,0,0,0,0,0,0,0,0,0,0,0,0,0,0,0,0,0,0,0],"sum_hessian":[1.4096908E3,5.560322E2,8.536585E2,2.8873203E2,2.6730023E2,4.4939178E2,4.0426672E2,1.7766982E2,1.11062195E2,4.103995E1,2.2626027E2,8.614474E1,3.6324707E2,3.5632654E2,4.7940193E1,8.307678E1,9.459303E1,4.7064793E1,6.3997406E1,3.133435E1,9.705602E0,1.0940377E2,1.168565E2,3.579674E1,5.0347992E1,1.7104327E2,1.922038E2,1.4980739E2,2.0651915E2,4.6085754E1,1.8544354E0,6.2973904E1,1.0235004E0,2.9339296E1,1.9950557E0,1.0774527E2,1.6585022E0,4.8838776E1,6.801772E1,2.4249475E1,1.1547266E1,1.216301E1,3.8184982E1,1.1991518E2,5.1128094E1,1.8951112E2,2.6926641E0,1.3378099E2,1.6026405E1,9.0805664E1,1.15713486E2,4.369507E1,2.3906891E0,6.0898434E1,2.0754707E0,7.323864E1,3.4506634E1,4.123021E1,7.608565E0,5.15511E1,1.6466621E1,1.9599081E1,4.650396E0,9.035178E0,2.5120876E0,1.0879958E1,1.2830515E0,2.9165237E1,9.019744E0,7.631148E1,4.36037E1,3.0780848E1,2.0347248E1,1.8519598E2,4.31515E0,1.2694292E0,1.4232349E0,1.3212117E2,1.6598151E0,6.6774592E0,9.348947E0,5.910572E0,8.489509E1,1.14443245E2,1.2702439E0],"tree_param":{"num_deleted":"0","num_feature":"160","num_nodes":"85","size_leaf_vector":"1"}},{"base_weights":[7.549186E-4,6.633342E-1,-4.2870986E-1,9.3413657E-1,3.6849087E-1,-1.7154536E-1,-6.757866E-1,1.0657514E0,7.112621E-1,8.752189E-1,2.7089638E-1,1.340907E-1,-2.4815807E-1,-6.251761E-1,-1.051536E0,6.040085E-2,4.69241E-2,4.5695983E-2,5.4066813E-1,9.6808344E-1,2.2491505E-2,4.041382E-1,1.3806273E-1,4.3543178E-1,2.7663318E-2,-1.02251634E-1,-3.427653E-1,-6.8623215E-1,-4.1822538E-1,-1.073653E0,-3.917392E-3,5.489251E-1,-0E0,5.0040253E-2,4.1909167E-3,4.1100845E-1,-0E0,2.7020493E-1,3.0607501E-2,4.7268054E-1,-0E0,1.9589217E-1,-1.438246E-1,-9.294589E-3,-2.0776019E-1,-3.6052185E-1,-4.200867E-5,-5.3715986E-1,-8.354728E-1,-3.0997097E-1,-5.657063E-1,-5.5090763E-2,-9.222746E-3,2.7983403E-2,-0E0,1.6562311E-2,2.7339844E-2,1.5921721E-2,-0E0,3.2732487E-3,-1.4886776E-3,2.45603E-2,-0E0,1.174404E-2,-0E0,-8.4724985E-3,-0E0,-0E0,-5.553819E-3,-2.3937481E-3,-1.4221266E-2,-1.847487E-2,1.1367677E-4,1.943624E-3,-8.258308E-3,-2.8782923E-2,-2.997819E-3,-4.226351E-2,-0E0,-0E0,-1.6284222E-2,-2.9081136E-2,-0E0],"categories":[],"categories_nodes":[],"categories_segments":[],"categories_sizes":[],"default_left":[0,0,0,0,0,0,0,0,0,0,0,0,0,0,0,0,0,0,0,0,0,0,0,0,0,0,0,0,0,0,0,0,0,0,0,0,0,0,0,0,0,0,0,0,0,0,0,0,0,0,0,0,0,0,0,0,0,0,0,0,0,0,0,0,0,0,0,0,0,0,0,0,0,0,0,0,0,0,0,0,0,0,0],"id":8,"left_children":[1,3,5,7,9,11,13,15,17,19,21,23,25,27,29,-1,-1,-1,31,33,-1,35,37,39,41,43,45,47,49,51,-1,53,-1,-1,-1,55,-1,57,59,61,-1,63,65,67,69,71,73,75,77,79,81,-1,-1,-1,-1,-1,-1,-1,-1,-1,-1,-1,-1,-1,-1,-1,-1,-1,-1,-1,-1,-1,-1,-1,-1,-1,-1,-1,-1,-1,-1,-1,-1],"loss_changes":[3.9967816E2,4.2880814E1,5.3376434E1,6.394806E0,1.2191273E1,9.9434595E0,6.391632E0,5.5026245E-1,2.3341827E0,2.1528435E-1,3.5812073E0,2.3244214E0,4.3171806E0,3.8067932E0,1.4733887E-1,0E0,0E0,0E0,2.739849E-1,8.0646515E-2,0E0,3.3666992E-1,1.4537323E0,1.6918135E-1,1.913644E0,1.1920898E0,9.745941E-1,5.114563E0,6.9519997E-1,5.7430267E-2,0E0,1.08659744E-1,0E0,0E0,0E0,3.792305E-1,0E0,6.4168286E-1,1.7218827E-1,1.8699408E-2,0E0,2.4382055E-1,2.0671433E-1,1.3889115E-1,4.978552E-1,8.757801E-1,1.7754838E-1,2.3104095E0,8.460007E-1,2.5275373E-1,1.0724068E-1,0E0,0E0,0E0,0E0,0E0,0E0,0E0,0E0,0E0,0E0,0E0,0E0,0E0,0E0,0E0,0E0,0E0,0E0,0E0,0E0,0E0,0E0,0E0,0E0,0E0,0E0,0E0,0E0,0E0,0E0,0E0,0E0],"parents":[2147483647,0,0,1,1,2,2,3,3,4,4,5,5,6,6,7,7,8,8,9,9,10,10,11,11,12,12,13,13,14,14,18,18,19,19,21,21,22,22,23,23,24,24,25,25,26,26,27,27,28,28,29,29,31,31,35,35,37,37,38,38,39,39,41,41,42,42,43,43,44,44,45,45,46,46,47,47,48,48,49,49,50,50],"right_children":[2,4,6,8,10,12,14,16,18,20,22,24,26,28,30,-1,-1,-1,32,34,-1,36,38,40,42,44,46,48,50,52,-1,54,-1,-1,-1,56,-1,58,60,62,-1,64,66,68,70,72,74,76,78,80,82,-1,-1,-1,-1,-1,-1,-1,-1,-1,-1,-1,-1,-1,-1,-1,-1,-1,-1,-1,-1,-1,-1,-1,-1,-1,-1,-1,-1,-1,-1,-1,-1],"split_conditions":[-1.6700338E-1,-2.2987245E-1,8.447292E-2,-1.6508636E-1,-8.343581E-1,-1.0216283E-1,2.4299924E0,-1.1712589E0,-2.5502008E-1,-2.0472482E-1,3.0211064E-1,-1.3269097E0,-1.041343E-1,3.959725E-1,1E0,6.040085E-2,4.69241E-2,4.5695983E-2,2.4192376E0,1E0,2.2491505E-2,9.676618E-1,-2.0472482E-1,1.1986293E0,-1.041343E-1,7.116691E-1,3.7487047E0,4.86835E-1,1.7190689E0,1E0,-3.917392E-3,1E0,-0E0,5.0040253E-2,4.1909167E-3,6.894967E-1,-0E0,1.2980716E0,-1.7957719E-1,1.5405393E0,-0E0,4.1322526E-1,1E0,9.4056374E-1,-1.4185575E-1,1E0,7.444049E-1,1E0,1E0,-1.6508636E-1,1E0,-5.5090763E-2,-9.222746E-3,2.7983403E-2,-0E0,1.6562311E-2,2.7339844E-2,1.5921721E-2,-0E0,3.2732487E-3,-1.4886776E-3,2.45603E-2,-0E0,1.174404E-2,-0E0,-8.4724985E-3,-0E0,-0E0,-5.553819E-3,-2.3937481E-3,-1.4221266E-2,-1.847487E-2,1.1367677E-4,1.943624E-3,-8.258308E-3,-2.8782923E-2,-2.997819E-3,-4.226351E-2,-0E0,-0E0,-1.6284222E-2,-2.9081136E-2,-0E0],"split_indices":[60,60,60,76,76,76,73,76,60,60,76,76,60,59,48,0,0,0,76,22,0,73,60,61,60,76,61,60,60,44,0,25,0,0,0,77,0,76,60,73,0,70,42,70,60,23,76,154,47,76,44,0,0,0,0,0,0,0,0,0,0,0,0,0,0,0,0,0,0,0,0,0,0,0,0,0,0,0,0,0,0,0,0],"split_type":[0,0,0,0,0,0,0,0,0,0,0,0,0,0,0,0,0,0,0,0,0,0,0,0,0,0,0,0,0,0,0,0,0,0,0,0,0,0,0,0,0,0,0,0,0,0,0,0,0,0,0,0,0,0,0,0,0,0,0,0,0,0,0,0,0,0,0,0,0,0,0,0,0,0,0,0,0,0,0,0,0,0,0],"sum_hessian":[1.4019987E3,5.517865E2,8.502121E2,2.8525146E2,2.6653503E2,4.1881985E2,4.3139224E2,1.7499088E2,1.102606E2,4.0598736E1,2.2593628E2,8.196089E1,3.3685898E2,3.841738E2,4.7218464E1,7.60207E1,9.897017E1,4.6527534E1,6.3733067E1,3.0926098E1,9.672637E0,1.0914435E2,1.1679194E2,1.8868254E1,6.3092636E1,1.3623407E2,2.0062491E2,2.922529E2,9.1920876E1,4.5364967E1,1.8534971E0,6.2709564E1,1.0235004E0,2.8932077E1,1.9940207E0,1.0748584E2,1.6585022E0,4.87783E1,6.801364E1,1.6617476E1,2.2507768E0,3.3837658E1,2.9254976E1,7.653046E1,5.9703613E1,1.8875127E2,1.18736315E1,1.508564E2,1.413965E2,5.7536156E1,3.438472E1,4.297747E1,2.3874986E0,6.0634094E1,2.0754707E0,7.312605E1,3.4359795E1,4.1169735E1,7.608565E0,5.0417107E1,1.759653E1,1.5391177E1,1.2262992E0,2.765146E1,6.1861997E0,2.7995428E1,1.2595482E0,6.573038E1,1.0800083E1,2.2835417E1,3.6868195E1,1.8605917E2,2.6920948E0,6.79712E0,5.0765114E0,1.3804626E2,1.2810131E1,1.3929872E2,2.0977833E0,3.129296E0,5.440686E1,3.279159E1,1.5931306E0],"tree_param":{"num_deleted":"0","num_feature":"160","num_nodes":"83","size_leaf_vector":"1"}},{"base_weights":[8.5528137E-4,6.360101E-1,-4.0940118E-1,8.988376E-1,3.521978E-1,-1.7936519E-1,-6.651258E-1,5.8034092E-2,7.8642017E-1,8.4344846E-1,2.5826874E-1,1.2300096E-1,-2.5317118E-1,-6.139988E-1,-1.0162158E0,4.7713347E-2,6.160204E-1,9.3375206E-1,2.153509E-2,3.8546324E-1,1.3138846E-1,3.997088E-1,2.7329648E-2,-1.4112432E-1,-3.8673258E-1,-4.745323E-1,-7.0989215E-1,-1.0373603E0,-3.7913912E-3,6.217866E-1,-0E0,4.7938973E-2,2.8995876E-4,3.223768E-1,5.485183E-1,2.5732946E-1,2.8597446E-2,4.3346122E-1,-0E0,1.8668863E-1,-1.1710639E-1,-7.6939166E-2,-2.7007866E-1,-4.0269315E-1,-0E0,-5.100929E-1,-1.2520017E-1,-5.241941E-1,-8.454987E-1,-5.3219367E-2,-8.905908E-3,3.1490814E-2,-0E0,2.1656089E-2,1.0890576E-2,1.3811378E-3,3.1076912E-2,1.5164787E-2,-0E0,3.1176356E-3,-1.725233E-3,2.3606481E-2,-0E0,1.11858845E-2,-0E0,-0E0,-9.643882E-3,-2.3620769E-4,-7.564234E-3,-1.455815E-2,-0E0,-2.0770967E-2,-0E0,-9.342003E-3,4.5228666E-3,-2.6013812E-2,-0E0,-0E0,-1.24894595E-2,-0E0,-2.8142957E-2,-4.2585034E-2,-0E0],"categories":[],"categories_nodes":[],"categories_segments":[],"categories_sizes":[],"default_left":[0,0,0,0,0,0,0,0,0,0,0,0,0,0,0,0,0,0,0,0,0,0,0,0,0,0,0,0,0,0,0,0,0,0,0,0,0,0,0,0,0,0,0,0,0,0,0,0,0,0,0,0,0,0,0,0,0,0,0,0,0,0,0,0,0,0,0,0,0,0,0,0,0,0,0,0,0,0,0,0,0,0,0],"id":9,"left_children":[1,3,5,7,9,11,13,-1,15,17,19,21,23,25,27,-1,29,31,-1,33,35,37,39,41,43,45,47,49,-1,51,-1,-1,-1,53,55,57,59,61,-1,63,65,67,69,71,73,75,77,79,81,-1,-1,-1,-1,-1,-1,-1,-1,-1,-1,-1,-1,-1,-1,-1,-1,-1,-1,-1,-1,-1,-1,-1,-1,-1,-1,-1,-1,-1,-1,-1,-1,-1,-1],"loss_changes":[3.6417697E2,3.9751526E1,4.9178787E1,6.056244E0,1.1323441E1,1.0148511E1,5.4115143E0,0E0,4.119133E0,1.7807579E-1,3.2452135E0,1.9922802E0,5.012987E0,3.5584106E0,8.767319E-2,0E0,3.5821152E-1,5.1973343E-2,0E0,3.4412384E-1,1.3166203E0,3.3247495E-1,1.625901E0,1.4082108E0,8.0280685E-1,1.353775E0,3.7435532E0,1.9607544E-3,0E0,1.6807556E-1,0E0,0E0,0E0,4.3163395E-1,5.2267694E-1,5.8146524E-1,1.6863817E-1,1.6736317E-1,0E0,2.1948528E-1,2.6100993E-1,6.41127E-1,4.1789675E-1,8.6546516E-1,2.1094242E-1,9.545708E-1,3.7721443E-1,1.9556885E0,2.8153992E-1,0E0,0E0,0E0,0E0,0E0,0E0,0E0,0E0,0E0,0E0,0E0,0E0,0E0,0E0,0E0,0E0,0E0,0E0,0E0,0E0,0E0,0E0,0E0,0E0,0E0,0E0,0E0,0E0,0E0,0E0,0E0,0E0,0E0,0E0],"parents":[2147483647,0,0,1,1,2,2,3,3,4,4,5,5,6,6,8,8,9,9,10,10,11,11,12,12,13,13,14,14,16,16,17,17,19,19,20,20,21,21,22,22,23,23,24,24,25,25,26,26,27,27,29,29,33,33,34,34,35,35,36,36,37,37,39,39,40,40,41,41,42,42,43,43,44,44,45,45,46,46,47,47,48,48],"right_children":[2,4,6,8,10,12,14,-1,16,18,20,22,24,26,28,-1,30,32,-1,34,36,38,40,42,44,46,48,50,-1,52,-1,-1,-1,54,56,58,60,62,-1,64,66,68,70,72,74,76,78,80,82,-1,-1,-1,-1,-1,-1,-1,-1,-1,-1,-1,-1,-1,-1,-1,-1,-1,-1,-1,-1,-1,-1,-1,-1,-1,-1,-1,-1,-1,-1,-1,-1,-1,-1],"split_conditions":[-1.6700338E-1,-2.2987245E-1,1.22194365E-1,-1.1119622E0,-8.343581E-1,-1.0216283E-1,2.4299924E0,5.8034092E-2,-2.5502008E-1,-2.0472482E-1,3.0211064E-1,-1.3269097E0,-5.3839043E-2,-7.076037E-2,1E0,4.7713347E-2,2.4192376E0,1.4049196E0,2.153509E-2,1.3557718E0,-2.0472482E-1,3.417766E-2,-1.041343E-1,9.3137383E-1,3.7365818E0,1E0,4.994088E-1,1E0,-3.7913912E-3,1E0,-0E0,4.7938973E-2,2.8995876E-4,-1.9045396E-1,-1.11800306E-1,1.2980716E0,1.0607793E0,1.1986293E0,-0E0,4.1322526E-1,-1.04917295E-1,-1.16708115E-1,1E0,1E0,1E0,1E0,3.6109683E-1,-2.653488E-1,1E0,-5.3219367E-2,-8.905908E-3,3.1490814E-2,-0E0,2.1656089E-2,1.0890576E-2,1.3811378E-3,3.1076912E-2,1.5164787E-2,-0E0,3.1176356E-3,-1.725233E-3,2.3606481E-2,-0E0,1.11858845E-2,-0E0,-0E0,-9.643882E-3,-2.3620769E-4,-7.564234E-3,-1.455815E-2,-0E0,-2.0770967E-2,-0E0,-9.342003E-3,4.5228666E-3,-2.6013812E-2,-0E0,-0E0,-1.24894595E-2,-0E0,-2.8142957E-2,-4.2585034E-2,-0E0],"split_indices":[60,60,60,76,76,76,73,0,60,60,76,76,60,81,48,0,76,70,0,58,60,60,60,76,72,36,60,44,0,33,0,0,0,76,77,76,76,61,0,70,81,60,4,84,36,135,60,76,47,0,0,0,0,0,0,0,0,0,0,0,0,0,0,0,0,0,0,0,0,0,0,0,0,0,0,0,0,0,0,0,0,0,0],"split_type":[0,0,0,0,0,0,0,0,0,0,0,0,0,0,0,0,0,0,0,0,0,0,0,0,0,0,0,0,0,0,0,0,0,0,0,0,0,0,0,0,0,0,0,0,0,0,0,0,0,0,0,0,0,0,0,0,0,0,0,0,0,0,0,0,0,0,0,0,0,0,0,0,0,0,0,0,0,0,0,0,0,0,0],"sum_hessian":[1.3949745E3,5.4789105E2,8.470834E2,2.820563E2,2.6583478E2,4.482767E2,3.9880667E2,8.005036E1,2.0200595E2,4.019293E1,2.2564185E2,8.596147E1,3.6231525E2,3.522529E2,4.6553757E1,9.737842E1,1.0462753E2,3.0550611E1,9.642318E0,1.08908554E2,1.16733284E2,1.9388865E1,6.657261E1,2.0099496E2,1.6132028E2,1.4891728E2,2.0333562E2,4.470116E1,1.8525963E0,1.03604034E2,1.0235004E0,2.89814E1,1.5692124E0,8.3768456E1,2.51401E1,4.872337E1,6.800992E1,1.810677E1,1.2820941E0,3.3816322E1,3.2756283E1,1.3888959E2,6.2105373E1,1.5365895E2,7.661328E0,1.329223E2,1.5994985E1,9.00499E1,1.1328573E2,4.2316692E1,2.3844693E0,1.01377495E2,2.226541E0,3.5905006E1,4.7863445E1,4.438965E0,2.0701136E1,4.1114803E1,7.608565E0,5.1542988E1,1.646693E1,1.5855993E1,2.2507768E0,2.7630123E1,6.1861997E0,1.4296452E1,1.845983E1,7.576997E1,6.3119617E1,5.822625E1,3.879122E0,1.4934332E2,4.3156247E0,3.9347072E0,3.7266204E0,1.312576E2,1.6647022E0,6.6798E0,9.315186E0,5.9064445E0,8.414345E1,1.1201549E2,1.2702439E0],"tree_param":{"num_deleted":"0","num_feature":"160","num_nodes":"83","size_leaf_vector":"1"}},{"base_weights":[9.7218447E-4,5.4609513E-1,-4.3691927E-1,8.0568236E-1,2.0897073E-1,-2.428333E-1,-6.6065204E-1,9.851551E-1,5.977467E-1,4.6643317E-1,7.786563E-2,-2.1037731E-2,-3.2712358E-1,-7.4042505E-1,-4.2603558E-1,5.7773013E-2,8.7473226E-1,4.196657E-2,4.6835518E-1,4.7709364E-1,-0E0,1.9937085E-1,-0E0,2.2309282E-1,-9.906026E-2,-2.0400205E-1,-4.084106E-1,-6.126687E-1,-9.5004886E-1,-0E0,-4.323333E-1,5.1281095E-2,7.165985E-1,4.8270327E-1,5.3961463E-2,5.25648E-1,2.4854656E-1,2.737588E-1,-0E0,-2.1161301E-2,1.6328493E-1,1.5599752E-2,-0E0,-1.5250988E-1,1.13014646E-1,-1.5180361E-1,-3.5378492E-1,-4.3943122E-1,-9.007247E-2,-6.484171E-1,-3.7024684E-2,-9.6009797E-1,-0E0,-3.237848E-1,-5.2370596E-1,3.6627278E-2,2.148539E-3,2.987138E-2,1.9159466E-2,3.578483E-3,-0E0,2.7044466E-2,-0E0,1.4702353E-2,-0E0,1.0071008E-2,2.6681969E-2,1.0599716E-3,-0E0,3.1621382E-4,-3.4812707E-3,1.0503319E-2,-0E0,2.182775E-3,-1.3580433E-3,-0E0,-1.1148955E-2,1.0862045E-2,-3.596448E-3,-2.5357087E-3,-9.97447E-3,-1.9087961E-2,-0E0,-2.2325372E-2,-0E0,-9.048011E-3,-0E0,-0E0,-3.321756E-2,-1.2982323E-2,3.5317123E-3,-4.880811E-2,-6.908588E-3,-1.6915126E-2,-0E0,-2.7239904E-2,-0E0],"categories":[],"categories_nodes":[],"categories_segments":[],"categories_sizes":[],"default_left":[0,0,0,0,0,0,0,0,0,0,0,0,0,0,0,0,0,0,0,0,0,0,0,0,0,0,0,0,0,0,0,0,0,0,0,0,0,0,0,0,0,0,0,0,0,0,0,0,0,0,0,0,0,0,0,0,0,0,0,0,0,0,0,0,0,0,0,0,0,0,0,0,0,0,0,0,0,0,0,0,0,0,0,0,0,0,0,0,0,0,0,0,0,0,0,0,0],"id":10,"left_children":[1,3,5,7,9,11,13,15,17,19,21,23,25,27,29,-1,31,-1,33,35,-1,37,39,41,43,45,47,49,51,-1,53,-1,55,57,59,61,63,65,67,69,71,-1,73,75,77,79,81,83,85,87,89,91,-1,93,95,-1,-1,-1,-1,-1,-1,-1,-1,-1,-1,-1,-1,-1,-1,-1,-1,-1,-1,-1,-1,-1,-1,-1,-1,-1,-1,-1,-1,-1,-1,-1,-1,-1,-1,-1,-1,-1,-1,-1,-1,-1,-1],"loss_changes":[3.319923E2,5.3389633E1,3.2659348E1,1.13207245E1,8.773777E0,7.522398E0,5.5234528E0,1.0260468E0,3.8788605E0,2.989292E-1,1.8087106E0,2.1800873E0,2.479662E0,5.3349E0,1.4943123E-1,0E0,8.6483765E-1,0E0,2.6550102E-1,2.952156E-1,0E0,9.45132E-1,3.3449507E-1,5.606717E-1,1.0897143E0,5.6417274E-1,1.3240967E0,2.9440231E0,4.0994263E-1,0E0,1.5829086E-1,0E0,1.0542297E-1,3.0282974E-1,9.153619E-3,4.233036E-1,2.779318E-1,3.4772825E-1,6.8185055E-3,1.7941107E-1,1.0583085E-1,0E0,9.331358E-3,9.3857074E-1,4.3525755E-1,2.842133E-1,2.9828715E-1,5.2064896E-1,2.6983428E-1,1.3577957E0,4.383038E-1,3.222885E-1,0E0,1.806097E-1,5.1045704E-1,0E0,0E0,0E0,0E0,0E0,0E0,0E0,0E0,0E0,0E0,0E0,0E0,0E0,0E0,0E0,0E0,0E0,0E0,0E0,0E0,0E0,0E0,0E0,0E0,0E0,0E0,0E0,0E0,0E0,0E0,0E0,0E0,0E0,0E0,0E0,0E0,0E0,0E0,0E0,0E0,0E0,0E0],"parents":[2147483647,0,0,1,1,2,2,3,3,4,4,5,5,6,6,7,7,8,8,9,9,10,10,11,11,12,12,13,13,14,14,16,16,18,18,19,19,21,21,22,22,23,23,24,24,25,25,26,26,27,27,28,28,30,30,32,32,33,33,34,34,35,35,36,36,37,37,38,38,39,39,40,40,42,42,43,43,44,44,45,45,46,46,47,47,48,48,49,49,50,50,51,51,53,53,54,54],"right_children":[2,4,6,8,10,12,14,16,18,20,22,24,26,28,30,-1,32,-1,34,36,-1,38,40,42,44,46,48,50,52,-1,54,-1,56,58,60,62,64,66,68,70,72,-1,74,76,78,80,82,84,86,88,90,92,-1,94,96,-1,-1,-1,-1,-1,-1,-1,-1,-1,-1,-1,-1,-1,-1,-1,-1,-1,-1,-1,-1,-1,-1,-1,-1,-1,-1,-1,-1,-1,-1,-1,-1,-1,-1,-1,-1,-1,-1,-1,-1,-1,-1],"split_conditions":[-1.4185575E-1,-2.1729863E-1,1.8506344E-1,-3.0635396E-1,-7.932284E-2,1.7449178E-1,3.9663162E0,-1.434108E0,-2.5502008E-1,-1.3037013E-1,-1.9215101E-1,-8.343581E-1,-5.3839043E-2,1.1155257E0,1.4189417E0,5.7773013E-2,-2.5502008E-1,4.196657E-2,1.8614299E0,-4.6790227E-1,-0E0,8.762435E-1,1.9458785E0,-4.1265227E-2,1E0,1.1881542E0,2.73923E0,1E0,1E0,-0E0,-6.508223E-1,5.1281095E-2,7.413033E-1,-8.556779E-1,-2.0508969E-1,1E0,-2.1098189E-1,8.4951484E-1,1.2323362E0,6.447138E-1,1E0,1.5599752E-2,-2.126042E0,-1.041343E-1,1E0,-1.1483188E-1,1E0,1E0,1E0,-3.7903243E-1,1.4794761E-1,1E0,-0E0,-6.712067E-1,1.3818238E0,3.6627278E-2,2.148539E-3,2.987138E-2,1.9159466E-2,3.578483E-3,-0E0,2.7044466E-2,-0E0,1.4702353E-2,-0E0,1.0071008E-2,2.6681969E-2,1.0599716E-3,-0E0,3.1621382E-4,-3.4812707E-3,1.0503319E-2,-0E0,2.182775E-3,-1.3580433E-3,-0E0,-1.1148955E-2,1.0862045E-2,-3.596448E-3,-2.5357087E-3,-9.97447E-3,-1.9087961E-2,-0E0,-2.2325372E-2,-0E0,-9.048011E-3,-0E0,-0E0,-3.321756E-2,-1.2982323E-2,3.5317123E-3,-4.880811E-2,-6.908588E-3,-1.6915126E-2,-0E0,-2.7239904E-2,-0E0],"split_indices":[60,60,60,76,76,76,61,76,60,66,60,76,60,60,77,0,60,0,76,69,0,76,69,60,36,76,72,154,10,0,81,0,77,70,81,52,76,73,76,76,110,0,76,60,110,81,154,40,36,76,69,82,0,81,76,0,0,0,0,0,0,0,0,0,0,0,0,0,0,0,0,0,0,0,0,0,0,0,0,0,0,0,0,0,0,0,0,0,0,0,0,0,0,0,0,0,0],"split_type":[0,0,0,0,0,0,0,0,0,0,0,0,0,0,0,0,0,0,0,0,0,0,0,0,0,0,0,0,0,0,0,0,0,0,0,0,0,0,0,0,0,0,0,0,0,0,0,0,0,0,0,0,0,0,0,0,0,0,0,0,0,0,0,0,0,0,0,0,0,0,0,0,0,0,0,0,0,0,0,0,0,0,0,0,0,0,0,0,0,0,0,0,0,0,0,0,0],"sum_hessian":[1.3884882E3,6.191149E2,7.693732E2,3.4782324E2,2.712917E2,4.1477454E2,3.545987E2,1.8287585E2,1.649474E2,8.8871025E1,1.8242065E2,1.16852165E2,2.9792236E2,2.607876E2,9.381109E1,6.57171E1,1.1715875E2,5.3730824E1,1.11216576E2,8.621292E1,2.6581075E0,7.248159E1,1.09939064E2,2.5677328E1,9.1174835E1,1.2329478E2,1.7462758E2,1.6654678E2,9.4240814E1,1.9425893E0,9.18685E1,5.48802E1,6.227855E1,1.0570264E2,5.51394E0,6.750817E1,1.8704744E1,5.058437E1,2.1897223E1,1.0009116E2,9.847899E0,1.84E1,7.27733E0,7.568212E1,1.5492715E1,9.6390274E1,2.690451E1,1.5677159E2,1.7855988E1,1.5554475E2,1.1002029E1,9.2702255E1,1.5385598E0,4.7565895E1,4.4302605E1,5.9737743E1,2.540806E0,4.350751E1,6.2195126E1,4.490039E0,1.0239007E0,6.514857E1,2.359604E0,1.629281E1,2.411934E0,4.306553E1,7.5188427E0,1.41719265E1,7.7252955E0,5.5207195E1,4.488397E1,7.9525547E0,1.8953452E0,1.12942E0,6.1479096E0,2.1932352E1,5.3749767E1,1.2217668E1,3.2750473E0,3.6261715E1,6.0128555E1,2.501152E1,1.8929902E0,1.54422E2,2.3495882E0,1.1911685E1,5.9443035E0,4.3428154E0,1.5120193E2,5.245475E0,5.7565546E0,8.9905785E1,2.7964716E0,4.506515E1,2.5007403E0,4.2582516E1,1.7200854E0],"tree_param":{"num_deleted":"0","num_feature":"160","num_nodes":"97","size_leaf_vector":"1"}},{"base_weights":[1.1123128E-3,6.1651874E-1,-3.540747E-1,8.3095974E-1,3.531854E-1,-1.1595683E-1,-5.819341E-1,9.56837E-1,6.217974E-1,8.0506206E-1,2.594895E-1,1.7168215E-1,-1.927494E-1,-5.359589E-1,-9.512346E-1,5.657938E-2,8.565611E-1,4.034955E-2,4.6773323E-1,8.2354945E-1,-0E0,3.5141763E-1,1.3084121E-1,3.5823956E-1,7.2543905E-3,-6.307802E-2,-2.721494E-1,-4.0658343E-1,-6.123728E-1,-9.7155887E-1,-2.599748E-3,5.6097217E-2,3.8905617E-2,4.7495422E-1,-0E0,8.5588276E-1,4.989021E-3,2.8716612E-1,5.150278E-1,1.7058197E-1,-2.5134452E-2,4.1354454E-1,-0E0,3.063293E-1,-6.6435374E-2,2.2602241E-2,-1.12941526E-1,-1.9028373E-1,-3.7180257E-1,-1.3931209E-1,-4.5842317E-1,-7.10693E-1,-3.674426E-1,-4.9881555E-2,-7.4552572E-3,2.4087472E-2,-0E0,4.625695E-2,1.5512598E-2,1.680759E-2,2.3195629E-4,1.0888128E-3,3.0039651E-2,6.5375916E-3,2.5988827E-2,-2.22482E-3,-0E0,2.49548E-2,3.858395E-3,2.3144498E-3,-0E0,1.781141E-2,-0E0,1.890645E-5,-6.5459646E-3,3.47436E-3,-3.8162265E-3,-2.1839503E-3,-9.309443E-3,-1.2309383E-2,-0E0,-1.9203128E-2,-0E0,-1.0325726E-2,-0E0,-2.3421539E-2,-0E0,-1.0475295E-2,-3.656153E-2,-1.1711956E-2,-2.4614815E-2],"categories":[],"categories_nodes":[],"categories_segments":[],"categories_sizes":[],"default_left":[0,0,0,0,0,0,0,0,0,0,0,0,0,0,0,0,0,0,0,0,0,0,0,0,0,0,0,0,0,0,0,0,0,0,0,0,0,0,0,0,0,0,0,0,0,0,0,0,0,0,0,0,0,0,0,0,0,0,0,0,0,0,0,0,0,0,0,0,0,0,0,0,0,0,0,0,0,0,0,0,0,0,0,0,0,0,0,0,0,0,0],"id":11,"left_children":[1,3,5,7,9,11,13,15,17,19,21,23,25,27,29,-1,31,-1,33,35,-1,37,39,41,43,45,47,49,51,53,-1,-1,-1,55,-1,57,-1,59,61,63,65,67,69,71,73,75,77,79,81,83,85,87,89,-1,-1,-1,-1,-1,-1,-1,-1,-1,-1,-1,-1,-1,-1,-1,-1,-1,-1,-1,-1,-1,-1,-1,-1,-1,-1,-1,-1,-1,-1,-1,-1,-1,-1,-1,-1,-1,-1],"loss_changes":[3.028059E2,2.7528137E1,4.7033287E1,5.6045685E0,8.823067E0,9.582303E0,6.0293427E0,6.049347E-1,1.8453445E0,1.7504883E-1,1.9110613E0,2.488962E0,3.280529E0,3.0021057E0,8.195114E-2,0E0,1.7458344E-1,0E0,2.0506E-1,9.923744E-2,0E0,4.4056034E-1,6.3688207E-1,6.1914825E-1,1.3038956E0,6.423148E-1,1.2419853E0,1.6691475E0,4.92572E0,5.0354004E-3,0E0,0E0,0E0,1.1054134E-1,0E0,1.276455E-1,0E0,9.207859E-1,6.7279387E-1,4.773426E-1,1.5010484E-2,5.2487326E-1,1.014159E-2,1.8082428E-1,2.6185876E-1,2.1068165E-1,2.907648E-1,1.2977438E0,4.9682236E-1,3.6419684E-1,6.6646767E-1,9.6842957E-1,6.1979866E-1,0E0,0E0,0E0,0E0,0E0,0E0,0E0,0E0,0E0,0E0,0E0,0E0,0E0,0E0,0E0,0E0,0E0,0E0,0E0,0E0,0E0,0E0,0E0,0E0,0E0,0E0,0E0,0E0,0E0,0E0,0E0,0E0,0E0,0E0,0E0,0E0,0E0,0E0],"parents":[2147483647,0,0,1,1,2,2,3,3,4,4,5,5,6,6,7,7,8,8,9,9,10,10,11,11,12,12,13,13,14,14,16,16,18,18,19,19,21,21,22,22,23,23,24,24,25,25,26,26,27,27,28,28,29,29,33,33,35,35,37,37,38,38,39,39,40,40,41,41,42,42,43,43,44,44,45,45,46,46,47,47,48,48,49,49,50,50,51,51,52,52],"right_children":[2,4,6,8,10,12,14,16,18,20,22,24,26,28,30,-1,32,-1,34,36,-1,38,40,42,44,46,48,50,52,54,-1,-1,-1,56,-1,58,-1,60,62,64,66,68,70,72,74,76,78,80,82,84,86,88,90,-1,-1,-1,-1,-1,-1,-1,-1,-1,-1,-1,-1,-1,-1,-1,-1,-1,-1,-1,-1,-1,-1,-1,-1,-1,-1,-1,-1,-1,-1,-1,-1,-1,-1,-1,-1,-1,-1],"split_conditions":[-1.7957719E-1,-2.2987245E-1,5.932529E-2,-1.6508636E-1,-8.343581E-1,-1.0216283E-1,2.4299924E0,-1.434108E0,-2.5502008E-1,1E0,4.2382947E-1,-1.2928192E-1,-1.16708115E-1,3.359492E-1,1E0,5.657938E-2,-2.675939E-1,4.034955E-2,2.4192376E0,1.1575236E0,-0E0,1.3557718E0,1.2980716E0,1.3557718E0,-1.434108E0,3.855845E-1,7.542878E-1,1.4838468E-1,3.6110598E-1,1E0,-2.599748E-3,5.6097217E-2,3.8905617E-2,1E0,-0E0,6.561438E-1,4.989021E-3,-1.9215101E-1,1.6710082E-2,1E0,1E0,1E0,-5.846584E-1,1E0,-9.156048E-2,6.9221157E-1,-1.4185575E-1,7.256294E-1,1E0,1E0,1E0,-1.6508636E-1,1.7190689E0,-4.9881555E-2,-7.4552572E-3,2.4087472E-2,-0E0,4.625695E-2,1.5512598E-2,1.680759E-2,2.3195629E-4,1.0888128E-3,3.0039651E-2,6.5375916E-3,2.5988827E-2,-2.22482E-3,-0E0,2.49548E-2,3.858395E-3,2.3144498E-3,-0E0,1.781141E-2,-0E0,1.890645E-5,-6.5459646E-3,3.47436E-3,-3.8162265E-3,-2.1839503E-3,-9.309443E-3,-1.2309383E-2,-0E0,-1.9203128E-2,-0E0,-1.0325726E-2,-0E0,-2.3421539E-2,-0E0,-1.0475295E-2,-3.656153E-2,-1.1711956E-2,-2.4614815E-2],"split_indices":[60,60,60,76,76,76,73,76,60,32,76,60,60,60,48,0,60,0,76,70,0,58,76,58,76,76,76,76,59,44,0,0,0,14,0,73,0,60,63,17,89,53,76,57,60,70,60,77,133,36,134,76,60,0,0,0,0,0,0,0,0,0,0,0,0,0,0,0,0,0,0,0,0,0,0,0,0,0,0,0,0,0,0,0,0,0,0,0,0,0,0],"split_type":[0,0,0,0,0,0,0,0,0,0,0,0,0,0,0,0,0,0,0,0,0,0,0,0,0,0,0,0,0,0,0,0,0,0,0,0,0,0,0,0,0,0,0,0,0,0,0,0,0,0,0,0,0,0,0,0,0,0,0,0,0,0,0,0,0,0,0,0,0,0,0,0,0,0,0,0,0,0,0,0,0,0,0,0,0,0,0,0,0,0,0],"sum_hessian":[1.3824655E3,5.063628E2,8.761026E2,2.7643713E2,2.2992566E2,4.306477E2,4.454549E2,1.6825642E2,1.0818072E2,3.690018E1,1.9302548E2,8.856437E1,3.4208334E2,4.0000412E2,4.5450806E1,5.5051968E1,1.1320446E2,4.513927E1,6.3041447E1,3.5475777E1,1.4244039E0,1.0839611E2,8.4629364E1,3.894361E1,4.962076E1,1.339442E2,2.0813913E2,1.5427853E2,2.4572557E2,4.360637E1,1.844435E0,2.0757982E1,9.244647E1,6.201797E1,1.0234777E0,3.285819E1,2.6175873E0,8.288134E1,2.5514772E1,7.094711E1,1.3682252E1,3.2594704E1,6.348907E0,1.1063019E1,3.8557743E1,4.4311806E1,8.96324E1,1.1972123E2,8.841789E1,2.7855228E1,1.264233E2,1.7194402E2,7.3781555E1,4.1235092E1,2.371277E0,6.072904E1,1.2889321E0,2.7401672E1,5.4565163E0,6.836116E1,1.4520179E1,5.1739783E0,2.0340794E1,6.671632E1,4.230802E0,1.1266022E1,2.4162304E0,2.3940992E1,8.65371E0,3.733153E0,2.6157541E0,9.345189E0,1.7178293E0,1.4093652E1,2.446409E1,3.50662E1,9.2456045E0,5.180175E1,3.783065E1,9.2531746E1,2.7189484E1,8.616845E1,2.2494488E0,2.0670643E1,7.1845856E0,1.2407419E2,2.3491116E0,8.551187E0,1.6339284E2,3.980122E1,3.398033E1],"tree_param":{"num_deleted":"0","num_feature":"160","num_nodes":"91","size_leaf_vector":"1"}},{"base_weights":[1.3377886E-3,5.909822E-1,-3.378618E-1,7.980733E-1,3.382078E-1,-1.2090279E-1,-5.676726E-1,5.2494973E-2,6.923749E-1,7.7570355E-1,2.4800175E-1,1.5330108E-1,-1.9297874E-1,-5.218609E-1,-9.171017E-1,4.236197E-2,5.373437E-1,7.9319614E-1,-0E0,3.3587626E-1,1.2481522E-1,3.4296018E-1,-0E0,-7.806376E-2,-2.8112024E-1,-5.762174E-1,-3.3921432E-1,-4.681683E-2,-2.5159628E-3,5.424436E-1,-0E0,8.2382256E-1,4.8103197E-3,2.7375978E-1,4.9367934E-1,1.6308017E-1,-2.3428379E-2,3.957575E-1,-0E0,2.7673408E-1,-7.0647776E-2,1.1766387E-2,-1.2708014E-1,-2.506133E-1,-5.2636117E-1,-4.4777083E-1,-7.102222E-1,-2.0168388E-1,-4.2808744E-1,2.7493635E-2,-0E0,4.451553E-2,1.4881507E-2,1.6002655E-2,2.2110532E-4,1.0432266E-3,2.8745262E-2,1.26143E-2,2.8306379E-3,-2.122766E-3,-0E0,8.7507125E-3,2.7041469E-2,2.22343E-3,-0E0,1.5945345E-2,-0E0,-0E0,-8.38067E-3,2.741236E-3,-3.671052E-3,-2.0768878E-3,-9.544328E-3,-1.3334616E-2,-0E0,-2.7807672E-2,-0E0,-2.4157202E-2,-3.6471486E-4,-3.5984278E-2,-0E0,-3.3518933E-3,-1.8341532E-2,-0E0,-2.1937232E-2],"categories":[],"categories_nodes":[],"categories_segments":[],"categories_sizes":[],"default_left":[0,0,0,0,0,0,0,0,0,0,0,0,0,0,0,0,0,0,0,0,0,0,0,0,0,0,0,0,0,0,0,0,0,0,0,0,0,0,0,0,0,0,0,0,0,0,0,0,0,0,0,0,0,0,0,0,0,0,0,0,0,0,0,0,0,0,0,0,0,0,0,0,0,0,0,0,0,0,0,0,0,0,0,0,0],"id":12,"left_children":[1,3,5,7,9,11,13,-1,15,17,19,21,23,25,27,-1,29,31,-1,33,35,37,39,41,43,45,47,-1,-1,49,-1,51,-1,53,55,57,59,61,63,65,67,69,71,73,75,77,79,81,83,-1,-1,-1,-1,-1,-1,-1,-1,-1,-1,-1,-1,-1,-1,-1,-1,-1,-1,-1,-1,-1,-1,-1,-1,-1,-1,-1,-1,-1,-1,-1,-1,-1,-1,-1,-1],"loss_changes":[2.7598157E2,2.5335144E1,4.3058594E1,5.372238E0,8.182667E0,9.005054E0,5.2839203E0,0E0,3.3428345E0,1.352787E-1,1.7333574E0,2.508363E0,3.3827906E0,2.9163208E0,2.7938843E-2,0E0,2.7276802E-1,4.859352E-2,0E0,3.9802074E-1,5.870981E-1,5.603838E-1,1.1870344E0,7.934048E-1,8.238783E-1,3.8096924E0,5.9821606E-1,0E0,0E0,1.6619873E-1,0E0,7.698631E-2,0E0,8.161001E-1,5.854397E-1,4.524547E-1,1.4049153E-2,4.7746944E-1,9.358555E-3,1.4564145E-1,2.8378838E-1,1.8502413E-1,4.2772162E-1,6.910572E-1,2.566495E-1,2.0193577E0,8.1191254E-1,5.861815E-1,1.4207172E-1,0E0,0E0,0E0,0E0,0E0,0E0,0E0,0E0,0E0,0E0,0E0,0E0,0E0,0E0,0E0,0E0,0E0,0E0,0E0,0E0,0E0,0E0,0E0,0E0,0E0,0E0,0E0,0E0,0E0,0E0,0E0,0E0,0E0,0E0,0E0,0E0],"parents":[2147483647,0,0,1,1,2,2,3,3,4,4,5,5,6,6,8,8,9,9,10,10,11,11,12,12,13,13,14,14,16,16,17,17,19,19,20,20,21,21,22,22,23,23,24,24,25,25,26,26,29,29,31,31,33,33,34,34,35,35,36,36,37,37,38,38,39,39,40,40,41,41,42,42,43,43,44,44,45,45,46,46,47,47,48,48],"right_children":[2,4,6,8,10,12,14,-1,16,18,20,22,24,26,28,-1,30,32,-1,34,36,38,40,42,44,46,48,-1,-1,50,-1,52,-1,54,56,58,60,62,64,66,68,70,72,74,76,78,80,82,84,-1,-1,-1,-1,-1,-1,-1,-1,-1,-1,-1,-1,-1,-1,-1,-1,-1,-1,-1,-1,-1,-1,-1,-1,-1,-1,-1,-1,-1,-1,-1,-1,-1,-1,-1,-1],"split_conditions":[-1.7957719E-1,-2.2987245E-1,8.447292E-2,-1.1119622E0,-8.343581E-1,-1.0216283E-1,2.4299924E0,5.2494973E-2,-2.5502008E-1,1E0,4.2382947E-1,-1.2928192E-1,-1.041343E-1,3.959725E-1,1E0,4.236197E-2,2.4192376E0,1.1575236E0,-0E0,1.3557718E0,1.2980716E0,1.3557718E0,-1.434108E0,3.855845E-1,1.4889289E0,4.994088E-1,-8.191892E-1,-4.681683E-2,-2.5159628E-3,1E0,-0E0,6.561438E-1,4.8103197E-3,-1.9215101E-1,1.6710082E-2,-2.0472482E-1,1E0,4.8165914E-1,-5.846584E-1,1E0,-5.3839043E-2,7.190321E-1,-1.4185575E-1,3.7487047E0,2.0213246E0,1E0,1E0,8.972283E-1,-1.6508636E-1,2.7493635E-2,-0E0,4.451553E-2,1.4881507E-2,1.6002655E-2,2.2110532E-4,1.0432266E-3,2.8745262E-2,1.26143E-2,2.8306379E-3,-2.122766E-3,-0E0,8.7507125E-3,2.7041469E-2,2.22343E-3,-0E0,1.5945345E-2,-0E0,-0E0,-8.38067E-3,2.741236E-3,-3.671052E-3,-2.0768878E-3,-9.544328E-3,-1.3334616E-2,-0E0,-2.7807672E-2,-0E0,-2.4157202E-2,-3.6471486E-4,-3.5984278E-2,-0E0,-3.3518933E-3,-1.8341532E-2,-0E0,-2.1937232E-2],"split_indices":[60,60,60,76,76,76,73,0,60,32,76,60,60,59,48,0,76,70,0,58,76,58,76,76,76,60,81,0,0,33,0,73,0,60,63,60,89,77,76,57,60,81,60,61,73,154,40,76,76,0,0,0,0,0,0,0,0,0,0,0,0,0,0,0,0,0,0,0,0,0,0,0,0,0,0,0,0,0,0,0,0,0,0,0,0],"split_type":[0,0,0,0,0,0,0,0,0,0,0,0,0,0,0,0,0,0,0,0,0,0,0,0,0,0,0,0,0,0,0,0,0,0,0,0,0,0,0,0,0,0,0,0,0,0,0,0,0,0,0,0,0,0,0,0,0,0,0,0,0,0,0,0,0,0,0,0,0,0,0,0,0,0,0,0,0,0,0,0,0,0,0,0,0],"sum_hessian":[1.3769744E3,5.0333252E2,8.736419E2,2.7395895E2,2.2937355E2,4.5173837E2,4.2190353E2,7.639426E1,1.9756471E2,3.6583897E1,1.9278966E2,9.177043E1,3.5996793E2,3.7697693E2,4.4926632E1,9.434296E1,1.0322175E2,3.5159492E1,1.4244039E0,1.0819809E2,8.459157E1,3.8861538E1,5.290889E1,1.6051846E2,1.9944946E2,2.859033E2,9.1073616E1,4.3082745E1,1.8438855E0,1.0219827E2,1.0234777E0,3.254322E1,2.616272E0,8.27828E1,2.5415293E1,7.0909996E1,1.3681566E1,3.251316E1,6.3483777E0,1.1752758E1,4.115613E1,5.189388E1,1.08624596E2,1.8172044E2,1.7729013E1,1.5086293E2,1.3504037E2,4.012549E1,5.0948128E1,9.997823E1,2.22004E0,2.7097023E1,5.446197E0,6.8262665E1,1.4520134E1,5.1737523E0,2.024154E1,3.4260105E1,3.6649895E1,1.1265336E1,2.4162304E0,1.5682323E1,1.6830837E1,3.7326236E0,2.6157541E0,1.0034929E1,1.7178293E0,2.4565552E1,1.659058E1,4.0165604E1,1.1728272E1,5.180014E1,5.682445E1,1.7006812E2,1.1652328E1,1.6605947E1,1.1230662E0,1.3808751E2,1.2775407E1,1.3305377E2,1.9865988E0,2.5213346E1,1.4912141E1,1.7549633E0,4.9193165E1],"tree_param":{"num_deleted":"0","num_feature":"160","num_nodes":"85","size_leaf_vector":"1"}},{"base_weights":[1.3811243E-3,5.6595397E-1,-3.2240275E-1,7.6545584E-1,3.237819E-1,-1.0466486E-1,-5.321751E-1,8.872742E-1,5.6518394E-1,7.4705756E-1,2.3694712E-1,1.5780106E-1,-1.7485936E-1,-4.664816E-1,-7.577769E-1,5.287863E-2,7.9061973E-1,7.3869586E-1,4.216075E-1,7.6355416E-1,-0E0,3.210139E-1,1.1888027E-1,3.2854763E-1,6.513628E-3,-5.726356E-2,-2.4667805E-1,-4.1718164E-1,-6.616151E-1,-9.4713175E-1,-4.6770185E-1,5.2880418E-2,3.5654716E-2,7.854521E-1,1.2997912E-2,4.3337741E-1,-0E0,7.862516E-1,1.4311072E-3,2.6097006E-1,4.731262E-1,8.54919E-2,4.581591E-1,3.7897202E-1,-0E0,2.8105986E-1,-5.9451394E-2,-0E0,-1.3155055E-1,-1.6977155E-1,-3.401018E-1,-4.4972098E-1,-1.533337E-1,-7.008891E-1,-1.291525E-1,-4.889662E-2,-8.03532E-2,-0E0,-4.98958E-1,4.0217023E-2,-0E0,2.2003016E-2,-0E0,4.2370968E-2,1.4274657E-2,1.5234235E-2,2.1076392E-4,8.994161E-3,3.1719252E-2,5.9092827E-3,-1.1507155E-3,3.1917587E-2,-0E0,2.3025697E-2,2.8695476E-3,2.1359813E-3,-0E0,1.6346047E-2,-0E0,1.8027793E-5,-6.004512E-3,-4.9670227E-4,9.520258E-3,-1.9747277E-3,-1.0967444E-2,-1.128078E-2,-0E0,-1.7594796E-2,-0E0,-2.3683032E-2,-0E0,-0E0,-1.1623666E-2,-3.5488423E-2,-0E0,-1.4628503E-2,-0E0,-8.225408E-3,-0E0,-9.4189215E-4,-0E0,-2.5710613E-2,-0E0],"categories":[],"categories_nodes":[],"categories_segments":[],"categories_sizes":[],"default_left":[0,0,0,0,0,0,0,0,0,0,0,0,0,0,0,0,0,0,0,0,0,0,0,0,0,0,0,0,0,0,0,0,0,0,0,0,0,0,0,0,0,0,0,0,0,0,0,0,0,0,0,0,0,0,0,0,0,0,0,0,0,0,0,0,0,0,0,0,0,0,0,0,0,0,0,0,0,0,0,0,0,0,0,0,0,0,0,0,0,0,0,0,0,0,0,0,0,0,0,0,0,0,0],"id":13,"left_children":[1,3,5,7,9,11,13,15,17,19,21,23,25,27,29,-1,31,33,35,37,-1,39,41,43,45,47,49,51,53,55,57,-1,-1,59,-1,61,-1,63,-1,65,67,69,71,73,75,77,79,81,83,85,87,89,91,93,95,-1,97,99,101,-1,-1,-1,-1,-1,-1,-1,-1,-1,-1,-1,-1,-1,-1,-1,-1,-1,-1,-1,-1,-1,-1,-1,-1,-1,-1,-1,-1,-1,-1,-1,-1,-1,-1,-1,-1,-1,-1,-1,-1,-1,-1,-1,-1],"loss_changes":[2.5132993E2,2.322203E1,3.9345764E1,5.134598E0,7.5830956E0,7.979308E0,5.34684E0,5.963745E-1,1.5684319E0,9.890747E-2,1.575263E0,2.071571E0,2.6665564E0,2.3134308E0,3.827385E0,0E0,3.2958984E-1,8.010864E-2,1.87706E-1,5.4187775E-3,0E0,3.5836506E-1,5.494894E-1,5.076952E-1,1.0877198E0,5.4877174E-1,1.0848379E0,1.9396019E0,6.9924927E-1,6.6267014E-1,3.8095284E-1,0E0,0E0,8.996582E-2,0E0,1.0819149E-1,0E0,1.3389587E-3,0E0,7.2185564E-1,5.6072474E-1,3.5669124E-1,3.164376E-1,4.8783398E-1,8.63596E-3,1.51757E-1,2.2728024E-1,1.1621143E-1,2.7303708E-1,1.1443856E0,4.4877338E-1,2.43285E0,4.950089E-1,1.5268135E-1,3.1043902E-1,0E0,4.216371E-2,1.1529532E-3,1.6483593E-1,0E0,0E0,0E0,0E0,0E0,0E0,0E0,0E0,0E0,0E0,0E0,0E0,0E0,0E0,0E0,0E0,0E0,0E0,0E0,0E0,0E0,0E0,0E0,0E0,0E0,0E0,0E0,0E0,0E0,0E0,0E0,0E0,0E0,0E0,0E0,0E0,0E0,0E0,0E0,0E0,0E0,0E0,0E0,0E0],"parents":[2147483647,0,0,1,1,2,2,3,3,4,4,5,5,6,6,7,7,8,8,9,9,10,10,11,11,12,12,13,13,14,14,16,16,17,17,18,18,19,19,21,21,22,22,23,23,24,24,25,25,26,26,27,27,28,28,29,29,30,30,33,33,35,35,37,37,39,39,40,40,41,41,42,42,43,43,44,44,45,45,46,46,47,47,48,48,49,49,50,50,51,51,52,52,53,53,54,54,56,56,57,57,58,58],"right_children":[2,4,6,8,10,12,14,16,18,20,22,24,26,28,30,-1,32,34,36,38,-1,40,42,44,46,48,50,52,54,56,58,-1,-1,60,-1,62,-1,64,-1,66,68,70,72,74,76,78,80,82,84,86,88,90,92,94,96,-1,98,100,102,-1,-1,-1,-1,-1,-1,-1,-1,-1,-1,-1,-1,-1,-1,-1,-1,-1,-1,-1,-1,-1,-1,-1,-1,-1,-1,-1,-1,-1,-1,-1,-1,-1,-1,-1,-1,-1,-1,-1,-1,-1,-1,-1,-1],"split_conditions":[-1.7957719E-1,-2.2987245E-1,5.932529E-2,-1.6508636E-1,-8.343581E-1,-1.0216283E-1,1.6687735E0,-1.434108E0,-2.5502008E-1,1E0,4.2382947E-1,-1.2928192E-1,-1.16708115E-1,1.0306213E0,3.7905564E0,5.287863E-2,-2.675939E-1,9.835387E-1,1E0,1.4049196E0,-0E0,1.3557718E0,1E0,1.3557718E0,-1.434108E0,7.394123E-1,7.542878E-1,1E0,5.644907E0,1E0,5.377799E0,5.2880418E-2,3.5654716E-2,1E0,1.2997912E-2,1E0,-0E0,6.561438E-1,1.4311072E-3,-1.9215101E-1,1E0,1.2867266E0,1.4552753E-2,1E0,-5.846584E-1,1E0,-9.156048E-2,-1.3213955E-1,-1.4185575E-1,6.894967E-1,1E0,1E0,1.4838468E-1,1E0,1.3557718E0,-4.889662E-2,6.195347E0,6.4990897E0,1E0,4.0217023E-2,-0E0,2.2003016E-2,-0E0,4.2370968E-2,1.4274657E-2,1.5234235E-2,2.1076392E-4,8.994161E-3,3.1719252E-2,5.9092827E-3,-1.1507155E-3,3.1917587E-2,-0E0,2.3025697E-2,2.8695476E-3,2.1359813E-3,-0E0,1.6346047E-2,-0E0,1.8027793E-5,-6.004512E-3,-4.9670227E-4,9.520258E-3,-1.9747277E-3,-1.0967444E-2,-1.128078E-2,-0E0,-1.7594796E-2,-0E0,-2.3683032E-2,-0E0,-0E0,-1.1623666E-2,-3.5488423E-2,-0E0,-1.4628503E-2,-0E0,-8.225408E-3,-0E0,-9.4189215E-4,-0E0,-2.5710613E-2,-0E0],"split_indices":[60,60,60,76,76,76,60,76,60,32,76,60,60,76,61,0,60,70,25,70,0,58,17,58,76,76,76,36,72,82,72,0,0,20,0,14,0,73,0,60,54,76,70,53,76,57,60,62,60,77,133,154,76,29,58,0,60,74,44,0,0,0,0,0,0,0,0,0,0,0,0,0,0,0,0,0,0,0,0,0,0,0,0,0,0,0,0,0,0,0,0,0,0,0,0,0,0,0,0,0,0,0,0],"split_type":[0,0,0,0,0,0,0,0,0,0,0,0,0,0,0,0,0,0,0,0,0,0,0,0,0,0,0,0,0,0,0,0,0,0,0,0,0,0,0,0,0,0,0,0,0,0,0,0,0,0,0,0,0,0,0,0,0,0,0,0,0,0,0,0,0,0,0,0,0,0,0,0,0,0,0,0,0,0,0,0,0,0,0,0,0,0,0,0,0,0,0,0,0,0,0,0,0,0,0,0,0,0,0],"sum_hessian":[1.3719626E3,5.0056152E2,8.7140106E2,2.7169077E2,2.2887076E2,4.2995532E2,4.4144577E2,1.6462787E2,1.0706289E2,3.629356E1,1.9257721E2,8.835703E1,3.415983E2,3.4666895E2,9.477681E1,5.338432E1,1.11243546E2,4.4393257E1,6.2669636E1,3.4869156E1,1.4244039E0,1.0801783E2,8.455938E1,3.8784878E1,4.9572155E1,1.3389804E2,2.0770024E2,2.8211786E2,6.4551094E1,5.451336E1,4.0263447E1,2.015628E1,9.1087265E1,3.8527584E1,5.865674E0,6.025766E1,2.4119747E0,3.283286E1,2.0362992E0,8.269345E1,2.5324375E1,8.000161E1,4.5577645E0,3.2437004E1,6.347874E0,1.102734E1,3.8544815E1,7.762634E1,5.6271694E1,1.1957552E2,8.8124725E1,2.481562E2,3.396165E1,5.859799E1,5.953107E0,5.1739014E1,2.7743478E0,3.4776087E0,3.678584E1,3.6831985E1,1.6955979E0,5.8969933E1,1.2877293E0,2.7396252E1,5.4366055E0,6.817336E1,1.4520092E1,1.1275908E1,1.4048467E1,6.636681E1,1.3634796E1,2.6394906E0,1.9182739E0,2.3794708E1,8.642294E0,3.7321198E0,2.6157541E0,9.309511E0,1.7178293E0,1.4093648E1,2.4451168E1,7.562946E1,1.9968791E0,3.2069584E1,2.420211E1,8.975524E1,2.9820286E1,8.587473E1,2.2499905E0,2.3445087E2,1.3705334E1,1.0592551E1,2.3369099E1,5.7419235E1,1.1787515E0,3.9816957E0,1.9714113E0,1.4584657E0,1.3158822E0,2.2489972E0,1.2286117E0,3.5200634E1,1.5852038E0],"tree_param":{"num_deleted":"0","num_feature":"160","num_nodes":"103","size_leaf_vector":"1"}},{"base_weights":[1.6733377E-3,5.4234177E-1,-3.07526E-1,7.3460215E-1,3.101333E-1,-1.2171642E-1,-5.3459775E-1,4.883764E-2,6.3422155E-1,7.190375E-1,2.2661051E-1,1.3713689E-1,-1.8804067E-1,-4.8928374E-1,-8.5473543E-1,4.7279004E-2,5.6001323E-1,3.6726803E-2,-0E0,3.0692905E-1,1.1354877E-1,3.1452233E-1,1.1121158E-3,-1.0036635E-1,-3.0563685E-1,-3.655811E-1,-5.7526875E-1,-8.781242E-1,-4.605685E-3,6.075905E-1,3.5050252E-1,2.7551433E-1,6.492686E-1,8.085724E-2,4.4497406E-1,3.6261734E-1,-0E0,2.091273E-2,-2.9735098E-2,-5.1984806E-2,-1.9787355E-1,-2.479382E-1,-4.4522995E-1,-3.9737645E-1,-5.4775458E-2,-4.1220343E-1,-6.962038E-1,-4.5542177E-2,-8.804592E-3,3.3607002E-2,2.0768948E-2,2.2085886E-2,2.6059381E-3,1.7961605E-2,8.795566E-3,3.997516E-2,-0E0,5.6192786E-3,-1.0971378E-3,3.0967852E-2,-0E0,7.521094E-3,2.5106464E-2,2.0519642E-3,-0E0,6.6935545E-4,-5.6882105E-3,-3.225134E-3,1.1562775E-2,-3.5622392E-3,-1.416844E-2,-1.4426716E-2,-0E0,-2.358298E-2,-0E0,-2.0388365E-2,-0E0,8.6419407E-4,-8.589755E-3,-2.2951337E-2,-0E0,-3.5109438E-2,-0E0],"categories":[],"categories_nodes":[],"categories_segments":[],"categories_sizes":[],"default_left":[0,0,0,0,0,0,0,0,0,0,0,0,0,0,0,0,0,0,0,0,0,0,0,0,0,0,0,0,0,0,0,0,0,0,0,0,0,0,0,0,0,0,0,0,0,0,0,0,0,0,0,0,0,0,0,0,0,0,0,0,0,0,0,0,0,0,0,0,0,0,0,0,0,0,0,0,0,0,0,0,0,0,0],"id":14,"left_children":[1,3,5,7,9,11,13,-1,15,17,19,21,23,25,27,-1,29,-1,-1,31,33,35,37,39,41,43,45,47,-1,49,51,53,55,57,59,61,63,-1,65,67,69,71,73,75,77,79,81,-1,-1,-1,-1,-1,-1,-1,-1,-1,-1,-1,-1,-1,-1,-1,-1,-1,-1,-1,-1,-1,-1,-1,-1,-1,-1,-1,-1,-1,-1,-1,-1,-1,-1,-1,-1],"loss_changes":[2.2907872E2,2.1318771E1,3.6195732E1,4.8305206E0,7.0098248E0,8.330223E0,4.293915E0,0E0,2.9497757E0,6.565666E-2,1.4268303E0,2.111023E0,3.6645603E0,2.8072357E0,4.373169E-2,0E0,7.382126E-1,0E0,0E0,3.4440708E-1,5.225611E-1,4.5878386E-1,1.030028E0,8.810563E-1,7.0078564E-1,1.1223583E0,2.8577042E0,5.9913635E-2,0E0,5.539665E-1,5.892463E-1,4.23676E-1,3.0613852E-1,3.2826996E-1,2.912568E-1,4.5549965E-1,7.969135E-3,0E0,2.650179E-1,4.5561054E-1,4.872477E-1,1.1509271E0,6.650677E-1,8.2369804E-1,2.5380424E-1,1.7024422E0,3.0109787E-1,0E0,0E0,0E0,0E0,0E0,0E0,0E0,0E0,0E0,0E0,0E0,0E0,0E0,0E0,0E0,0E0,0E0,0E0,0E0,0E0,0E0,0E0,0E0,0E0,0E0,0E0,0E0,0E0,0E0,0E0,0E0,0E0,0E0,0E0,0E0,0E0],"parents":[2147483647,0,0,1,1,2,2,3,3,4,4,5,5,6,6,8,8,9,9,10,10,11,11,12,12,13,13,14,14,16,16,19,19,20,20,21,21,22,22,23,23,24,24,25,25,26,26,27,27,29,29,30,30,31,31,32,32,33,33,34,34,35,35,36,36,38,38,39,39,40,40,41,41,42,42,43,43,44,44,45,45,46,46],"right_children":[2,4,6,8,10,12,14,-1,16,18,20,22,24,26,28,-1,30,-1,-1,32,34,36,38,40,42,44,46,48,-1,50,52,54,56,58,60,62,64,-1,66,68,70,72,74,76,78,80,82,-1,-1,-1,-1,-1,-1,-1,-1,-1,-1,-1,-1,-1,-1,-1,-1,-1,-1,-1,-1,-1,-1,-1,-1,-1,-1,-1,-1,-1,-1,-1,-1,-1,-1,-1,-1],"split_conditions":[-1.7957719E-1,-2.2987245E-1,1.22194365E-1,-1.1119622E0,-8.343581E-1,-1.0216283E-1,2.4299924E0,4.883764E-2,-2.675939E-1,1E0,4.2382947E-1,-1.2928192E-1,-5.3839043E-2,-7.076037E-2,1E0,4.7279004E-2,5.735939E-1,3.6726803E-2,-0E0,1.4557586E0,1E0,1.3557718E0,-1.9098386E0,9.3137383E-1,1.0084922E0,1E0,4.994088E-1,1E0,-4.605685E-3,-2.4244626E-1,1.8235025E-1,-8.38569E-2,2.6261592E0,1.2867266E0,1.4552753E-2,4.8165914E-1,-5.846584E-1,2.091273E-2,-5.3839043E-2,1.6593697E0,-2.1274395E-1,1E0,1E0,1E0,3.6109683E-1,1E0,1E0,-4.5542177E-2,-8.804592E-3,3.3607002E-2,2.0768948E-2,2.2085886E-2,2.6059381E-3,1.7961605E-2,8.795566E-3,3.997516E-2,-0E0,5.6192786E-3,-1.0971378E-3,3.0967852E-2,-0E0,7.521094E-3,2.5106464E-2,2.0519642E-3,-0E0,6.6935545E-4,-5.6882105E-3,-3.225134E-3,1.1562775E-2,-3.5622392E-3,-1.416844E-2,-1.4426716E-2,-0E0,-2.358298E-2,-0E0,-2.0388365E-2,-0E0,8.6419407E-4,-8.589755E-3,-2.2951337E-2,-0E0,-3.5109438E-2,-0E0],"split_indices":[60,60,60,76,76,76,73,0,60,32,76,60,60,81,44,0,76,0,0,81,17,58,76,76,76,36,60,131,0,60,70,70,70,76,70,77,76,0,60,62,81,36,43,135,60,117,47,0,0,0,0,0,0,0,0,0,0,0,0,0,0,0,0,0,0,0,0,0,0,0,0,0,0,0,0,0,0,0,0,0,0,0,0],"split_type":[0,0,0,0,0,0,0,0,0,0,0,0,0,0,0,0,0,0,0,0,0,0,0,0,0,0,0,0,0,0,0,0,0,0,0,0,0,0,0,0,0,0,0,0,0,0,0,0,0,0,0,0,0,0,0,0,0,0,0,0,0,0,0,0,0,0,0,0,0,0,0,0,0,0,0,0,0,0,0,0,0,0,0],"sum_hessian":[1.3673175E3,4.9800748E2,8.6931E2,2.6960562E2,2.2840189E2,4.8063333E2,3.8867667E2,7.440722E1,1.9519838E2,3.602818E1,1.923737E2,9.566107E1,3.8497226E2,3.4461316E2,4.4063496E1,3.3493477E1,1.6170491E2,3.4603775E1,1.4244039E0,1.07850914E2,8.452279E1,3.8715324E1,5.6945747E1,2.2501642E2,1.5995586E2,1.4680469E2,1.9780849E2,4.171481E1,2.3486865E0,1.275082E2,3.419671E1,1.02311844E2,5.539069E0,7.9988815E1,4.5339756E0,3.2367928E1,6.3473945E0,4.6188793E0,5.2326866E1,1.5621638E2,6.8800026E1,1.186885E2,4.1267353E1,1.3088449E2,1.5920197E1,8.857425E1,1.0923423E2,3.8620304E1,3.0945072E0,9.085733E1,3.6650867E1,2.4025755E1,1.0170954E1,5.035404E1,5.1957806E1,3.7913892E0,1.7476801E0,6.635431E1,1.36345005E1,2.615702E0,1.9182739E0,1.565405E1,1.671388E1,3.7316403E0,2.6157541E0,2.963101E1,2.2695858E1,1.5271097E2,3.5054274E0,3.176828E1,3.7031746E1,1.01202644E2,1.7485853E1,3.9652706E1,1.6146481E0,1.2920253E2,1.6819636E0,6.6782207E0,9.241976E0,7.931187E1,9.262385E0,1.079738E2,1.2604313E0],"tree_param":{"num_deleted":"0","num_feature":"160","num_nodes":"83","size_leaf_vector":"1"}},{"base_weights":[1.8813704E-3,5.192119E-1,-2.9318863E-1,7.0433956E-1,2.966627E-1,-1.18870154E-1,-5.1489305E-1,4.6994593E-2,6.0719603E-1,6.8931705E-1,2.1673387E-1,1.2827094E-1,-1.8160267E-1,-4.704546E-1,-4.1130513E-2,4.550406E-2,5.3537506E-1,7.527185E-1,1.3619109E-2,2.9344973E-1,1.0846439E-1,3.013138E-1,-0E0,-9.5569246E-2,-2.921435E-1,-5.2743083E-1,-2.9354608E-1,5.8066773E-1,3.3530566E-1,7.8114974E-1,-0E0,2.3569368E-1,4.398489E-1,7.6449424E-2,4.321525E-1,3.472107E-1,-0E0,2.0110821E-2,-3.162766E-2,-4.9114034E-2,-1.8885408E-1,-2.359507E-1,-4.1732368E-1,-5.519674E-1,-3.1281013E-2,-2.0135388E-1,-4.0774938E-1,3.2128677E-2,1.9802814E-2,2.1080565E-2,2.487496E-3,3.9962362E-2,-0E0,1.3840812E-2,-0E0,-0E0,2.5798261E-2,5.34341E-3,-1.0460467E-3,3.0038996E-2,-0E0,2.1237653E-2,1.9956133E-3,1.9712418E-3,-0E0,6.369885E-4,-5.7218354E-3,-3.0651002E-3,1.1125565E-2,-3.3898454E-3,-1.3493108E-2,-1.3484313E-2,-2.6405946E-4,-2.1992184E-2,-0E0,-1.4031618E-2,-2.988169E-2,-6.7822686E-3,1.0923181E-2,-1.1701608E-2,-0E0,-2.105636E-2,-0E0],"categories":[],"categories_nodes":[],"categories_segments":[],"categories_sizes":[],"default_left":[0,0,0,0,0,0,0,0,0,0,0,0,0,0,0,0,0,0,0,0,0,0,0,0,0,0,0,0,0,0,0,0,0,0,0,0,0,0,0,0,0,0,0,0,0,0,0,0,0,0,0,0,0,0,0,0,0,0,0,0,0,0,0,0,0,0,0,0,0,0,0,0,0,0,0,0,0,0,0,0,0,0,0],"id":15,"left_children":[1,3,5,7,9,11,13,-1,15,17,19,21,23,25,-1,-1,27,29,-1,31,33,35,37,39,41,43,45,47,49,51,-1,53,55,57,59,61,63,-1,65,67,69,71,73,75,77,79,81,-1,-1,-1,-1,-1,-1,-1,-1,-1,-1,-1,-1,-1,-1,-1,-1,-1,-1,-1,-1,-1,-1,-1,-1,-1,-1,-1,-1,-1,-1,-1,-1,-1,-1,-1,-1],"loss_changes":[2.0853E2,1.955249E1,3.3055992E1,4.494293E0,6.40267E0,7.645328E0,3.9065247E0,0E0,2.7462463E0,4.985237E-2,1.2914629E0,1.997811E0,3.436761E0,2.6625137E0,0E0,0E0,6.32534E-1,1.0347557E-1,0E0,3.4256458E-1,4.968487E-1,4.150381E-1,9.606026E-1,8.0336285E-1,6.252079E-1,2.6215134E0,4.0991783E-1,4.803238E-1,5.149133E-1,8.3688736E-2,0E0,6.479807E-1,5.2793837E-1,3.022441E-1,2.6762736E-1,4.5134926E-1,7.3537612E-3,0E0,2.7145994E-1,4.212241E-1,4.2942858E-1,7.557392E-1,5.493164E-1,2.1553268E0,3.4175655E-1,2.9686332E-1,1.02817535E-1,0E0,0E0,0E0,0E0,0E0,0E0,0E0,0E0,0E0,0E0,0E0,0E0,0E0,0E0,0E0,0E0,0E0,0E0,0E0,0E0,0E0,0E0,0E0,0E0,0E0,0E0,0E0,0E0,0E0,0E0,0E0,0E0,0E0,0E0,0E0,0E0],"parents":[2147483647,0,0,1,1,2,2,3,3,4,4,5,5,6,6,8,8,9,9,10,10,11,11,12,12,13,13,16,16,17,17,19,19,20,20,21,21,22,22,23,23,24,24,25,25,26,26,27,27,28,28,29,29,31,31,32,32,33,33,34,34,35,35,36,36,38,38,39,39,40,40,41,41,42,42,43,43,44,44,45,45,46,46],"right_children":[2,4,6,8,10,12,14,-1,16,18,20,22,24,26,-1,-1,28,30,-1,32,34,36,38,40,42,44,46,48,50,52,-1,54,56,58,60,62,64,-1,66,68,70,72,74,76,78,80,82,-1,-1,-1,-1,-1,-1,-1,-1,-1,-1,-1,-1,-1,-1,-1,-1,-1,-1,-1,-1,-1,-1,-1,-1,-1,-1,-1,-1,-1,-1,-1,-1,-1,-1,-1,-1],"split_conditions":[-1.7957719E-1,-2.2987245E-1,1.3476817E-1,-1.1119622E0,-8.343581E-1,-1.0216283E-1,2.4299924E0,4.6994593E-2,-2.675939E-1,-2.0472482E-1,4.2382947E-1,-1.2928192E-1,-5.3839043E-2,3.959725E-1,-4.1130513E-2,4.550406E-2,5.735939E-1,1E0,1.3619109E-2,1.3557718E0,1E0,1.3557718E0,-1.9098386E0,9.3137383E-1,9.760606E-1,1E0,1.7190689E0,-2.4244626E-1,1.8235025E-1,1.1575236E0,-0E0,-1.9215101E-1,1.6710082E-2,1.2867266E0,1.4552753E-2,1E0,-5.846584E-1,2.0110821E-2,-5.3839043E-2,1.6593697E0,-2.1274395E-1,1E0,1E0,1.927564E-1,1E0,6.230476E0,1E0,3.2128677E-2,1.9802814E-2,2.1080565E-2,2.487496E-3,3.9962362E-2,-0E0,1.3840812E-2,-0E0,-0E0,2.5798261E-2,5.34341E-3,-1.0460467E-3,3.0038996E-2,-0E0,2.1237653E-2,1.9956133E-3,1.9712418E-3,-0E0,6.369885E-4,-5.7218354E-3,-3.0651002E-3,1.1125565E-2,-3.3898454E-3,-1.3493108E-2,-1.3484313E-2,-2.6405946E-4,-2.1992184E-2,-0E0,-1.4031618E-2,-2.988169E-2,-6.7822686E-3,1.0923181E-2,-1.1701608E-2,-0E0,-2.105636E-2,-0E0],"split_indices":[60,60,60,76,76,76,73,0,60,60,76,60,60,59,0,0,76,22,0,58,17,58,76,76,76,154,60,60,70,70,0,60,63,76,70,53,76,0,60,62,81,36,43,76,133,72,44,0,0,0,0,0,0,0,0,0,0,0,0,0,0,0,0,0,0,0,0,0,0,0,0,0,0,0,0,0,0,0,0,0,0,0,0],"split_type":[0,0,0,0,0,0,0,0,0,0,0,0,0,0,0,0,0,0,0,0,0,0,0,0,0,0,0,0,0,0,0,0,0,0,0,0,0,0,0,0,0,0,0,0,0,0,0,0,0,0,0,0,0,0,0,0,0,0,0,0,0,0,0,0,0,0,0,0,0,0,0,0,0,0,0,0,0,0,0,0,0,0,0],"sum_hessian":[1.3630438E3,4.9565353E2,8.673902E2,2.6767648E2,2.2797707E2,4.8821625E2,3.7917398E2,7.352149E1,1.9415498E2,3.578745E1,1.9218962E2,9.6366684E1,3.9184955E2,3.3552362E2,4.365037E1,3.310901E1,1.6104597E2,2.8907354E1,6.8800955E0,1.0770091E2,8.448871E1,3.8650043E1,5.771664E1,2.249607E2,1.6688885E2,2.4929575E2,8.6227875E1,1.2691352E2,3.4132442E1,2.6939495E1,1.967859E0,8.253237E1,2.516854E1,7.997718E1,4.511532E0,3.230311E1,6.3469377E0,4.603185E0,5.3113453E1,1.5620305E2,6.8757645E1,1.2103407E2,4.585478E1,2.3609648E2,1.319926E1,5.2632275E1,3.35956E1,9.034552E1,3.6568E1,2.3962317E1,1.0170127E1,2.5819553E1,1.1199408E0,6.801373E1,1.4518644E1,5.1682906E0,2.0000248E1,6.634296E1,1.3634222E1,2.5932577E0,1.9182739E0,2.3670153E1,8.632954E0,3.7311835E0,2.6157541E0,2.9630825E1,2.3482628E1,1.527026E2,3.5004506E0,3.1765627E1,3.699202E1,1.02796265E2,1.8237804E1,4.4019066E1,1.8357118E0,3.724897E1,1.9884752E2,1.1608131E1,1.5911291E0,4.41205E1,8.511775E0,3.201229E1,1.5833108E0],"tree_param":{"num_deleted":"0","num_feature":"160","num_nodes":"83","size_leaf_vector":"1"}},{"base_weights":[2.108097E-3,4.4339508E-1,-3.1422836E-1,6.303044E-1,1.7414919E-1,-1.6259295E-1,-5.076954E-1,8.0048615E-1,4.7324768E-1,3.6712292E-1,7.201897E-2,5.6766495E-3,-2.3533744E-1,-5.75272E-1,-3.1220412E-1,4.6911E-2,6.9698E-1,6.7431414E-1,3.637881E-1,3.7814656E-1,-0E0,1.0505582E-1,-6.072677E-2,2.0534709E-1,-4.486304E-2,-1.3083766E-1,-3.0761328E-1,-4.87783E-1,-8.460002E-1,-2.4595468E-1,-4.4238344E-1,7.103312E-1,-0E0,3.4063976E-2,-0E0,3.7591282E-1,-0E0,4.738096E-1,2.4759015E-1,1.8157345E-1,2.9691523E-2,-1.08732894E-1,6.16957E-3,2.7248204E-1,-0E0,-9.24679E-2,1.4391035E-1,-1.418637E-1,5.9921235E-2,-3.3331323E-1,-2.5547508E-2,-5.149383E-1,-0E0,-8.7308437E-1,-3.30235E-2,-2.722621E-1,-0E0,-4.648763E-1,-0E0,3.57531E-2,-0E0,2.3523724E-2,1.4768993E-2,2.4539076E-2,-0E0,4.5158123E-3,2.409689E-2,1.2676477E-3,1.1703508E-2,2.9029572E-5,8.1951525E-3,-0E0,-6.782309E-3,1.4224159E-2,-0E0,7.159563E-5,-2.4777692E-4,1.7950995E-3,-8.720296E-3,1.1806436E-2,-2.6602445E-3,-7.614877E-3,2.9874052E-4,1.1635075E-2,-0E0,-1.7000929E-2,-0E0,-5.067283E-3,2.3433275E-3,-2.618072E-2,-0E0,-8.938356E-3,5.762646E-3,-1.4805742E-5,-4.4404175E-2,-6.116088E-3,-0E0,-1.4901212E-2,-0E0,-2.3903154E-2,-0E0],"categories":[],"categories_nodes":[],"categories_segments":[],"categories_sizes":[],"default_left":[0,0,0,0,0,0,0,0,0,0,0,0,0,0,0,0,0,0,0,0,0,0,0,0,0,0,0,0,0,0,0,0,0,0,0,0,0,0,0,0,0,0,0,0,0,0,0,0,0,0,0,0,0,0,0,0,0,0,0,0,0,0,0,0,0,0,0,0,0,0,0,0,0,0,0,0,0,0,0,0,0,0,0,0,0,0,0,0,0,0,0,0,0,0,0,0,0,0,0,0,0],"id":16,"left_children":[1,3,5,7,9,11,13,15,17,19,21,23,25,27,29,-1,31,33,35,37,-1,39,41,43,45,47,49,51,53,55,57,59,-1,-1,-1,61,-1,63,65,67,69,71,-1,73,75,77,79,81,83,85,87,89,91,93,95,97,-1,99,-1,-1,-1,-1,-1,-1,-1,-1,-1,-1,-1,-1,-1,-1,-1,-1,-1,-1,-1,-1,-1,-1,-1,-1,-1,-1,-1,-1,-1,-1,-1,-1,-1,-1,-1,-1,-1,-1,-1,-1,-1,-1,-1],"loss_changes":[1.9009943E2,2.7974419E1,2.2679611E1,7.659027E0,4.320636E0,5.6390886E0,3.762825E0,4.3621063E-1,2.9527664E0,2.6250458E-1,7.305365E-1,1.4649212E0,2.0343857E0,4.6430054E0,2.1648407E-1,0E0,4.8524475E-1,2.9083252E-2,2.9993153E-1,3.3199215E-1,0E0,6.029819E-1,2.4982123E-1,4.1942978E-1,9.141947E-1,3.4900904E-1,1.057436E0,2.4218636E0,6.237259E-1,4.616661E-1,2.1268415E-1,2.6031494E-2,0E0,0E0,0E0,1.9617271E-1,0E0,2.628851E-1,9.3801045E-1,3.0673885E-1,1.6557759E-1,6.429604E-2,0E0,6.1472893E-2,1.6520481E-4,1.0165199E0,4.7555438E-1,3.0545378E-1,1.4666402E-1,4.690628E-1,1.4459491E-1,9.7421646E-1,2.8704843E-1,1.06861115E-1,3.2400146E-2,2.9716492E-1,0E0,7.613659E-2,0E0,0E0,0E0,0E0,0E0,0E0,0E0,0E0,0E0,0E0,0E0,0E0,0E0,0E0,0E0,0E0,0E0,0E0,0E0,0E0,0E0,0E0,0E0,0E0,0E0,0E0,0E0,0E0,0E0,0E0,0E0,0E0,0E0,0E0,0E0,0E0,0E0,0E0,0E0,0E0,0E0,0E0,0E0],"parents":[2147483647,0,0,1,1,2,2,3,3,4,4,5,5,6,6,7,7,8,8,9,9,10,10,11,11,12,12,13,13,14,14,16,16,17,17,18,18,19,19,21,21,22,22,23,23,24,24,25,25,26,26,27,27,28,28,29,29,30,30,31,31,35,35,37,37,38,38,39,39,40,40,41,41,43,43,44,44,45,45,46,46,47,47,48,48,49,49,50,50,51,51,52,52,53,53,54,54,55,55,57,57],"right_children":[2,4,6,8,10,12,14,16,18,20,22,24,26,28,30,-1,32,34,36,38,-1,40,42,44,46,48,50,52,54,56,58,60,-1,-1,-1,62,-1,64,66,68,70,72,-1,74,76,78,80,82,84,86,88,90,92,94,96,98,-1,100,-1,-1,-1,-1,-1,-1,-1,-1,-1,-1,-1,-1,-1,-1,-1,-1,-1,-1,-1,-1,-1,-1,-1,-1,-1,-1,-1,-1,-1,-1,-1,-1,-1,-1,-1,-1,-1,-1,-1,-1,-1,-1,-1],"split_conditions":[-1.5442955E-1,-2.1729863E-1,1.8506344E-1,-4.4482023E-1,-7.932284E-2,1.927564E-1,3.9663162E0,-1.434108E0,-2.5502008E-1,1.0566972E0,1.0760385E0,-8.343581E-1,-6.641286E-2,1.5933306E0,2.800417E0,4.6911E-2,5.66012E-1,1E0,1.8614299E0,-5.9785478E-2,-0E0,-1.9215101E-1,1E0,-4.1265227E-2,1E0,1E0,2.73923E0,1E0,1E0,-4.4534838E-1,1E0,1E0,-0E0,3.4063976E-2,-0E0,-8.556779E-1,-0E0,1E0,8.2937384E-1,1.2885429E-1,1.4877226E0,-2.0472482E-1,6.16957E-3,1E0,-1.7525444E0,-1.041343E-1,1E0,1E0,-1.16708115E-1,1E0,-3.917542E-1,1E0,1.4794761E-1,-1.6508636E-1,6.195347E0,1E0,-0E0,1E0,-0E0,3.57531E-2,-0E0,2.3523724E-2,1.4768993E-2,2.4539076E-2,-0E0,4.5158123E-3,2.409689E-2,1.2676477E-3,1.1703508E-2,2.9029572E-5,8.1951525E-3,-0E0,-6.782309E-3,1.4224159E-2,-0E0,7.159563E-5,-2.4777692E-4,1.7950995E-3,-8.720296E-3,1.1806436E-2,-2.6602445E-3,-7.614877E-3,2.9874052E-4,1.1635075E-2,-0E0,-1.7000929E-2,-0E0,-5.067283E-3,2.3433275E-3,-2.618072E-2,-0E0,-8.938356E-3,5.762646E-3,-1.4805742E-5,-4.4404175E-2,-6.116088E-3,-0E0,-1.4901212E-2,-0E0,-2.3903154E-2,-0E0],"split_indices":[60,60,60,76,76,76,61,76,60,73,76,76,60,60,60,0,73,10,76,70,0,60,36,60,36,143,72,154,82,69,33,14,0,0,0,70,0,152,81,63,69,60,0,103,76,60,110,47,60,40,70,84,69,76,60,36,0,44,0,0,0,0,0,0,0,0,0,0,0,0,0,0,0,0,0,0,0,0,0,0,0,0,0,0,0,0,0,0,0,0,0,0,0,0,0,0,0,0,0,0,0],"split_type":[0,0,0,0,0,0,0,0,0,0,0,0,0,0,0,0,0,0,0,0,0,0,0,0,0,0,0,0,0,0,0,0,0,0,0,0,0,0,0,0,0,0,0,0,0,0,0,0,0,0,0,0,0,0,0,0,0,0,0,0,0,0,0,0,0,0,0,0,0,0,0,0,0,0,0,0,0,0,0,0,0,0,0,0,0,0,0,0,0,0,0,0,0,0,0,0,0,0,0,0,0],"sum_hessian":[1.3591451E3,5.682508E2,7.9089435E2,3.330843E2,2.3516647E2,4.4644144E2,3.4445294E2,1.5575703E2,1.7732726E2,7.811691E1,1.5704956E2,1.3212183E2,3.143196E2,2.5186557E2,9.258737E1,6.0467133E1,9.52899E1,5.8434113E1,1.18893135E2,7.540712E1,2.709797E0,1.3014244E2,2.6907124E1,2.886609E1,1.0325573E2,1.3362039E2,1.8069922E2,1.9442287E2,5.744269E1,6.683897E1,2.5748405E1,9.266594E1,2.6239657E0,5.728768E1,1.1464319E0,1.1340627E2,5.486863E0,3.8907482E1,3.6499634E1,5.9268963E1,7.087348E1,2.468279E1,2.2243319E0,2.1611261E1,7.2548294E0,8.582955E1,1.7426174E1,1.300304E2,3.5899966E0,1.6316896E2,1.7530254E1,1.8348865E2,1.0934223E1,5.468588E1,2.7568164E0,6.0590485E1,6.2484827E0,2.4206753E1,1.541654E0,9.148157E1,1.1843715E0,4.5935192E1,6.7471085E1,3.728651E1,1.6209712E0,2.4457968E1,1.2041668E1,1.8634184E1,4.0634777E1,6.3352154E1,7.521323E0,5.6859508E0,1.899684E1,2.0503328E1,1.1079328E0,1.7577816E0,5.497048E0,3.033048E1,5.5499073E1,1.4156499E1,3.2696748E0,1.2585293E2,4.1774616E0,2.0128284E0,1.5771681E0,1.6081502E2,2.3539398E0,1.309275E1,4.4375043E0,1.8097876E2,2.5098846E0,5.171003E0,5.763221E0,1.7296213E0,5.2956257E1,1.4392228E0,1.3175936E0,5.3748337E1,6.8421483E0,2.316847E1,1.038281E0],"tree_param":{"num_deleted":"0","num_feature":"160","num_nodes":"101","size_leaf_vector":"1"}},{"base_weights":[2.3235716E-3,4.0301928E-1,-3.1560922E-1,6.0330516E-1,1.5269421E-1,-1.9216801E-1,-5.174491E-1,7.427983E-1,4.2525524E-1,3.4838742E-1,5.3610303E-2,-2.361346E-2,-2.540484E-1,-6.091741E-1,-2.9550767E-1,4.5106646E-2,6.522917E-1,6.216923E-1,3.236066E-1,3.5716516E-1,-0E0,1.380245E-1,-0E0,1.6516612E-1,-7.932519E-2,-1.4433257E-1,-3.1131813E-1,-5.1607615E-1,-8.131649E-1,-1.23190865E-1,-3.383417E-1,4.657855E-2,5.8493054E-1,6.657409E-1,9.925499E-3,3.3549494E-1,-0E0,3.9905116E-1,1.5941407E-1,1.9631253E-1,-0E0,-2.214856E-2,1.2868582E-1,2.392061E-1,-0E0,-1.2088538E-1,8.265617E-2,-9.8581724E-2,-2.740307E-1,-2.5348535E-1,-4.218974E-1,-0E0,-5.311247E-1,-8.390036E-1,-3.0694067E-2,-1.49030415E-2,-0E0,-3.4811625E-1,-0E0,2.9976655E-2,1.8189553E-3,3.383672E-2,-0E0,1.7004954E-2,-0E0,1.4639355E-2,2.7621776E-2,1.218428E-2,-0E0,6.4989515E-3,2.1882974E-2,-0E0,-2.7680884E-3,8.743619E-3,-0E0,1.2368575E-2,-0E0,6.931331E-5,-6.1475375E-4,-0E0,-8.656356E-3,9.417652E-3,-6.2656165E-3,-5.8982155E-4,-6.933412E-3,-1.6941216E-2,-0E0,-1.3584924E-2,-0E0,-2.186282E-2,-0E0,3.4710919E-3,-4.5023565E-3,-2.7214795E-2,-1.6452816E-3,-4.2462945E-2,-0E0,-5.939447E-3,-0E0,3.2948558E-3,-3.3419628E-3,-1.8110419E-2,-0E0],"categories":[],"categories_nodes":[],"categories_segments":[],"categories_sizes":[],"default_left":[0,0,0,0,0,0,0,0,0,0,0,0,0,0,0,0,0,0,0,0,0,0,0,0,0,0,0,0,0,0,0,0,0,0,0,0,0,0,0,0,0,0,0,0,0,0,0,0,0,0,0,0,0,0,0,0,0,0,0,0,0,0,0,0,0,0,0,0,0,0,0,0,0,0,0,0,0,0,0,0,0,0,0,0,0,0,0,0,0,0,0,0,0,0,0,0,0,0,0,0,0,0,0],"id":17,"left_children":[1,3,5,7,9,11,13,15,17,19,21,23,25,27,29,-1,31,33,35,37,-1,39,41,43,45,47,49,51,53,55,57,-1,59,61,-1,63,-1,65,67,69,-1,71,73,75,77,79,81,83,85,87,89,91,93,95,97,-1,99,101,-1,-1,-1,-1,-1,-1,-1,-1,-1,-1,-1,-1,-1,-1,-1,-1,-1,-1,-1,-1,-1,-1,-1,-1,-1,-1,-1,-1,-1,-1,-1,-1,-1,-1,-1,-1,-1,-1,-1,-1,-1,-1,-1,-1,-1],"loss_changes":[1.7300298E2,2.95391E1,1.8239044E1,7.1195145E0,4.940547E0,4.7313366E0,4.9711075E0,9.5923615E-1,2.1425362E0,2.0849991E-1,8.6755544E-1,1.3319504E0,1.7895279E0,2.4077606E0,2.7934742E-1,0E0,7.0705414E-1,1.5561676E-1,1.9436741E-1,2.5480843E-1,0E0,5.8215594E-1,2.8829426E-1,3.5498893E-1,7.420917E-1,4.455433E-1,8.2798386E-1,1.0608253E0,5.3637695E-1,3.902522E-1,1.965208E-1,0E0,3.6439896E-1,8.226013E-2,0E0,1.1103821E-1,0E0,3.4001637E-1,2.763208E-1,3.664602E-1,0E0,8.694391E-2,9.8415524E-2,4.0324926E-3,1.1152503E-3,5.758128E-1,4.7545138E-1,2.3020637E-1,2.6700783E-1,8.0072784E-1,5.714979E-1,3.9537597E-2,4.7605515E-1,1.2896729E-1,3.0860005E-2,0E0,7.0814274E-2,2.9904175E-1,0E0,0E0,0E0,0E0,0E0,0E0,0E0,0E0,0E0,0E0,0E0,0E0,0E0,0E0,0E0,0E0,0E0,0E0,0E0,0E0,0E0,0E0,0E0,0E0,0E0,0E0,0E0,0E0,0E0,0E0,0E0,0E0,0E0,0E0,0E0,0E0,0E0,0E0,0E0,0E0,0E0,0E0,0E0,0E0,0E0],"parents":[2147483647,0,0,1,1,2,2,3,3,4,4,5,5,6,6,7,7,8,8,9,9,10,10,11,11,12,12,13,13,14,14,16,16,17,17,18,18,19,19,21,21,22,22,23,23,24,24,25,25,26,26,27,27,28,28,29,29,30,30,32,32,33,33,35,35,37,37,38,38,39,39,41,41,42,42,43,43,44,44,45,45,46,46,47,47,48,48,49,49,50,50,51,51,52,52,53,53,54,54,56,56,57,57],"right_children":[2,4,6,8,10,12,14,16,18,20,22,24,26,28,30,-1,32,34,36,38,-1,40,42,44,46,48,50,52,54,56,58,-1,60,62,-1,64,-1,66,68,70,-1,72,74,76,78,80,82,84,86,88,90,92,94,96,98,-1,100,102,-1,-1,-1,-1,-1,-1,-1,-1,-1,-1,-1,-1,-1,-1,-1,-1,-1,-1,-1,-1,-1,-1,-1,-1,-1,-1,-1,-1,-1,-1,-1,-1,-1,-1,-1,-1,-1,-1,-1,-1,-1,-1,-1,-1,-1],"split_conditions":[-1.4185575E-1,-2.1729863E-1,3.233754E-1,-1.9045396E-1,-7.932284E-2,1.927564E-1,3.9663162E0,-1.434108E0,-2.5502008E-1,-1.3037013E-1,-1.9215101E-1,-8.343581E-1,-5.3839043E-2,1.5933306E0,7.7603275E-1,4.5106646E-2,-2.675939E-1,9.0745103E-1,1.8614299E0,-4.6790227E-1,-0E0,8.762435E-1,1.6279782E0,-4.1265227E-2,1E0,1.1881542E0,9.58663E-1,-3.7903243E-1,1E0,4.773277E-1,1E0,4.657855E-2,5.66012E-1,1E0,9.925499E-3,1E0,-0E0,1E0,-7.5478965E-1,8.4951484E-1,-0E0,6.447138E-1,8.972283E-1,8.268639E-1,-1.7525444E0,-9.156048E-2,1E0,-1.1483188E-1,7.528559E-1,1E0,1E0,9.2143065E-1,1E0,1E0,6.195347E0,-1.49030415E-2,5.819273E-1,2.4062593E-3,-0E0,2.9976655E-2,1.8189553E-3,3.383672E-2,-0E0,1.7004954E-2,-0E0,1.4639355E-2,2.7621776E-2,1.218428E-2,-0E0,6.4989515E-3,2.1882974E-2,-0E0,-2.7680884E-3,8.743619E-3,-0E0,1.2368575E-2,-0E0,6.931331E-5,-6.1475375E-4,-0E0,-8.656356E-3,9.417652E-3,-6.2656165E-3,-5.8982155E-4,-6.933412E-3,-1.6941216E-2,-0E0,-1.3584924E-2,-0E0,-2.186282E-2,-0E0,3.4710919E-3,-4.5023565E-3,-2.7214795E-2,-1.6452816E-3,-4.2462945E-2,-0E0,-5.939447E-3,-0E0,3.2948558E-3,-3.3419628E-3,-1.8110419E-2,-0E0],"split_indices":[60,60,60,76,76,76,61,76,60,66,60,76,60,60,60,0,60,70,76,69,0,76,69,60,36,76,76,76,82,59,135,0,73,4,0,14,0,153,73,73,0,76,76,70,76,60,110,81,63,154,43,69,154,107,60,0,59,69,0,0,0,0,0,0,0,0,0,0,0,0,0,0,0,0,0,0,0,0,0,0,0,0,0,0,0,0,0,0,0,0,0,0,0,0,0,0,0,0,0,0,0,0,0],"split_type":[0,0,0,0,0,0,0,0,0,0,0,0,0,0,0,0,0,0,0,0,0,0,0,0,0,0,0,0,0,0,0,0,0,0,0,0,0,0,0,0,0,0,0,0,0,0,0,0,0,0,0,0,0,0,0,0,0,0,0,0,0,0,0,0,0,0,0,0,0,0,0,0,0,0,0,