{"learner":{"attributes":{"scikit_learn":"{\"_estimator_type\": \"regressor\"}"},"feature_names":[],"feature_types":[],"gradient_booster":{"model":{"gbtree_model_param":{"num_parallel_tree":"1","num_trees":"50"},"iteration_indptr":[0,1,2,3,4,5,6,7,8,9,10,11,12,13,14,15,16,17,18,19,20,21,22,23,24,25,26,27,28,29,30,31,32,33,34,35,36,37,38,39,40,41,42,43,44,45,46,47,48,49,50],"tree_info":[0,0,0,0,0,0,0,0,0,0,0,0,0,0,0,0,0,0,0,0,0,0,0,0,0,0,0,0,0,0,0,0,0,0,0,0,0,0,0,0,0,0,0,0,0,0,0,0,0,0],"trees":[{"base_weights":[-4.7566402E-1,-4.7942343E-1,-4.5864046E-1,-2.4074355E-2,-2.3808414E-2,-2.2877278E-2,-2.4109352E-2],"categories":[],"categories_nodes":[],"categories_segments":[],"categories_sizes":[],"default_left":[0,0,0,0,0,0,0],"id":0,"left_children":[1,3,5,-1,-1,-1,-1],"loss_changes":[5.3828125E1,4.4375E0,3.7167969E0,0E0,0E0,0E0,0E0],"parents":[2147483647,0,0,1,1,2,2],"right_children":[2,4,6,-1,-1,-1,-1],"split_conditions":[3.9663162E0,1.0343981E0,1E0,-2.4074355E-2,-2.3808414E-2,-2.2877278E-2,-2.4109352E-2],"split_indices":[61,69,92,0,0,0,0],"split_type":[0,0,0,0,0,0,0],"sum_hessian":[8.446652E5,6.9185244E5,1.528128E5,4.2332747E5,2.6852494E5,1.4604239E5,6.770409E3],"tree_param":{"num_deleted":"0","num_feature":"150","num_nodes":"7","size_leaf_vector":"1"}},{"base_weights":[-4.7516048E-1,-4.7900707E-1,-4.5776027E-1,-2.4055962E-2,-2.3783816E-2,-2.2832109E-2,-2.4091786E-2],"categories":[],"categories_nodes":[],"categories_segments":[],"categories_sizes":[],"default_left":[0,0,0,0,0,0,0],"id":1,"left_children":[1,3,5,-1,-1,-1,-1],"loss_changes":[5.4984375E1,4.546875E0,3.7988281E0,0E0,0E0,0E0,0E0],"parents":[2147483647,0,0,1,1,2,2],"right_children":[2,4,6,-1,-1,-1,-1],"split_conditions":[3.9663162E0,1.0343981E0,1E0,-2.4055962E-2,-2.3783816E-2,-2.2832109E-2,-2.4091786E-2],"split_indices":[61,69,92,0,0,0,0],"split_type":[0,0,0,0,0,0,0],"sum_hessian":[8.248135E5,6.754651E5,1.4934838E5,4.132578E5,2.6220728E5,1.4273925E5,6.6091313E3],"tree_param":{"num_deleted":"0","num_feature":"150","num_nodes":"7","size_leaf_vector":"1"}},{"base_weights":[-4.7464538E-1,-4.7858098E-1,-4.568614E-1,-2.4037132E-2,-2.3758655E-2,-2.2785984E-2,-2.4073808E-2],"categories":[],"categories_nodes":[],"categories_segments":[],"categories_sizes":[],"default_left":[0,0,0,0,0,0,0],"id":2,"left_children":[1,3,5,-1,-1,-1,-1],"loss_changes":[5.615625E1,4.625E0,3.8808594E0,0E0,0E0,0E0,0E0],"parents":[2147483647,0,0,1,1,2,2],"right_children":[2,4,6,-1,-1,-1,-1],"split_conditions":[3.9663162E0,1.0343981E0,1E0,-2.4037132E-2,-2.3758655E-2,-2.2785984E-2,-2.4073808E-2],"split_indices":[61,69,92,0,0,0,0],"split_type":[0,0,0,0,0,0,0],"sum_hessian":[8.054487E5,6.594797E5,1.4596895E5,4.0343512E5,2.5604456E5,1.3951714E5,6.4518076E3],"tree_param":{"num_deleted":"0","num_feature":"150","num_nodes":"7","size_leaf_vector":"1"}},{"base_weights":[-4.741185E-1,-4.7814497E-1,-4.5594355E-1,-2.4017861E-2,-2.3732917E-2,-2.2738893E-2,-2.4055403E-2],"categories":[],"categories_nodes":[],"categories_segments":[],"categories_sizes":[],"default_left":[0,0,0,0,0,0,0],"id":3,"left_children":[1,3,5,-1,-1,-1,-1],"loss_changes":[5.7375E1,4.75E0,3.9609375E0,0E0,0E0,0E0,0E0],"parents":[2147483647,0,0,1,1,2,2],"right_children":[2,4,6,-1,-1,-1,-1],"split_conditions":[3.9663162E0,1.0343981E0,1E0,-2.4017861E-2,-2.3732917E-2,-2.2738893E-2,-2.4055403E-2],"split_indices":[61,69,92,0,0,0,0],"split_type":[0,0,0,0,0,0,0],"sum_hessian":[7.8655875E5,6.438863E5,1.4267239E5,3.9385334E5,2.5003298E5,1.3637406E5,6.2983433E3],"tree_param":{"num_deleted":"0","num_feature":"150","num_nodes":"7","size_leaf_vector":"1"}},{"base_weights":[-4.7357953E-1,-4.776988E-1,-4.5500642E-1,-2.3998138E-2,-2.3706587E-2,-2.2690816E-2,-2.4036564E-2],"categories":[],"categories_nodes":[],"categories_segments":[],"categories_sizes":[],"default_left":[0,0,0,0,0,0,0],"id":4,"left_children":[1,3,5,-1,-1,-1,-1],"loss_changes":[5.853125E1,4.875E0,4.0527344E0,0E0,0E0,0E0,0E0],"parents":[2147483647,0,0,1,1,2,2],"right_children":[2,4,6,-1,-1,-1,-1],"split_conditions":[3.9663162E0,1.0343981E0,1E0,-2.3998138E-2,-2.3706587E-2,-2.2690816E-2,-2.4036564E-2],"split_indices":[61,69,92,0,0,0,0],"split_type":[0,0,0,0,0,0,0],"sum_hessian":[7.6813206E5,6.286754E5,1.394567E5,3.8450653E5,2.4416884E5,1.3330806E5,6.1486416E3],"tree_param":{"num_deleted":"0","num_feature":"150","num_nodes":"7","size_leaf_vector":"1"}},{"base_weights":[-4.7302827E-1,-4.7724226E-1,-4.5404962E-1,-2.397795E-2,-2.367965E-2,-2.2641737E-2,-2.4017284E-2],"categories":[],"categories_nodes":[],"categories_segments":[],"categories_sizes":[],"default_left":[0,0,0,0,0,0,0],"id":5,"left_children":[1,3,5,-1,-1,-1,-1],"loss_changes":[5.9796875E1,4.96875E0,4.138672E0,0E0,0E0,0E0,0E0],"parents":[2147483647,0,0,1,1,2,2],"right_children":[2,4,6,-1,-1,-1,-1],"split_conditions":[3.9663162E0,1.0343981E0,1E0,-2.397795E-2,-2.367965E-2,-2.2641737E-2,-2.4017284E-2],"split_indices":[61,69,92,0,0,0,0],"split_type":[0,0,0,0,0,0,0],"sum_hessian":[7.501573E5,6.1383744E5,1.3631986E5,3.7538894E5,2.3844852E5,1.3031724E5,6.0026113E3],"tree_param":{"num_deleted":"0","num_feature":"150","num_nodes":"7","size_leaf_vector":"1"}},{"base_weights":[-4.7246447E-1,-4.7677517E-1,-4.5307294E-1,-2.3957293E-2,-2.3652105E-2,-2.2591643E-2,-2.3997549E-2],"categories":[],"categories_nodes":[],"categories_segments":[],"categories_sizes":[],"default_left":[0,0,0,0,0,0,0],"id":6,"left_children":[1,3,5,-1,-1,-1,-1],"loss_changes":[6.1015625E1,5.078125E0,4.2265625E0,0E0,0E0,0E0,0E0],"parents":[2147483647,0,0,1,1,2,2],"right_children":[2,4,6,-1,-1,-1,-1],"split_conditions":[3.9663162E0,1.0343981E0,1E0,-2.3957293E-2,-2.3652105E-2,-2.2591643E-2,-2.3997549E-2],"split_indices":[61,69,92,0,0,0,0],"split_type":[0,0,0,0,0,0,0],"sum_hessian":[7.326233E5,5.993634E5,1.3325995E5,3.664949E5,2.3286845E5,1.273998E5,5.8601626E3],"tree_param":{"num_deleted":"0","num_feature":"150","num_nodes":"7","size_leaf_vector":"1"}},{"base_weights":[-4.718879E-1,-4.7629723E-1,-4.5207605E-1,-2.3936149E-2,-2.362393E-2,-2.2540519E-2,-2.3977352E-2],"categories":[],"categories_nodes":[],"categories_segments":[],"categories_sizes":[],"default_left":[0,0,0,0,0,0,0],"id":7,"left_children":[1,3,5,-1,-1,-1,-1],"loss_changes":[6.2328125E1,5.1875E0,4.314453E0,0E0,0E0,0E0,0E0],"parents":[2147483647,0,0,1,1,2,2],"right_children":[2,4,6,-1,-1,-1,-1],"split_conditions":[3.9663162E0,1.0343981E0,1E0,-2.3936149E-2,-2.362393E-2,-2.2540519E-2,-2.3977352E-2],"split_indices":[61,69,92,0,0,0,0],"split_type":[0,0,0,0,0,0,0],"sum_hessian":[7.155194E5,5.852443E5,1.30275086E5,3.5781903E5,2.2742525E5,1.2455388E5,5.721207E3],"tree_param":{"num_deleted":"0","num_feature":"150","num_nodes":"7","size_leaf_vector":"1"}},{"base_weights":[-4.7129825E-1,-4.7580826E-1,-4.5105848E-1,-2.3914514E-2,-2.3595115E-2,-2.248834E-2,-2.3956684E-2],"categories":[],"categories_nodes":[],"categories_segments":[],"categories_sizes":[],"default_left":[0,0,0,0,0,0,0],"id":8,"left_children":[1,3,5,-1,-1,-1,-1],"loss_changes":[6.3578125E1,5.3203125E0,4.4003906E0,0E0,0E0,0E0,0E0],"parents":[2147483647,0,0,1,1,2,2],"right_children":[2,4,6,-1,-1,-1,-1],"split_conditions":[3.9663162E0,1.0343981E0,1E0,-2.3914514E-2,-2.3595115E-2,-2.248834E-2,-2.3956684E-2],"split_indices":[61,69,92,0,0,0,0],"split_type":[0,0,0,0,0,0,0],"sum_hessian":[6.9883494E5,5.7147144E5,1.27363445E5,3.493559E5,2.2211555E5,1.2177779E5,5.585659E3],"tree_param":{"num_deleted":"0","num_feature":"150","num_nodes":"7","size_leaf_vector":"1"}},{"base_weights":[-4.7069532E-1,-4.753081E-1,-4.5002007E-1,-2.3892377E-2,-2.3565652E-2,-2.2435103E-2,-2.3935528E-2],"categories":[],"categories_nodes":[],"categories_segments":[],"categories_sizes":[],"default_left":[0,0,0,0,0,0,0],"id":9,"left_children":[1,3,5,-1,-1,-1,-1],"loss_changes":[6.4859375E1,5.4609375E0,4.4902344E0,0E0,0E0,0E0,0E0],"parents":[2147483647,0,0,1,1,2,2],"right_children":[2,4,6,-1,-1,-1,-1],"split_conditions":[3.9663162E0,1.0343981E0,1E0,-2.3892377E-2,-2.3565652E-2,-2.2435103E-2,-2.3935528E-2],"split_indices":[61,69,92,0,0,0,0],"split_type":[0,0,0,0,0,0,0],"sum_hessian":[6.8255956E5,5.580364E5,1.24523195E5,3.411003E5,2.1693605E5,1.19069766E5,5.4534355E3],"tree_param":{"num_deleted":"0","num_feature":"150","num_nodes":"7","size_leaf_vector":"1"}},{"base_weights":[-4.7007877E-1,-4.7479632E-1,-4.4896045E-1,-2.386972E-2,-2.3535518E-2,-2.2380782E-2,-2.3913883E-2],"categories":[],"categories_nodes":[],"categories_segments":[],"categories_sizes":[],"default_left":[0,0,0,0,0,0,0],"id":10,"left_children":[1,3,5,-1,-1,-1,-1],"loss_changes":[6.6203125E1,5.5390625E0,4.5859375E0,0E0,0E0,0E0,0E0],"parents":[2147483647,0,0,1,1,2,2],"right_children":[2,4,6,-1,-1,-1,-1],"split_conditions":[3.9663162E0,1.0343981E0,1E0,-2.386972E-2,-2.3535518E-2,-2.2380782E-2,-2.3913883E-2],"split_indices":[61,69,92,0,0,0,0],"split_type":[0,0,0,0,0,0,0],"sum_hessian":[6.6668344E5,5.449308E5,1.2175262E5,3.3304722E5,2.1188358E5,1.16428164E5,5.3244546E3],"tree_param":{"num_deleted":"0","num_feature":"150","num_nodes":"7","size_leaf_vector":"1"}},{"base_weights":[-4.694484E-1,-4.7427288E-1,-4.478793E-1,-2.384654E-2,-2.350471E-2,-2.2325367E-2,-2.3891734E-2],"categories":[],"categories_nodes":[],"categories_segments":[],"categories_sizes":[],"default_left":[0,0,0,0,0,0,0],"id":11,"left_children":[1,3,5,-1,-1,-1,-1],"loss_changes":[6.75625E1,5.6875E0,4.6796875E0,0E0,0E0,0E0,0E0],"parents":[2147483647,0,0,1,1,2,2],"right_children":[2,4,6,-1,-1,-1,-1],"split_conditions":[3.9663162E0,1.0343981E0,1E0,-2.384654E-2,-2.350471E-2,-2.2325367E-2,-2.3891734E-2],"split_indices":[61,69,92,0,0,0,0],"split_type":[0,0,0,0,0,0,0],"sum_hessian":[6.511966E5,5.321466E5,1.1904999E5,3.2519162E5,2.0695502E5,1.1385135E5,5.198636E3],"tree_param":{"num_deleted":"0","num_feature":"150","num_nodes":"7","size_leaf_vector":"1"}},{"base_weights":[-4.6880388E-1,-4.7373748E-1,-4.467763E-1,-2.3822825E-2,-2.3473209E-2,-2.2268837E-2,-2.3869067E-2],"categories":[],"categories_nodes":[],"categories_segments":[],"categories_sizes":[],"default_left":[0,0,0,0,0,0,0],"id":12,"left_children":[1,3,5,-1,-1,-1,-1],"loss_changes":[6.89375E1,5.8046875E0,4.7714844E0,0E0,0E0,0E0,0E0],"parents":[2147483647,0,0,1,1,2,2],"right_children":[2,4,6,-1,-1,-1,-1],"split_conditions":[3.9663162E0,1.0343981E0,1E0,-2.3822825E-2,-2.3473209E-2,-2.2268837E-2,-2.3869067E-2],"split_indices":[61,69,92,0,0,0,0],"split_type":[0,0,0,0,0,0,0],"sum_hessian":[6.360896E5,5.1967594E5,1.1641365E5,3.1752866E5,2.0214731E5,1.1133774E5,5.075904E3],"tree_param":{"num_deleted":"0","num_feature":"150","num_nodes":"7","size_leaf_vector":"1"}},{"base_weights":[-4.68145E-1,-4.7318983E-1,-4.456511E-1,-2.379856E-2,-2.3441E-2,-2.2211181E-2,-2.384588E-2],"categories":[],"categories_nodes":[],"categories_segments":[],"categories_sizes":[],"default_left":[0,0,0,0,0,0,0],"id":13,"left_children":[1,3,5,-1,-1,-1,-1],"loss_changes":[7.0296875E1,5.9453125E0,4.8671875E0,0E0,0E0,0E0,0E0],"parents":[2147483647,0,0,1,1,2,2],"right_children":[2,4,6,-1,-1,-1,-1],"split_conditions":[3.9663162E0,1.0343981E0,1E0,-2.379856E-2,-2.3441E-2,-2.2211181E-2,-2.384588E-2],"split_indices":[61,69,92,0,0,0,0],"split_type":[0,0,0,0,0,0,0],"sum_hessian":[6.2135306E5,5.0751112E5,1.1384197E5,3.100536E5,1.9745752E5,1.0888579E5,4.956181E3],"tree_param":{"num_deleted":"0","num_feature":"150","num_nodes":"7","size_leaf_vector":"1"}},{"base_weights":[-4.6747148E-1,-4.726297E-1,-4.445035E-1,-2.377374E-2,-2.3408074E-2,-2.215238E-2,-2.3822153E-2],"categories":[],"categories_nodes":[],"categories_segments":[],"categories_sizes":[],"default_left":[0,0,0,0,0,0,0],"id":14,"left_children":[1,3,5,-1,-1,-1,-1],"loss_changes":[7.1703125E1,6.0546875E0,4.9628906E0,0E0,0E0,0E0,0E0],"parents":[2147483647,0,0,1,1,2,2],"right_children":[2,4,6,-1,-1,-1,-1],"split_conditions":[3.9663162E0,1.0343981E0,1E0,-2.377374E-2,-2.3408074E-2,-2.215238E-2,-2.3822153E-2],"split_indices":[61,69,92,0,0,0,0],"split_type":[0,0,0,0,0,0,0],"sum_hessian":[6.0697794E5,4.956446E5,1.1133336E5,3.0276188E5,1.9288275E5,1.0649397E5,4.8393945E3],"tree_param":{"num_deleted":"0","num_feature":"150","num_nodes":"7","size_leaf_vector":"1"}},{"base_weights":[-4.6678296E-1,-4.7205684E-1,-4.4333303E-1,-2.3748344E-2,-2.3374414E-2,-2.209242E-2,-2.3797877E-2],"categories":[],"categories_nodes":[],"categories_segments":[],"categories_sizes":[],"default_left":[0,0,0,0,0,0,0],"id":15,"left_children":[1,3,5,-1,-1,-1,-1],"loss_changes":[7.3109375E1,6.2265625E0,5.0625E0,0E0,0E0,0E0,0E0],"parents":[2147483647,0,0,1,1,2,2],"right_children":[2,4,6,-1,-1,-1,-1],"split_conditions":[3.9663162E0,1.0343981E0,1E0,-2.3748344E-2,-2.3374414E-2,-2.209242E-2,-2.3797877E-2],"split_indices":[61,69,92,0,0,0,0],"split_type":[0,0,0,0,0,0,0],"sum_hessian":[5.9295544E5,4.8406916E5,1.0888628E5,2.9564897E5,1.8842017E5,1.04160805E5,4.7254727E3],"tree_param":{"num_deleted":"0","num_feature":"150","num_nodes":"7","size_leaf_vector":"1"}},{"base_weights":[-4.6607924E-1,-4.71471E-1,-4.4213945E-1,-2.3722365E-2,-2.3340007E-2,-2.2031285E-2,-2.3773042E-2],"categories":[],"categories_nodes":[],"categories_segments":[],"categories_sizes":[],"default_left":[0,0,0,0,0,0,0],"id":16,"left_children":[1,3,5,-1,-1,-1,-1],"loss_changes":[7.4546875E1,6.3671875E0,5.1660156E0,0E0,0E0,0E0,0E0],"parents":[2147483647,0,0,1,1,2,2],"right_children":[2,4,6,-1,-1,-1,-1],"split_conditions":[3.9663162E0,1.0343981E0,1E0,-2.3722365E-2,-2.3340007E-2,-2.2031285E-2,-2.3773042E-2],"split_indices":[61,69,92,0,0,0,0],"split_type":[0,0,0,0,0,0,0],"sum_hessian":[5.7927675E5,4.7277753E5,1.0649922E5,2.887105E5,1.8406703E5,1.01884875E5,4.614344E3],"tree_param":{"num_deleted":"0","num_feature":"150","num_nodes":"7","size_leaf_vector":"1"}},{"base_weights":[-4.6536E-1,-4.7087196E-1,-4.4092244E-1,-2.3695793E-2,-2.330484E-2,-2.1968957E-2,-2.3747638E-2],"categories":[],"categories_nodes":[],"categories_segments":[],"categories_sizes":[],"default_left":[0,0,0,0,0,0,0],"id":17,"left_children":[1,3,5,-1,-1,-1,-1],"loss_changes":[7.603125E1,6.484375E0,5.2597656E0,0E0,0E0,0E0,0E0],"parents":[2147483647,0,0,1,1,2,2],"right_children":[2,4,6,-1,-1,-1,-1],"split_conditions":[3.9663162E0,1.0343981E0,1E0,-2.3695793E-2,-2.330484E-2,-2.1968957E-2,-2.3747638E-2],"split_indices":[61,69,92,0,0,0,0],"split_type":[0,0,0,0,0,0,0],"sum_hessian":[5.6593356E5,4.6176288E5,1.0417071E5,2.8194222E5,1.7982066E5,9.9664766E4,4.505941E3],"tree_param":{"num_deleted":"0","num_feature":"150","num_nodes":"7","size_leaf_vector":"1"}},{"base_weights":[-4.646249E-1,-4.702594E-1,-4.3968168E-1,-2.3668615E-2,-2.3268895E-2,-2.1905424E-2,-2.372165E-2],"categories":[],"categories_nodes":[],"categories_segments":[],"categories_sizes":[],"default_left":[0,0,0,0,0,0,0],"id":18,"left_children":[1,3,5,-1,-1,-1,-1],"loss_changes":[7.749219E1,6.6328125E0,5.361328E0,0E0,0E0,0E0,0E0],"parents":[2147483647,0,0,1,1,2,2],"right_children":[2,4,6,-1,-1,-1,-1],"split_conditions":[3.9663162E0,1.0343981E0,1E0,-2.3668615E-2,-2.3268895E-2,-2.1905424E-2,-2.372165E-2],"split_indices":[61,69,92,0,0,0,0],"split_type":[0,0,0,0,0,0,0],"sum_hessian":[5.529176E5,4.5101834E5,1.0189931E5,2.753399E5,1.7567842E5,9.749912E4,4.400196E3],"tree_param":{"num_deleted":"0","num_feature":"150","num_nodes":"7","size_leaf_vector":"1"}},{"base_weights":[-4.6387377E-1,-4.6963307E-1,-4.384169E-1,-2.3640817E-2,-2.3232162E-2,-2.1840671E-2,-2.3695068E-2],"categories":[],"categories_nodes":[],"categories_segments":[],"categories_sizes":[],"default_left":[0,0,0,0,0,0,0],"id":19,"left_children":[1,3,5,-1,-1,-1,-1],"loss_changes":[7.9E1,6.7734375E0,5.4628906E0,0E0,0E0,0E0,0E0],"parents":[2147483647,0,0,1,1,2,2],"right_children":[2,4,6,-1,-1,-1,-1],"split_conditions":[3.9663162E0,1.0343981E0,1E0,-2.3640817E-2,-2.3232162E-2,-2.1840671E-2,-2.3695068E-2],"split_indices":[61,69,92,0,0,0,0],"split_type":[0,0,0,0,0,0,0],"sum_hessian":[5.4022094E5,4.405373E5,9.968362E4,2.6889953E5,1.7163778E5,9.538658E4,4.2970444E3],"tree_param":{"num_deleted":"0","num_feature":"150","num_nodes":"7","size_leaf_vector":"1"}},{"base_weights":[-4.6310622E-1,-4.689927E-1,-4.3712774E-1,-2.3612386E-2,-2.3194624E-2,-2.177468E-2,-2.3667878E-2],"categories":[],"categories_nodes":[],"categories_segments":[],"categories_sizes":[],"default_left":[0,0,0,0,0,0,0],"id":20,"left_children":[1,3,5,-1,-1,-1,-1],"loss_changes":[8.0515625E1,6.9296875E0,5.5664062E0,0E0,0E0,0E0,0E0],"parents":[2147483647,0,0,1,1,2,2],"right_children":[2,4,6,-1,-1,-1,-1],"split_conditions":[3.9663162E0,1.0343981E0,1E0,-2.3612386E-2,-2.3194624E-2,-2.177468E-2,-2.3667878E-2],"split_indices":[61,69,92,0,0,0,0],"split_type":[0,0,0,0,0,0,0],"sum_hessian":[5.2783556E5,4.303133E5,9.752227E4,2.6261706E5,1.6769622E5,9.332585E4,4.1964224E3],"tree_param":{"num_deleted":"0","num_feature":"150","num_nodes":"7","size_leaf_vector":"1"}},{"base_weights":[-4.6232194E-1,-4.68338E-1,-4.3581393E-1,-2.358331E-2,-2.3156267E-2,-2.1707438E-2,-2.3640072E-2],"categories":[],"categories_nodes":[],"categories_segments":[],"categories_sizes":[],"default_left":[0,0,0,0,0,0,0],"id":21,"left_children":[1,3,5,-1,-1,-1,-1],"loss_changes":[8.205469E1,7.0703125E0,5.6757812E0,0E0,0E0,0E0,0E0],"parents":[2147483647,0,0,1,1,2,2],"right_children":[2,4,6,-1,-1,-1,-1],"split_conditions":[3.9663162E0,1.0343981E0,1E0,-2.358331E-2,-2.3156267E-2,-2.1707438E-2,-2.3640072E-2],"split_indices":[61,69,92,0,0,0,0],"split_type":[0,0,0,0,0,0,0],"sum_hessian":[5.1575397E5,4.2034003E5,9.5413945E4,2.564887E5,1.6385133E5,9.131567E4,4.098268E3],"tree_param":{"num_deleted":"0","num_feature":"150","num_nodes":"7","size_leaf_vector":"1"}},{"base_weights":[-4.615207E-1,-4.6766874E-1,-4.3447518E-1,-2.3553578E-2,-2.3117075E-2,-2.1638932E-2,-2.361163E-2],"categories":[],"categories_nodes":[],"categories_segments":[],"categories_sizes":[],"default_left":[0,0,0,0,0,0,0],"id":22,"left_children":[1,3,5,-1,-1,-1,-1],"loss_changes":[8.360156E1,7.2265625E0,5.7734375E0,0E0,0E0,0E0,0E0],"parents":[2147483647,0,0,1,1,2,2],"right_children":[2,4,6,-1,-1,-1,-1],"split_conditions":[3.9663162E0,1.0343981E0,1E0,-2.3553578E-2,-2.3117075E-2,-2.1638932E-2,-2.361163E-2],"split_indices":[61,69,92,0,0,0,0],"split_type":[0,0,0,0,0,0,0],"sum_hessian":[5.039687E5,4.1061138E5,9.335733E4,2.5051062E5,1.6010073E5,8.935481E4,4.002521E3],"tree_param":{"num_deleted":"0","num_feature":"150","num_nodes":"7","size_leaf_vector":"1"}},{"base_weights":[-4.6070215E-1,-4.669846E-1,-4.331112E-1,-2.3523172E-2,-2.3077032E-2,-2.1569146E-2,-2.3582546E-2],"categories":[],"categories_nodes":[],"categories_segments":[],"categories_sizes":[],"default_left":[0,0,0,0,0,0,0],"id":23,"left_children":[1,3,5,-1,-1,-1,-1],"loss_changes":[8.516406E1,7.3671875E0,5.8789062E0,0E0,0E0,0E0,0E0],"parents":[2147483647,0,0,1,1,2,2],"right_children":[2,4,6,-1,-1,-1,-1],"split_conditions":[3.9663162E0,1.0343981E0,1E0,-2.3523172E-2,-2.3077032E-2,-2.1569146E-2,-2.3582546E-2],"split_indices":[61,69,92,0,0,0,0],"split_type":[0,0,0,0,0,0,0],"sum_hessian":[4.9247244E5,4.0112128E5,9.135116E4,2.4467914E5,1.5644214E5,8.744204E4,3.9091218E3],"tree_param":{"num_deleted":"0","num_feature":"150","num_nodes":"7","size_leaf_vector":"1"}},{"base_weights":[-4.5986602E-1,-4.6628535E-1,-4.317217E-1,-2.3492087E-2,-2.3036128E-2,-2.1498065E-2,-2.3552803E-2],"categories":[],"categories_nodes":[],"categories_segments":[],"categories_sizes":[],"default_left":[0,0,0,0,0,0,0],"id":24,"left_children":[1,3,5,-1,-1,-1,-1],"loss_changes":[8.674219E1,7.53125E0,5.9902344E0,0E0,0E0,0E0,0E0],"parents":[2147483647,0,0,1,1,2,2],"right_children":[2,4,6,-1,-1,-1,-1],"split_conditions":[3.9663162E0,1.0343981E0,1E0,-2.3492087E-2,-2.3036128E-2,-2.1498065E-2,-2.3552803E-2],"split_indices":[61,69,92,0,0,0,0],"split_type":[0,0,0,0,0,0,0],"sum_hessian":[4.812581E5,3.918639E5,8.939419E4,2.3899067E5,1.5287325E5,8.557617E4,3.8180132E3],"tree_param":{"num_deleted":"0","num_feature":"150","num_nodes":"7","size_leaf_vector":"1"}},{"base_weights":[-4.5901194E-1,-4.6557063E-1,-4.3030632E-1,-2.34603E-2,-2.2994341E-2,-2.1425676E-2,-2.352239E-2],"categories":[],"categories_nodes":[],"categories_segments":[],"categories_sizes":[],"default_left":[0,0,0,0,0,0,0],"id":25,"left_children":[1,3,5,-1,-1,-1,-1],"loss_changes":[8.834375E1,7.6953125E0,6.098633E0,0E0,0E0,0E0,0E0],"parents":[2147483647,0,0,1,1,2,2],"right_children":[2,4,6,-1,-1,-1,-1],"split_conditions":[3.9663162E0,1.0343981E0,1E0,-2.34603E-2,-2.2994341E-2,-2.1425676E-2,-2.352239E-2],"split_indices":[61,69,92,0,0,0,0],"split_type":[0,0,0,0,0,0,0],"sum_hessian":[4.7031884E5,3.8283362E5,8.748523E4,2.3344172E5,1.4939189E5,8.3756086E4,3.7291392E3],"tree_param":{"num_deleted":"0","num_feature":"150","num_nodes":"7","size_leaf_vector":"1"}},{"base_weights":[-4.581397E-1,-4.648402E-1,-4.2886493E-1,-2.3427807E-2,-2.295166E-2,-2.1351965E-2,-2.3491293E-2],"categories":[],"categories_nodes":[],"categories_segments":[],"categories_sizes":[],"default_left":[0,0,0,0,0,0,0],"id":26,"left_children":[1,3,5,-1,-1,-1,-1],"loss_changes":[8.9953125E1,7.8671875E0,6.205078E0,0E0,0E0,0E0,0E0],"parents":[2147483647,0,0,1,1,2,2],"right_children":[2,4,6,-1,-1,-1,-1],"split_conditions":[3.9663162E0,1.0343981E0,1E0,-2.3427807E-2,-2.295166E-2,-2.1351965E-2,-2.3491293E-2],"split_indices":[61,69,92,0,0,0,0],"split_type":[0,0,0,0,0,0,0],"sum_hessian":[4.5964784E5,3.7402475E5,8.562308E4,2.2802884E5,1.4599592E5,8.198063E4,3.6424443E3],"tree_param":{"num_deleted":"0","num_feature":"150","num_nodes":"7","size_leaf_vector":"1"}},{"base_weights":[-4.5724884E-1,-4.6409371E-1,-4.2739716E-1,-2.3394583E-2,-2.2908067E-2,-2.1276921E-2,-2.3459498E-2],"categories":[],"categories_nodes":[],"categories_segments":[],"categories_sizes":[],"default_left":[0,0,0,0,0,0,0],"id":27,"left_children":[1,3,5,-1,-1,-1,-1],"loss_changes":[9.159375E1,8.0078125E0,6.310547E0,0E0,0E0,0E0,0E0],"parents":[2147483647,0,0,1,1,2,2],"right_children":[2,4,6,-1,-1,-1,-1],"split_conditions":[3.9663162E0,1.0343981E0,1E0,-2.3394583E-2,-2.2908067E-2,-2.1276921E-2,-2.3459498E-2],"split_indices":[61,69,92,0,0,0,0],"split_type":[0,0,0,0,0,0,0],"sum_hessian":[4.4923856E5,3.6543194E5,8.3806625E4,2.2274872E5,1.4268323E5,8.024875E4,3.5578762E3],"tree_param":{"num_deleted":"0","num_feature":"150","num_nodes":"7","size_leaf_vector":"1"}},{"base_weights":[-4.5633918E-1,-4.6333098E-1,-4.2590272E-1,-2.3360627E-2,-2.2863548E-2,-2.1200528E-2,-2.3426993E-2],"categories":[],"categories_nodes":[],"categories_segments":[],"categories_sizes":[],"default_left":[0,0,0,0,0,0,0],"id":28,"left_children":[1,3,5,-1,-1,-1,-1],"loss_changes":[9.322656E1,8.1953125E0,6.421875E0,0E0,0E0,0E0,0E0],"parents":[2147483647,0,0,1,1,2,2],"right_children":[2,4,6,-1,-1,-1,-1],"split_conditions":[3.9663162E0,1.0343981E0,1E0,-2.3360627E-2,-2.2863548E-2,-2.1200528E-2,-2.3426993E-2],"split_indices":[61,69,92,0,0,0,0],"split_type":[0,0,0,0,0,0,0],"sum_hessian":[4.390846E5,3.5704988E5,8.203472E4,2.1759808E5,1.394518E5,7.8559336E4,3.4753813E3],"tree_param":{"num_deleted":"0","num_feature":"150","num_nodes":"7","size_leaf_vector":"1"}},{"base_weights":[-4.5541033E-1,-4.6255156E-1,-4.2438146E-1,-2.332591E-2,-2.2818087E-2,-2.112278E-2,-2.3393763E-2],"categories":[],"categories_nodes":[],"categories_segments":[],"categories_sizes":[],"default_left":[0,0,0,0,0,0,0],"id":29,"left_children":[1,3,5,-1,-1,-1,-1],"loss_changes":[9.490625E1,8.3515625E0,6.529297E0,0E0,0E0,0E0,0E0],"parents":[2147483647,0,0,1,1,2,2],"right_children":[2,4,6,-1,-1,-1,-1],"split_conditions":[3.9663162E0,1.0343981E0,1E0,-2.332591E-2,-2.2818087E-2,-2.112278E-2,-2.3393763E-2],"split_indices":[61,69,92,0,0,0,0],"split_type":[0,0,0,0,0,0,0],"sum_hessian":[4.2917966E5,3.4887338E5,8.030627E4,2.1257378E5,1.3629961E5,7.691137E4,3.3949097E3],"tree_param":{"num_deleted":"0","num_feature":"150","num_nodes":"7","size_leaf_vector":"1"}},{"base_weights":[-4.5446202E-1,-4.6175528E-1,-4.2283303E-1,-2.3290433E-2,-2.277167E-2,-2.1043655E-2,-2.3359798E-2],"categories":[],"categories_nodes":[],"categories_segments":[],"categories_sizes":[],"default_left":[0,0,0,0,0,0,0],"id":30,"left_children":[1,3,5,-1,-1,-1,-1],"loss_changes":[9.659375E1,8.515625E0,6.640625E0,0E0,0E0,0E0,0E0],"parents":[2147483647,0,0,1,1,2,2],"right_children":[2,4,6,-1,-1,-1,-1],"split_conditions":[3.9663162E0,1.0343981E0,1E0,-2.3290433E-2,-2.277167E-2,-2.1043655E-2,-2.3359798E-2],"split_indices":[61,69,92,0,0,0,0],"split_type":[0,0,0,0,0,0,0],"sum_hessian":[4.1951762E5,3.408974E5,7.8620234E4,2.0767267E5,1.3322472E5,7.530382E4,3.3164119E3],"tree_param":{"num_deleted":"0","num_feature":"150","num_nodes":"7","size_leaf_vector":"1"}},{"base_weights":[-4.5349392E-1,-4.6094176E-1,-4.2125726E-1,-2.3254171E-2,-2.2724276E-2,-2.096315E-2,-2.3325076E-2],"categories":[],"categories_nodes":[],"categories_segments":[],"categories_sizes":[],"default_left":[0,0,0,0,0,0,0],"id":31,"left_children":[1,3,5,-1,-1,-1,-1],"loss_changes":[9.825E1,8.703125E0,6.75E0,0E0,0E0,0E0,0E0],"parents":[2147483647,0,0,1,1,2,2],"right_children":[2,4,6,-1,-1,-1,-1],"split_conditions":[3.9663162E0,1.0343981E0,1E0,-2.3254171E-2,-2.2724276E-2,-2.096315E-2,-2.3325076E-2],"split_indices":[61,69,92,0,0,0,0],"split_type":[0,0,0,0,0,0,0],"sum_hessian":[4.100926E5,3.3311703E5,7.697555E4,2.028918E5,1.3022525E5,7.373571E4,3.239839E3],"tree_param":{"num_deleted":"0","num_feature":"150","num_nodes":"7","size_leaf_vector":"1"}},{"base_weights":[-4.525057E-1,-4.6011078E-1,-4.196538E-1,-2.3217117E-2,-2.2675896E-2,-2.0881247E-2,-2.3289593E-2],"categories":[],"categories_nodes":[],"categories_segments":[],"categories_sizes":[],"default_left":[0,0,0,0,0,0,0],"id":32,"left_children":[1,3,5,-1,-1,-1,-1],"loss_changes":[9.997656E1,8.8671875E0,6.859375E0,0E0,0E0,0E0,0E0],"parents":[2147483647,0,0,1,1,2,2],"right_children":[2,4,6,-1,-1,-1,-1],"split_conditions":[3.9663162E0,1.0343981E0,1E0,-2.3217117E-2,-2.2675896E-2,-2.0881247E-2,-2.3289593E-2],"split_indices":[61,69,92,0,0,0,0],"split_type":[0,0,0,0,0,0,0],"sum_hessian":[4.0089872E5,3.255275E5,7.537121E4,1.9822816E5,1.2729935E5,7.220606E4,3.165144E3],"tree_param":{"num_deleted":"0","num_feature":"150","num_nodes":"7","size_leaf_vector":"1"}},{"base_weights":[-4.5149708E-1,-4.5926195E-1,-4.1802257E-1,-2.3179252E-2,-2.262651E-2,-2.079794E-2,-2.3253325E-2],"categories":[],"categories_nodes":[],"categories_segments":[],"categories_sizes":[],"default_left":[0,0,0,0,0,0,0],"id":33,"left_children":[1,3,5,-1,-1,-1,-1],"loss_changes":[1.0166406E2,9.0546875E0,6.973633E0,0E0,0E0,0E0,0E0],"parents":[2147483647,0,0,1,1,2,2],"right_children":[2,4,6,-1,-1,-1,-1],"split_conditions":[3.9663162E0,1.0343981E0,1E0,-2.3179252E-2,-2.262651E-2,-2.079794E-2,-2.3253325E-2],"split_indices":[61,69,92,0,0,0,0],"split_type":[0,0,0,0,0,0,0],"sum_hessian":[3.919303E5,3.181241E5,7.380623E4,1.9367889E5,1.2444521E5,7.0713945E4,3.092281E3],"tree_param":{"num_deleted":"0","num_feature":"150","num_nodes":"7","size_leaf_vector":"1"}},{"base_weights":[-4.5046765E-1,-4.58395E-1,-4.163633E-1,-2.3140559E-2,-2.25761E-2,-2.0713221E-2,-2.321626E-2],"categories":[],"categories_nodes":[],"categories_segments":[],"categories_sizes":[],"default_left":[0,0,0,0,0,0,0],"id":34,"left_children":[1,3,5,-1,-1,-1,-1],"loss_changes":[1.0339844E2,9.238281E0,7.0839844E0,0E0,0E0,0E0,0E0],"parents":[2147483647,0,0,1,1,2,2],"right_children":[2,4,6,-1,-1,-1,-1],"split_conditions":[3.9663162E0,1.0343981E0,1E0,-2.3140559E-2,-2.25761E-2,-2.0713221E-2,-2.321626E-2],"split_indices":[61,69,92,0,0,0,0],"split_type":[0,0,0,0,0,0,0],"sum_hessian":[3.8318188E5,3.1090225E5,7.227963E4,1.8924117E5,1.21661055E5,6.925842E4,3.0212048E3],"tree_param":{"num_deleted":"0","num_feature":"150","num_nodes":"7","size_leaf_vector":"1"}},{"base_weights":[-4.4941717E-1,-4.5750958E-1,-4.1467577E-1,-2.3101022E-2,-2.2524655E-2,-2.0627078E-2,-2.3178387E-2],"categories":[],"categories_nodes":[],"categories_segments":[],"categories_sizes":[],"default_left":[0,0,0,0,0,0,0],"id":35,"left_children":[1,3,5,-1,-1,-1,-1],"loss_changes":[1.05140625E2,9.4140625E0,7.194336E0,0E0,0E0,0E0,0E0],"parents":[2147483647,0,0,1,1,2,2],"right_children":[2,4,6,-1,-1,-1,-1],"split_conditions":[3.9663162E0,1.0343981E0,1E0,-2.3101022E-2,-2.2524655E-2,-2.0627078E-2,-2.3178387E-2],"split_indices":[61,69,92,0,0,0,0],"split_type":[0,0,0,0,0,0,0],"sum_hessian":[3.74648E5,3.038575E5,7.0790484E4,1.8491231E5,1.18945195E5,6.783862E4,2.9518718E3],"tree_param":{"num_deleted":"0","num_feature":"150","num_nodes":"7","size_leaf_vector":"1"}},{"base_weights":[-4.483453E-1,-4.566054E-1,-4.129598E-1,-2.3060635E-2,-2.2472156E-2,-2.05395E-2,-2.3139691E-2],"categories":[],"categories_nodes":[],"categories_segments":[],"categories_sizes":[],"default_left":[0,0,0,0,0,0,0],"id":36,"left_children":[1,3,5,-1,-1,-1,-1],"loss_changes":[1.06875E2,9.589844E0,7.305664E0,0E0,0E0,0E0,0E0],"parents":[2147483647,0,0,1,1,2,2],"right_children":[2,4,6,-1,-1,-1,-1],"split_conditions":[3.9663162E0,1.0343981E0,1E0,-2.3060635E-2,-2.2472156E-2,-2.05395E-2,-2.3139691E-2],"split_indices":[61,69,92,0,0,0,0],"split_type":[0,0,0,0,0,0,0],"sum_hessian":[3.6632344E5,2.9698556E5,6.9337875E4,1.8068961E5,1.1629596E5,6.645364E4,2.884239E3],"tree_param":{"num_deleted":"0","num_feature":"150","num_nodes":"7","size_leaf_vector":"1"}},{"base_weights":[-4.4725168E-1,-4.5568213E-1,-4.1121525E-1,-2.3019375E-2,-2.2418585E-2,-2.045048E-2,-2.3100153E-2],"categories":[],"categories_nodes":[],"categories_segments":[],"categories_sizes":[],"default_left":[0,0,0,0,0,0,0],"id":37,"left_children":[1,3,5,-1,-1,-1,-1],"loss_changes":[1.08640625E2,9.777344E0,7.419922E0,0E0,0E0,0E0,0E0],"parents":[2147483647,0,0,1,1,2,2],"right_children":[2,4,6,-1,-1,-1,-1],"split_conditions":[3.9663162E0,1.0343981E0,1E0,-2.3019375E-2,-2.2418585E-2,-2.045048E-2,-2.3100153E-2],"split_indices":[61,69,92,0,0,0,0],"split_type":[0,0,0,0,0,0,0],"sum_hessian":[3.5820306E5,2.9028216E5,6.79209E4,1.7657047E5,1.1371169E5,6.5102633E4,2.8182646E3],"tree_param":{"num_deleted":"0","num_feature":"150","num_nodes":"7","size_leaf_vector":"1"}},{"base_weights":[-4.461361E-1,-4.5473954E-1,-4.094419E-1,-2.2977231E-2,-2.2363931E-2,-2.0360013E-2,-2.3059757E-2],"categories":[],"categories_nodes":[],"categories_segments":[],"categories_sizes":[],"default_left":[0,0,0,0,0,0,0],"id":38,"left_children":[1,3,5,-1,-1,-1,-1],"loss_changes":[1.10390625E2,9.972656E0,7.53125E0,0E0,0E0,0E0,0E0],"parents":[2147483647,0,0,1,1,2,2],"right_children":[2,4,6,-1,-1,-1,-1],"split_conditions":[3.9663162E0,1.0343981E0,1E0,-2.2977231E-2,-2.2363931E-2,-2.0360013E-2,-2.3059757E-2],"split_indices":[61,69,92,0,0,0,0],"split_type":[0,0,0,0,0,0,0],"sum_hessian":[3.502818E5,2.8374312E5,6.653868E4,1.7255233E5,1.1119079E5,6.3784773E4,2.7539087E3],"tree_param":{"num_deleted":"0","num_feature":"150","num_nodes":"7","size_leaf_vector":"1"}},{"base_weights":[-4.4499812E-1,-4.537772E-1,-4.0763956E-1,-2.2934183E-2,-2.2308178E-2,-2.0268088E-2,-2.3018496E-2],"categories":[],"categories_nodes":[],"categories_segments":[],"categories_sizes":[],"default_left":[0,0,0,0,0,0,0],"id":39,"left_children":[1,3,5,-1,-1,-1,-1],"loss_changes":[1.12171875E2,1.015625E1,7.6445312E0,0E0,0E0,0E0,0E0],"parents":[2147483647,0,0,1,1,2,2],"right_children":[2,4,6,-1,-1,-1,-1],"split_conditions":[3.9663162E0,1.0343981E0,1E0,-2.2934183E-2,-2.2308178E-2,-2.0268088E-2,-2.3018496E-2],"split_indices":[61,69,92,0,0,0,0],"split_type":[0,0,0,0,0,0,0],"sum_hessian":[3.4255488E5,2.773645E5,6.519038E4,1.6863278E5,1.0873173E5,6.249925E4,2.6911309E3],"tree_param":{"num_deleted":"0","num_feature":"150","num_nodes":"7","size_leaf_vector":"1"}},{"base_weights":[-4.4383746E-1,-4.5279482E-1,-4.0580818E-1,-2.2890218E-2,-2.2251306E-2,-2.01747E-2,-2.2976348E-2],"categories":[],"categories_nodes":[],"categories_segments":[],"categories_sizes":[],"default_left":[0,0,0,0,0,0,0],"id":40,"left_children":[1,3,5,-1,-1,-1,-1],"loss_changes":[1.139375E2,1.034375E1,7.7539062E0,0E0,0E0,0E0,0E0],"parents":[2147483647,0,0,1,1,2,2],"right_children":[2,4,6,-1,-1,-1,-1],"split_conditions":[3.9663162E0,1.0343981E0,1E0,-2.2890218E-2,-2.2251306E-2,-2.01747E-2,-2.2976348E-2],"split_indices":[61,69,92,0,0,0,0],"split_type":[0,0,0,0,0,0,0],"sum_hessian":[3.3501744E5,2.711423E5,6.387515E4,1.6480933E5,1.0633297E5,6.1245258E4,2.6298926E3],"tree_param":{"num_deleted":"0","num_feature":"150","num_nodes":"7","size_leaf_vector":"1"}},{"base_weights":[-4.4265386E-1,-4.5179212E-1,-4.039475E-1,-2.2845322E-2,-2.21933E-2,-2.0079842E-2,-2.2933297E-2],"categories":[],"categories_nodes":[],"categories_segments":[],"categories_sizes":[],"default_left":[0,0,0,0,0,0,0],"id":41,"left_children":[1,3,5,-1,-1,-1,-1],"loss_changes":[1.1571094E2,1.0542969E1,7.8671875E0,0E0,0E0,0E0,0E0],"parents":[2147483647,0,0,1,1,2,2],"right_children":[2,4,6,-1,-1,-1,-1],"split_conditions":[3.9663162E0,1.0343981E0,1E0,-2.2845322E-2,-2.21933E-2,-2.0079842E-2,-2.2933297E-2],"split_indices":[61,69,92,0,0,0,0],"split_type":[0,0,0,0,0,0,0],"sum_hessian":[3.276649E5,2.6507272E5,6.2592188E4,1.6107966E5,1.0399306E5,6.002203E4,2.570156E3],"tree_param":{"num_deleted":"0","num_feature":"150","num_nodes":"7","size_leaf_vector":"1"}},{"base_weights":[-4.4144693E-1,-4.5076874E-1,-4.020575E-1,-2.2799477E-2,-2.2134146E-2,-1.9983511E-2,-2.2889333E-2],"categories":[],"categories_nodes":[],"categories_segments":[],"categories_sizes":[],"default_left":[0,0,0,0,0,0,0],"id":42,"left_children":[1,3,5,-1,-1,-1,-1],"loss_changes":[1.1748828E2,1.0738281E1,7.977539E0,0E0,0E0,0E0,0E0],"parents":[2147483647,0,0,1,1,2,2],"right_children":[2,4,6,-1,-1,-1,-1],"split_conditions":[3.9663162E0,1.0343981E0,1E0,-2.2799477E-2,-2.2134146E-2,-1.9983511E-2,-2.2889333E-2],"split_indices":[61,69,92,0,0,0,0],"split_type":[0,0,0,0,0,0,0],"sum_hessian":[3.204927E5,2.59152E5,6.1340707E4,1.5744147E5,1.0171053E5,5.8828824E4,2.5118848E3],"tree_param":{"num_deleted":"0","num_feature":"150","num_nodes":"7","size_leaf_vector":"1"}},{"base_weights":[-4.4021645E-1,-4.4972444E-1,-4.0013808E-1,-2.275267E-2,-2.2073828E-2,-1.9885704E-2,-2.2844436E-2],"categories":[],"categories_nodes":[],"categories_segments":[],"categories_sizes":[],"default_left":[0,0,0,0,0,0,0],"id":43,"left_children":[1,3,5,-1,-1,-1,-1],"loss_changes":[1.1927734E2,1.0941406E1,8.088867E0,0E0,0E0,0E0,0E0],"parents":[2147483647,0,0,1,1,2,2],"right_children":[2,4,6,-1,-1,-1,-1],"split_conditions":[3.9663162E0,1.0343981E0,1E0,-2.275267E-2,-2.2073828E-2,-1.9885704E-2,-2.2844436E-2],"split_indices":[61,69,92,0,0,0,0],"split_type":[0,0,0,0,0,0,0],"sum_hessian":[3.1349638E5,2.5337647E5,6.011992E4,1.5389248E5,9.9483984E4,5.766488E4,2.4550422E3],"tree_param":{"num_deleted":"0","num_feature":"150","num_nodes":"7","size_leaf_vector":"1"}},{"base_weights":[-4.3896198E-1,-4.4865876E-1,-3.9818913E-1,-2.2704879E-2,-2.2012327E-2,-1.9786416E-2,-2.2798588E-2],"categories":[],"categories_nodes":[],"categories_segments":[],"categories_sizes":[],"default_left":[0,0,0,0,0,0,0],"id":44,"left_children":[1,3,5,-1,-1,-1,-1],"loss_changes":[1.2107031E2,1.1136719E1,8.197266E0,0E0,0E0,0E0,0E0],"parents":[2147483647,0,0,1,1,2,2],"right_children":[2,4,6,-1,-1,-1,-1],"split_conditions":[3.9663162E0,1.0343981E0,1E0,-2.2704879E-2,-2.2012327E-2,-1.9786416E-2,-2.2798588E-2],"split_indices":[61,69,92,0,0,0,0],"split_type":[0,0,0,0,0,0,0],"sum_hessian":[3.0667172E5,2.4774261E5,5.8929098E4,1.5043056E5,9.731205E4,5.6529504E4,2.3995942E3],"tree_param":{"num_deleted":"0","num_feature":"150","num_nodes":"7","size_leaf_vector":"1"}},{"base_weights":[-4.3768334E-1,-4.475715E-1,-3.9621058E-1,-2.2656094E-2,-2.1949632E-2,-1.9685645E-2,-2.2751782E-2],"categories":[],"categories_nodes":[],"categories_segments":[],"categories_sizes":[],"default_left":[0,0,0,0,0,0,0],"id":45,"left_children":[1,3,5,-1,-1,-1,-1],"loss_changes":[1.2285547E2,1.13359375E1,8.308594E0,0E0,0E0,0E0,0E0],"parents":[2147483647,0,0,1,1,2,2],"right_children":[2,4,6,-1,-1,-1,-1],"split_conditions":[3.9663162E0,1.0343981E0,1E0,-2.2656094E-2,-2.1949632E-2,-1.9685645E-2,-2.2751782E-2],"split_indices":[61,69,92,0,0,0,0],"split_type":[0,0,0,0,0,0,0],"sum_hessian":[3.000144E5,2.4224692E5,5.7767492E4,1.4705353E5,9.519338E4,5.5421984E4,2.3455059E3],"tree_param":{"num_deleted":"0","num_feature":"150","num_nodes":"7","size_leaf_vector":"1"}},{"base_weights":[-4.3638015E-1,-4.4646224E-1,-3.9420238E-1,-2.2606296E-2,-2.1885728E-2,-1.9583387E-2,-2.2703994E-2],"categories":[],"categories_nodes":[],"categories_segments":[],"categories_sizes":[],"default_left":[0,0,0,0,0,0,0],"id":46,"left_children":[1,3,5,-1,-1,-1,-1],"loss_changes":[1.24640625E2,1.1542969E1,8.418945E0,0E0,0E0,0E0,0E0],"parents":[2147483647,0,0,1,1,2,2],"right_children":[2,4,6,-1,-1,-1,-1],"split_conditions":[3.9663162E0,1.0343981E0,1E0,-2.2606296E-2,-2.1885728E-2,-1.9583387E-2,-2.2703994E-2],"split_indices":[61,69,92,0,0,0,0],"split_type":[0,0,0,0,0,0,0],"sum_hessian":[2.935204E5,2.3688603E5,5.663438E4,1.4375934E5,9.312669E4,5.4341633E4,2.292744E3],"tree_param":{"num_deleted":"0","num_feature":"150","num_nodes":"7","size_leaf_vector":"1"}},{"base_weights":[-4.3505216E-1,-4.453308E-1,-3.9216447E-1,-2.2555469E-2,-2.1820597E-2,-1.9479645E-2,-2.2655211E-2],"categories":[],"categories_nodes":[],"categories_segments":[],"categories_sizes":[],"default_left":[0,0,0,0,0,0,0],"id":47,"left_children":[1,3,5,-1,-1,-1,-1],"loss_changes":[1.26421875E2,1.17421875E1,8.527344E0,0E0,0E0,0E0,0E0],"parents":[2147483647,0,0,1,1,2,2],"right_children":[2,4,6,-1,-1,-1,-1],"split_conditions":[3.9663162E0,1.0343981E0,1E0,-2.2555469E-2,-2.1820597E-2,-1.9479645E-2,-2.2655211E-2],"split_indices":[61,69,92,0,0,0,0],"split_type":[0,0,0,0,0,0,0],"sum_hessian":[2.871857E5,2.3165662E5,5.5529074E4,1.4054594E5,9.111068E4,5.3287797E4,2.2412756E3],"tree_param":{"num_deleted":"0","num_feature":"150","num_nodes":"7","size_leaf_vector":"1"}},{"base_weights":[-4.3369907E-1,-4.4417676E-1,-3.9009684E-1,-2.2503601E-2,-2.1754228E-2,-1.9374417E-2,-2.260542E-2],"categories":[],"categories_nodes":[],"categories_segments":[],"categories_sizes":[],"default_left":[0,0,0,0,0,0,0],"id":48,"left_children":[1,3,5,-1,-1,-1,-1],"loss_changes":[1.2820312E2,1.1949219E1,8.631836E0,0E0,0E0,0E0,0E0],"parents":[2147483647,0,0,1,1,2,2],"right_children":[2,4,6,-1,-1,-1,-1],"split_conditions":[3.9663162E0,1.0343981E0,1E0,-2.2503601E-2,-2.1754228E-2,-1.9374417E-2,-2.260542E-2],"split_indices":[61,69,92,0,0,0,0],"split_type":[0,0,0,0,0,0,0],"sum_hessian":[2.8100634E5,2.2655547E5,5.4450887E4,1.3741134E5,8.9144125E4,5.2259816E4,2.1910698E3],"tree_param":{"num_deleted":"0","num_feature":"150","num_nodes":"7","size_leaf_vector":"1"}},{"base_weights":[-4.3232056E-1,-4.429998E-1,-3.8799956E-1,-2.2450674E-2,-2.1686599E-2,-1.9267706E-2,-2.2554597E-2],"categories":[],"categories_nodes":[],"categories_segments":[],"categories_sizes":[],"default_left":[0,0,0,0,0,0,0],"id":49,"left_children":[1,3,5,-1,-1,-1,-1],"loss_changes":[1.2998047E2,1.2152344E1,8.738281E0,0E0,0E0,0E0,0E0],"parents":[2147483647,0,0,1,1,2,2],"right_children":[2,4,6,-1,-1,-1,-1],"split_conditions":[3.9663162E0,1.0343981E0,1E0,-2.2450674E-2,-2.1686599E-2,-1.9267706E-2,-2.2554597E-2],"split_indices":[61,69,92,0,0,0,0],"split_type":[0,0,0,0,0,0,0],"sum_hessian":[2.749786E5,2.2157944E5,5.3399156E4,1.3435362E5,8.7225805E4,5.125706E4,2.1420957E3],"tree_param":{"num_deleted":"0","num_feature":"150","num_nodes":"7","size_leaf_vector":"1"}}]},"name":"gbtree"},"learner_model_param":{"base_score":"6.165058E-1","boost_from_average":"1","num_class":"0","num_feature":"150","num_target":"1"},"objective":{"name":"count:poisson","poisson_regression_param":{"max_delta_step":"0.699999988"}}},"version":[2,1,4]}